words value_1 value_2 value_3 value_4 value_5 value_6 value_7 value_8 value_9 value_10 value_11 value_12 value_13 value_14 value_15 value_16 value_17 value_18 value_19 value_20 value_21 value_22 value_23 value_24 value_25 value_26 value_27 value_28 value_29 value_30 value_31 value_32 value_33 value_34 value_35 value_36 value_37 value_38 value_39 value_40 value_41 value_42 value_43 value_44 value_45 value_46 value_47 value_48 value_49 value_50
the -0.59672064 0.3941474 -0.08983095 0.2972804 0.23082322 0.61054766 0.013613821 0.076396115 0.46631908 0.19841272 0.18745461 0.39553624 -0.318996 -0.28323394 -0.05783696 -1.0204214 0.083688475 -0.385136 0.08934284 -0.58975464 -0.16185065 -0.69773686 -0.40777317 -0.0513469 -0.056716755 -0.64289135 0.6349399 0.14773391 -0.33141145 -0.28575847 0.4249634 0.69584125 -0.3546228 -0.10597512 -0.17133385 0.2118523 0.114091955 -0.4374767 -0.14476511 -0.06082718 -0.27067447 -0.03970337 -0.01580926 -0.11498877 0.29781947 0.28928247 0.108275004 0.11299123 -0.2525026 0.31616974
and 0.20610438 0.30617687 -0.7080104 -0.03872583 0.080398425 -0.16971919 -0.46171558 0.30535623 0.049947266 0.010195727 -0.22545545 0.12697895 -0.143665 -0.14302798 0.47502467 -0.5352534 -0.28879264 -0.13415113 0.5648947 0.1538185 0.59621364 0.3569594 0.005569943 0.17875671 0.4913524 -0.32036385 0.6837166 -0.6740305 -0.21523198 0.12062015 -0.48361987 -0.25960052 -0.4206391 -0.13719475 -0.07667486 0.33118978 0.18494509 -0.17988479 -0.52150375 0.36298653 -0.19552693 0.12994169 0.50345486 -0.35545027 -0.43841022 -0.15557614 0.4784777 -0.70231676 0.27977988 -0.17238747
to 0.5710154 0.25723392 0.18949579 0.6025472 -0.07308008 0.109842345 0.2931738 0.24654572 0.583554 0.54244983 -0.45598623 -0.03949929 -0.20355015 -0.087198354 0.5879839 0.2508772 0.34322044 -0.18114325 0.4075602 0.04909715 -0.38770732 0.16415013 -0.42293707 -0.67524874 0.24152201 0.67587423 -0.04813238 0.22027908 0.65521747 0.14571683 0.79441917 -0.42629117 -0.08283988 -0.4792492 -0.2011296 0.40631035 -0.07266737 -0.2183809 0.069132864 0.33558807 -0.51321113 -0.9719675 0.29898363 0.58391345 0.2667723 -0.001043557 -0.34717458 -0.51915246 0.24505617 0.48614314
a -0.58851635 -0.29222092 -0.83457494 -0.30206615 -0.53217936 0.5285893 -0.56750023 0.1355201 0.034624837 0.6940022 0.2687163 -0.253501 -0.010790323 0.22336748 0.10205009 -0.35514173 0.070571795 -0.62665373 0.7885045 -0.49324995 0.7226951 -0.4484445 -0.33774534 0.39871323 -0.14998993 -0.21849227 -0.18225732 0.7336742 0.34313697 0.18661912 0.4451633 -0.010149737 0.25095457 -0.54965085 -0.108517446 -0.2854084 0.1971768 -0.037806973 -0.36713734 -0.075813375 0.32027817 0.34601542 0.05830425 0.5897766 0.48563313 -0.46762276 -0.020244263 -0.06108301 0.95130056 0.20089284
it 0.50695336 0.33620653 -0.04138887 0.45745856 0.46793896 0.37715942 -0.29911712 0.08441495 0.59124446 0.142037 -0.3331788 -0.25982085 -0.48010373 0.37466305 0.100830205 0.33115906 0.24189796 -0.55953246 -0.08533271 -0.06322277 0.2836134 -0.20045792 0.061597742 -0.35000142 -0.02185118 0.27730125 -0.20680119 -0.39911476 0.29440296 0.24207035 -0.295593 0.6025927 0.5097436 -0.36990744 0.41714942 0.030534824 -0.67767686 0.24547318 -0.16357362 -0.4806874 -0.08167686 -0.07085948 -0.3648017 -0.20528547 0.38151255 -0.7053297 0.423523 0.087454304 0.48476642 -0.362011
she 0.47648743 -0.1544043 -0.04088884 -0.35215566 -0.18972294 0.16883393 -0.52704346 0.5905061 -0.04790967 -0.43580604 -0.08424671 -0.17009811 -0.1450665 -0.38430002 0.4946292 -0.261915 -0.63603616 -0.5412903 -0.50881004 -0.22008823 0.32169747 -0.5174668 -0.2617777 -0.52413255 0.559367 -0.07875635 -0.36810023 -0.38142344 0.5943691 0.2667058 0.09546351 0.3636837 0.037538603 0.6095733 0.3623524 -0.23257108 -0.35178372 -0.46087956 0.011069316 -0.43361548 0.007433533 -0.6013709 0.49827906 0.053620942 -0.033091724 -0.4359977 -0.12778245 0.42151478 0.7739945 0.40247405
i -0.09391127 0.55226207 0.1823874 -0.5916244 0.49816486 -0.3275502 0.22969475 -0.5250135 0.3874774 0.3163623 -0.7239197 -0.19125868 0.21247754 -0.644891 -0.12485722 0.6636725 0.0005002833 0.24796382 0.61384857 0.5278737 0.3250396 -0.47229984 0.2917926 -0.4183975 0.33840412 -0.2918335 0.23946428 -0.2105242 0.67860055 -0.5693481 -0.30614206 0.5121524 -0.31329173 0.44682944 0.4941749 0.5653342 -0.26132533 -0.012366287 0.16550162 -0.29360273 0.121233106 -0.28494245 0.13130291 0.43662128 0.103644885 -0.39425617 0.23743023 0.22766648 1.0253671 0.16812769
of 0.1709529 -0.16835493 0.7146728 -0.13779494 0.114245415 0.33270934 0.09694083 0.8301815 -0.044674654 -0.5395589 -0.11121209 0.8098259 0.14488138 -0.027999852 -0.3499705 -0.604564 0.45215064 0.72407603 0.8206582 -0.23402406 0.6396419 0.613932 0.3207539 0.13287327 -0.46665508 -0.9447936 0.7532589 0.35586157 0.50830245 -0.25705612 0.27702585 0.011697929 0.4775717 0.76880085 0.2975013 -0.13021648 -0.34103394 -0.44409218 -0.26467073 -0.016050126 -0.37834367 -0.057776444 0.0067221774 0.413427 0.84268904 0.34448326 0.012339249 -0.33803317 -0.124193385 -0.06995881
said -0.24434648 0.3243889 -0.54018736 0.33242896 -0.4971872 -0.022542587 -0.044467762 -0.41113392 0.0461701 0.01618563 -0.44933316 0.46562028 -0.80503434 -0.37423602 -0.43156415 -0.13302979 0.6373541 -0.30571824 0.13171211 -0.11235699 -0.13736686 0.2511385 -0.1345679 -0.32935464 -0.22805391 -0.60064965 0.53190494 0.5591925 0.24167664 -0.20140868 -0.38326275 -0.41825 -0.26758566 -0.07594273 0.8176204 -0.23842686 -0.38465244 -0.5781071 0.38251007 0.049903356 -0.02990081 0.3262592 -0.12376215 0.412515 0.25080925 -0.7291635 0.1274299 -0.4482357 -0.4029887 0.17707576
you -0.008867142 -0.07949721 -0.626072 0.7669476 0.4233147 0.44774017 0.30510023 -0.17557444 -0.29742438 0.26404294 0.112445086 0.39718983 -0.30600843 -0.60207397 -0.36799192 0.694749 -0.018497234 0.23485552 -0.023131046 0.30429596 0.6558701 -0.15190578 -0.5048246 -0.67571294 0.56687146 0.35711265 0.06754348 0.046448153 0.37931204 -0.5103049 -0.34340668 0.71443856 -0.22707996 -0.022548152 0.4577758 -0.17597952 -0.31980285 -0.0023922985 -0.17972293 0.54469234 0.387209 -0.53327394 -0.21377872 0.7391319 -0.42361757 -0.29967478 0.41800874 -0.09400909 0.71085674 0.3263144
alice 0.34906358 0.042142082 -0.605892 -0.51681334 0.23475136 -0.032294318 -0.014406822 0.6385452 -0.12565304 0.43060315 0.16719027 0.018815257 -0.42475748 -0.4076907 -0.2310541 0.5383309 -0.26176062 -0.4877928 0.5876477 -0.60739917 0.14944425 -0.23338243 -0.084713124 -0.40796268 -0.04506567 -0.42167428 0.27164328 -0.68583316 -0.015561662 0.31118566 0.101567745 0.2872554 -0.04115434 0.2611705 0.08220205 -0.31185374 -0.3624781 0.13269699 0.57781243 -0.41908517 -0.58413726 -0.6832003 -0.4144914 0.44850367 0.29555726 -0.57351553 0.05219572 -0.64103657 -0.6124076 -0.057792556
in -0.48152673 0.35115126 -0.44878504 -0.41140643 0.6028001 0.46910465 0.45652315 0.23417734 0.28103915 -0.48056167 -0.19784398 -0.43167043 0.0872296 0.3692231 0.49560302 -0.93464077 0.77115625 -0.77971894 0.1788677 0.13058084 0.6050891 0.52911127 -0.8082497 -0.04339188 -0.6257253 0.033923417 0.019211447 0.34666514 -0.30581927 -0.8179948 0.61108255 -0.3816961 -0.6361186 0.15313207 0.29314968 0.622779 -0.655526 0.028997201 -0.29317784 -0.038115565 0.3125337 0.14184159 0.51829875 0.60791725 -0.46536183 -0.20997599 0.08724631 0.1856481 -0.18623693 -0.34978822
was -0.02687092 0.48587647 0.6587323 0.6923181 0.32667553 -0.624137 -0.50107825 0.7458957 -0.24622436 0.3529369 -0.40939656 0.20733197 -0.70364434 0.021130636 0.05939452 -0.33592513 -0.0060041305 -0.2586733 0.30267757 -0.24742918 -0.54308796 0.27363202 -0.6805994 0.073333986 -0.40294167 -0.39752904 -0.40789634 0.3843033 -0.0819151 0.14569415 -0.064661756 -0.18287066 -0.07475004 0.27087176 0.22160369 -0.5813474 -0.122470275 -0.310048 -0.344635 -0.48953888 -0.11291271 -0.24618243 -0.13191415 0.03426392 -0.6851878 -0.6180908 0.5769701 -0.2394333 0.22989425 0.29170382
that 0.67535114 -0.14621486 -0.18710709 -0.22152911 0.17876339 0.5395807 0.28053835 0.37574166 0.4506376 0.29209444 -0.4858596 0.1496501 0.4117115 -0.75364655 -0.24770345 0.1726812 0.29294974 -0.3210458 0.029805698 -0.041341 0.097178966 -0.3652095 -0.373314 0.2023603 -0.20742725 -0.41614026 -0.5038545 -0.0695255 0.84448904 0.33891422 -0.34025007 0.072941795 0.1503013 -0.5497255 0.13870077 -0.03478385 -0.48615232 0.20155093 -0.14682652 -0.056979563 -0.6137871 0.33283418 -0.23776856 0.38324067 0.3770593 0.58896124 0.35660136 0.39723462 0.119005576 0.16236646
as 0.11951223 -0.07254093 0.25938234 0.5806995 0.48903805 0.24074036 -0.6231857 0.082665525 0.13717598 -0.1176636 0.0004391872 -0.1776701 0.66236436 0.12664674 0.39410654 -0.45609537 0.89479506 -0.15578562 -0.03621387 -0.4696916 0.4499148 0.11215596 -0.12925579 -0.17658404 -0.21822059 -0.7553987 -0.5659495 -0.26268977 0.8249683 0.4637316 -0.4824325 0.34001052 -0.7050562 0.38203442 0.4525933 0.15310581 0.32401755 -0.5485874 0.24969718 0.611458 -0.5296215 -0.2062361 0.64825577 0.22825013 -0.0184614 -0.50886685 0.011921049 0.25653607 0.23094636 -0.11174981
her -0.6913937 -0.2307881 -0.13854577 -0.26623002 0.50947744 -0.6369734 -0.054793574 0.38000613 0.3298161 0.10620567 -0.07497765 0.35732138 -0.03472132 0.5847655 0.03059498 -0.48245686 -0.02262252 0.2781815 -0.048539747 -0.34224334 0.19520392 -0.780392 -0.49587482 -0.9132706 -0.59836525 0.09279979 0.15811084 -0.9861005 0.34670946 0.18531208 0.5341032 -0.65613014 -0.11999934 0.26997566 0.25616345 -0.1963804 0.29227912 -0.05290398 -0.4346413 0.36830962 -0.76674455 0.054750156 -0.43529275 0.10412454 0.2089259 -0.5719866 0.35087577 0.407769 0.14442022 0.0866726
t 0.6825138 0.8939707 -0.5275594 0.7268758 0.4875816 0.018975189 0.033125572 -0.26770893 0.7958802 0.47816318 0.1889551 -0.19484194 0.05690348 -0.4736839 -0.37348863 0.52917284 -0.054659765 0.4689284 -0.31012484 0.48380303 0.3738339 0.09290126 0.1863724 0.09072922 -0.5377819 -0.37857074 -0.9296116 0.52827144 0.7893012 -0.73072934 0.7280202 0.30165452 -0.5733447 -0.20175692 0.45813894 -0.32540944 0.26579592 -0.001800325 0.34109414 0.68605345 0.10396153 0.20564409 -0.010864394 -0.38812923 -0.15534201 -0.43009692 0.53549796 -0.9835936 0.46468174 -0.2660016
at 0.19943482 -0.18030515 -0.32908234 -0.51334476 0.12971887 0.4063026 -0.62259746 -0.25031385 0.77212936 -0.3188488 -0.27070808 0.08739373 -1.1316481 -0.46573174 -0.14366396 -0.5382043 0.6944552 0.29857662 0.458037 -0.08240883 0.28980008 -0.013006686 0.016209092 0.07243095 -0.5476706 0.049662 -0.41540483 0.016036116 -0.48394197 -0.20885581 0.63457394 -0.4060765 0.5169946 0.17921309 -0.10272605 -0.32430336 -0.23394279 -0.100392915 0.42420623 -0.20853564 -0.21001604 -0.32150128 1.1880018 -0.092606746 0.21256636 -0.09343912 0.9427506 0.033657838 -0.4865313 0.12711768
s 0.055117924 0.43157786 0.71442574 -0.28883624 0.16590105 -0.68484676 0.061584357 0.5415983 -0.23138294 0.74253416 -0.8342314 0.63749665 0.29673088 0.4083447 -0.29591754 -0.5861217 -0.31965902 -0.4050769 0.19805066 -0.6030189 -0.2630431 0.20301968 -0.45689398 0.19888052 -0.30139053 0.070071094 -0.09679094 -0.120465145 0.4566581 -0.539232 0.07133324 -0.17215092 -0.54512507 -0.56115997 0.14742921 -0.29877338 -0.52527535 -0.111311436 0.09304462 -0.24852803 0.10382256 0.20494351 0.009297543 0.5913637 0.06625683 -0.68233746 0.64152616 0.06543264 -0.29119745 0.28850377
on -0.23967373 -0.03807967 -0.5771885 0.20051853 0.43243417 0.6188777 -0.04246972 0.19366771 -0.047411565 -0.09163386 -0.09647896 0.7464793 0.35102755 -0.21521752 0.47865328 -0.30937394 0.013982465 0.22589695 -0.3113994 -0.9100063 0.43807954 0.7180121 -0.017492726 0.20131882 0.1830269 -0.22740327 -0.54969573 0.1576139 -0.08187174 -1.0258516 -0.27047202 -0.31552973 -0.31230557 -0.53660274 -0.2741544 0.29207247 -0.17424046 -0.15690663 -0.11865887 0.016150946 -0.908197 0.02002525 -0.07095949 -0.6104256 -0.14450009 -0.7369219 -0.020794142 0.34709227 0.4509788 0.6093215
all 0.49733695 0.6655647 0.025296517 -0.16398746 0.35623202 0.86030453 -0.33011633 -0.13215356 -0.023854736 -0.26109084 -0.49251968 0.20353532 0.19435649 -0.039069198 0.0066340365 -0.23466308 0.4732949 0.27593896 0.5167368 0.42442024 -0.353602 -0.35526046 -0.31475246 -0.19394363 0.17424585 -0.41611978 -0.086010054 -0.53447294 -0.3221086 0.4146951 0.93917626 0.0137255695 -0.18869598 -0.27671728 0.1522762 0.03351434 -0.16002521 0.5471965 0.035805497 -0.26231998 -0.5553405 0.34239015 0.4426929 -0.21265507 -0.39520368 0.060959626 -0.06769172 -0.32989845 0.048699807 0.33159104
with -0.60486853 -0.6064711 -0.07276097 -0.0280494 -0.068954274 -0.29482117 0.37777123 0.7668165 0.8037722 0.108360216 -0.006476635 0.33099106 0.37521753 -0.45513025 -0.1427368 -0.5513961 -0.025925718 0.6404931 0.8094115 -0.4254346 -0.1704648 0.6693684 -0.09720738 0.37906912 0.21710089 0.4676853 -0.18082154 0.061382864 0.532605 -0.2786013 0.392105 -0.16833554 -0.8236976 -0.19465612 -0.2560132 0.28968686 -0.3288729 -0.049657885 -0.3560478 -0.08579159 -0.13613538 0.655826 0.38730687 -0.46778774 -0.022609293 -0.4564964 0.14216629 -0.34800255 0.5941584 0.21923465
had 0.20706789 -0.17230825 0.17115906 0.35867894 0.09949175 0.52677053 -0.7501183 -0.22606392 -0.05404802 -0.4391603 -0.5108278 0.113471426 -0.19360141 -0.046592847 -0.14032134 0.5229108 -0.6661688 -0.4679125 0.80272824 -0.73908997 -0.58945173 -0.020256363 -0.32350048 -0.13691935 -0.44099197 0.2260523 -0.43838438 0.15812634 0.35758063 0.08701875 -0.22590834 -0.43643495 -0.0018750731 0.38943416 0.23716356 0.2873641 -0.4656132 -0.7355665 -0.13507405 0.106298596 -0.14457011 -0.18096916 0.055845227 1.0069973 -0.78821903 0.3682713 0.16903496 -0.018778933 -0.25176108 0.17464845
but 0.20511937 0.43912765 -0.04849032 -0.3661144 -0.17612293 0.5333742 0.008396643 0.06926706 0.19743416 -0.046921458 -0.27403244 -0.18352127 0.3835224 -0.753281 -0.25482187 0.5411868 0.39393583 -0.6110301 0.5019026 -0.6418157 0.043374225 0.17515479 -0.04380165 -0.027731195 0.53778243 -0.3990246 -0.119767636 -0.1910444 0.28325245 -0.13981757 -0.08747433 0.06857584 -0.37692168 -0.13429718 0.5754376 -0.51259243 0.4566122 0.2329683 0.25408226 -0.1735205 -0.2678189 0.43780047 -0.23186184 -0.4363678 0.2745106 0.06833087 0.33266765 -0.20642515 -0.29894248 0.34820694
for 0.35191533 0.5879515 0.083120696 0.14396462 -0.3110257 0.7531203 -0.06382104 0.44544968 0.3653761 -0.481482 0.42155197 -0.40881774 -0.44169533 0.3413723 -0.3481358 0.28758162 0.41200304 0.28175005 -0.2145392 -0.6633105 0.8206547 0.49600813 -0.20358288 0.10597416 -0.004620835 -0.28182852 -0.42444932 0.30355987 0.08844179 0.35054967 0.08175351 -0.23307097 -0.6060494 0.10474539 -0.18042845 0.18310107 -0.9216012 0.16689543 0.03784283 -0.012590451 -0.27438146 -0.06762777 -0.16184881 -0.15973984 -0.4181482 0.24434671 0.2835482 -0.5751237 0.5446109 0.023761876
they 0.33025202 -0.24846378 -0.36977354 0.11407351 0.3061319 0.34220257 -0.21116488 -0.27180684 -0.062821545 -0.5818163 -0.39939806 0.44200307 0.0035238117 -0.62961197 0.14613198 0.46460053 -0.5257151 0.41552877 0.49633637 0.46493363 0.62257063 -0.59377337 -0.7305039 -0.22170101 0.24341053 0.4747921 0.24652559 -0.8775416 -0.055764616 -0.4676634 0.12323218 0.26715103 -0.47023472 0.2098888 0.11310566 -0.23110396 -0.90605074 -0.071304224 -0.37204498 -0.5589767 0.19133542 -0.38377807 -0.27893052 -0.27103883 0.32220903 -0.44115287 -0.2938636 0.0143262725 0.07642017 0.67960066
so 0.20128673 -0.1824265 -0.9647789 0.2337864 -0.13040023 0.23447101 0.13707197 -0.041908447 0.32923275 -0.54922557 -0.36345348 -0.2291368 0.15467225 0.29383266 0.42395052 0.1678373 0.017059268 -0.043655448 -0.23444209 -0.6049203 0.1432235 -0.3179106 0.5406731 0.36823893 0.11454244 -0.7054266 -0.5023441 -0.8793591 0.8145627 -0.2956842 0.33610836 -0.015330413 -0.2440604 0.32040566 -0.18724307 -0.0012068468 -0.31154385 -0.12964569 0.0037931171 0.13561615 -0.23162581 -0.08181915 0.446281 0.9125458 -0.025327247 -0.019156465 -0.05665049 0.045074496 -0.16535166 0.14120814
be 0.5223439 0.029568791 -0.42826974 0.29288885 0.17352621 -0.6455597 0.19537628 0.026978182 -0.33294517 0.7790829 -0.70837975 0.3612358 -0.04098707 -0.10480418 0.43742445 0.40940562 -0.18483697 -0.49883237 0.35498703 -0.20246539 0.34793246 -0.024331523 -0.4353342 -0.27827442 -0.34106812 0.1871168 -0.577827 0.32104236 0.5781568 -0.028417954 1.0022156 0.54853 -0.25991085 0.15877387 0.84607565 -0.18565051 -0.8841565 -0.6627509 0.29237065 0.018340401 0.005964134 0.33492127 -0.33020028 -0.4256099 0.14668626 0.36330944 0.23094459 0.29846996 0.30404678 -0.4798068
not 0.20341754 -0.5157046 -0.28214347 0.52831435 -0.2970916 0.23816471 0.17042518 -0.013565831 -0.32017332 0.37520695 -0.5185591 -0.43171257 -0.112195924 -0.4372425 -0.43964982 0.60440916 0.12034141 -0.6736381 0.0110615 -0.015904956 -0.23833162 0.045329694 0.45859435 -0.38949153 -0.06493012 -0.61669195 -0.53877497 -0.22264932 0.21168876 -0.4163443 -0.197097 0.4174107 -0.37621728 0.35979623 -0.32456413 -0.2795292 -0.78484744 -0.009031081 -0.10684449 0.49923268 -1.0429447 -0.18742406 0.19267538 -0.30798015 0.24177967 -0.173029 0.44944903 -0.6159846 0.5072423 0.49118823
very -0.15443437 -0.037800826 -0.42982122 -0.16040757 0.2526874 -0.20990893 -0.7830471 0.03787373 0.3008542 0.15195577 0.1471466 -0.30792844 0.48455018 0.4600971 0.31983036 0.6557735 0.8875746 -0.26290104 -0.47340727 0.17918254 -0.4628111 -0.18873559 0.29643807 -0.22573125 0.6278133 -0.4483376 -0.27843574 0.35011655 0.4916377 -0.3044804 0.5372554 -0.11242689 -0.025061129 0.27283755 0.040749267 -0.40305588 -0.19469525 -0.592624 -0.261421 -0.44345072 0.025416471 -0.08886283 -0.39664748 0.9136634 0.45370808 -0.5223324 0.5148112 -0.5722173 -0.22161442 0.06042429
what 0.37259653 -0.22870158 -0.007878061 0.23724322 0.44874886 0.40679342 0.63036853 0.20025457 -0.051391464 0.5075414 -0.2174198 0.61002177 0.62204313 -0.5111529 -0.374682 0.54768145 0.71951216 -0.6177233 -0.44192603 -0.17427346 0.16009948 -0.3649909 0.122613505 -0.45246348 0.05511397 -0.49679196 0.24377781 0.06182483 0.7264764 -0.07850189 -0.04772062 -0.06253528 0.16880204 -0.043419734 0.42270333 -0.385786 -0.43811724 0.6482997 -0.20751962 0.053534877 -0.18144225 0.008340252 0.13401431 0.598965 -0.00839079 0.13847251 0.32365146 -0.34809068 0.39894027 -0.025505988
this -0.22301494 0.51544785 0.044757698 -0.13824913 0.022328062 0.017823955 0.00483071 0.03422604 0.32477346 0.06284887 -0.20158473 -0.5635223 -0.25782478 -0.10446618 0.21888351 -0.13594899 0.88020563 -0.07241176 0.8651755 -0.5685459 -0.07089653 -0.34600124 0.032438047 -0.8832807 -0.32254884 -0.3640909 -0.13045654 -0.055324893 0.1499987 -0.2526272 0.20452364 -0.11104355 -0.036492143 0.14799677 0.18133132 -0.28807792 -0.5889226 0.26960897 -0.09406175 -0.11203282 0.11689279 -0.090585954 -0.406152 -0.04408269 0.3933289 0.34348604 0.18276991 0.29871464 0.29150796 0.48052382
little -0.1698617 0.64661646 -0.01036462 -0.13668743 -0.082350254 1.1685716 -0.23436818 0.33587006 -0.42271528 0.023725592 0.61310256 -0.41087344 -0.12157489 -0.31045175 0.48617542 -0.4394587 0.083802775 -0.45757443 0.070958234 0.414711 -0.46620074 0.4058535 -0.34520963 0.016506705 0.08902191 -0.6229044 0.5001623 -0.34051183 0.7426758 -0.024195276 0.22121288 -0.16938148 0.6707552 0.24382594 -0.023147823 0.12819408 0.4064444 -0.2184628 -0.10609358 -0.73909116 -0.37729645 0.5825435 0.06000976 0.5600716 0.47481635 -0.10088749 0.5911081 -0.10516429 0.4614008 -0.5848064
he 0.13860403 -0.40539074 -0.03130944 0.59604406 0.21092033 0.24243237 -0.62867194 -0.46523568 0.6351888 -0.30299863 0.099722855 0.18976095 -0.5476649 -0.33270243 0.29014283 -0.0797738 -0.018235886 0.29342696 -0.3450101 -0.24466784 0.5159518 -0.37021732 -0.41974288 -0.21766369 1.0360041 -0.4131756 -0.68147904 -0.26974088 0.17038459 0.29899254 -0.047849804 0.68126875 -0.08405458 0.24505721 0.1115562 0.13695316 -0.17722252 -0.077623345 0.3704578 -0.08385956 0.2295522 -0.49996063 0.046734992 -0.3889183 0.0860983 -0.9982031 0.4957709 -0.19956988 -0.3401021 0.188886
out 0.24027978 -0.22419539 -0.04870202 0.41469058 0.15648545 0.38868493 0.07165099 -0.36785287 0.9223846 -0.6197742 -0.046774913 -0.070766486 0.0744882 0.44022086 0.04664759 0.21812156 -0.11073525 -0.009952512 0.13582315 0.03822584 -0.30317548 0.16651326 -0.22466023 0.41118973 0.16051853 -0.2308797 0.26729885 -0.41992703 -0.28889263 -0.57285494 0.4749879 -0.44956008 -0.3627466 0.5405547 -0.088319026 0.45348832 -0.41813225 -0.3995915 0.27308407 0.19940272 -0.67332846 0.33238176 -0.552701 0.57851225 0.4407525 0.17418662 0.35004655 -0.4129714 0.63162345 -0.22983798
is 0.039553665 0.41498673 0.6839738 0.580333 -0.21943852 -0.36820382 0.12906504 0.18147227 0.4435472 0.3762216 -0.5131084 0.4140314 0.39407575 0.2152855 -0.11220631 0.43823355 0.34230816 -0.24053963 0.38332382 -0.1428313 0.049165316 0.14490572 0.10077956 0.41737482 0.013848164 -0.27747405 -0.012194592 0.31245112 -0.29196236 -0.3025772 0.15469985 -0.12184031 -0.4436944 0.25322706 0.12735568 0.119882554 -0.4045348 -0.22242537 -0.17299633 -0.35921085 0.426541 0.16116387 0.43681526 0.45474312 -0.2169605 0.32135922 1.0740266 -0.046600133 0.14227867 0.23801847
one 0.22306372 -0.3036692 -0.119921274 0.0047185556 0.39694598 -0.13468212 -0.015681531 -0.20182008 0.25007045 -0.14845057 0.26385805 -0.22296365 -0.35318053 0.20791474 -0.25153142 -0.05262756 0.6673201 0.08707283 0.12848824 0.066754475 -0.31074184 -0.30325055 -0.40148467 -1.1045666 0.13711424 -0.21321127 0.21632636 -0.115962885 0.5549928 -0.41961163 0.7352555 -0.036851052 0.36448717 0.25356767 -0.048560567 -0.1410681 -0.099594444 -0.42127866 -0.6636564 0.06274472 -0.19735155 -0.12442874 0.5480203 0.1428004 0.022570284 -0.007316839 0.1970436 0.27665165 0.13335831 -0.5212911
down -0.2600824 0.20875055 -0.31535223 -0.489058 0.11901211 0.15920325 0.001807411 -0.22749372 0.25672626 -0.27052122 -0.40851486 0.21323566 0.31679723 -0.5905256 0.010805775 -0.080834076 0.5553807 0.1219775 -0.10348267 -0.6562529 0.4421818 0.23176177 -0.33728895 -0.18425608 0.5463917 0.2505141 -0.13743196 -0.3502021 0.18894702 -0.5670897 -0.28755438 -0.34866965 -0.13946192 0.3555912 -0.5799638 -0.5328069 -0.17972116 -0.13429223 -0.46738395 -0.41522083 -0.8328907 0.12129627 -0.2706726 -0.37400705 -0.17526436 -0.289892 0.1847349 -0.01976975 0.4840685 -0.46475405
up 0.30361632 0.1325524 -0.2954119 -0.3125554 0.15538271 0.047751706 0.3055237 0.2238038 0.3814213 -0.33166915 -0.21774817 -0.6529837 -0.28915513 -0.5912103 -0.12037332 -0.1616142 -0.033152655 -0.5472203 0.46815908 -0.47379678 -0.3389195 -0.00721543 0.14461574 0.3323295 0.30401543 0.07887645 -0.36255264 -0.026087897 0.10194473 -0.436476 0.076551355 -0.4479114 0.32252935 0.6880338 -0.64437586 0.41884276 0.22676048 -0.56913984 0.21245444 -0.114013605 -0.52719545 0.08454452 0.3069731 -0.41824353 0.17100061 -0.84596074 0.19443096 0.09718673 0.26858664 -0.09197428
there 0.31629768 -0.21558602 0.57458043 -0.16387793 0.19314152 0.5142194 -0.60002583 0.28621697 -0.42331806 0.6566032 -0.32734483 0.9018042 -0.34216073 0.16449876 -0.26270837 -0.026630105 0.70314753 -0.15674391 0.03347602 0.42415187 -0.057845607 -0.29290605 0.44345596 -0.10229331 0.08762547 -0.115352474 0.14943902 -0.6609952 0.5964001 0.24857354 0.004809581 0.09071498 -0.38585353 -0.04337617 0.05894914 -0.14525618 -1.2336361 0.16437584 -0.22293545 0.26715374 -0.1007745 0.18892145 0.27551934 -0.030674757 0.15487596 -0.45143205 0.17663985 0.2815405 0.011666031 -0.4107889
if 0.3957369 -0.20756666 0.23430666 0.15187614 0.30846053 0.554425 -0.09247516 0.25758526 0.18641464 0.673326 -0.29511923 0.31428653 0.36406544 -0.56932205 -0.3328133 0.6049763 -0.117813125 -0.46851406 -0.08840009 -0.12347928 0.43275002 -0.4972758 0.16899483 -0.20410769 -0.14870332 -0.5915781 -0.41317752 -0.47457543 0.13553675 -0.42964724 -0.5279522 0.014436191 -0.62983817 0.102461785 0.35195422 0.06010989 0.5391128 -0.09497288 0.14336367 0.45924896 0.28487372 0.18504685 0.060542744 -0.020920258 0.5679139 -0.31485066 -0.12431646 0.28968552 0.087866895 -0.09583419
his -0.65963066 -0.37169084 -0.37170902 0.37937394 0.6879264 -0.62897426 -0.62813795 0.1348549 0.6748374 0.05955091 -0.045278426 0.5644341 0.31443706 -0.16516837 0.1416737 -0.69446063 0.15964484 0.46341044 -0.49564302 -0.43348682 0.29384714 -0.9816424 0.3198688 -0.4438114 0.29519776 -0.5119746 -0.18173422 0.31515098 -0.73677325 -0.07511123 -0.17853205 -0.6575087 -0.5221653 0.24418099 0.73822325 0.1951596 0.3470772 -0.58584964 -0.3742016 0.30461985 -0.13504936 -0.26340607 -0.5827663 -0.28989533 0.32847676 0.22426793 -0.37085056 -0.1987354 0.6096939 0.51554394
then 0.40083727 -0.01994951 -0.023069771 0.18396877 0.39790842 0.34009084 -0.08290317 0.15440021 0.5633222 -0.20477901 0.16989444 -0.12181585 0.5381224 -0.5395648 -0.2208455 -0.082209446 0.18552436 -0.29292032 0.138935 -0.32206732 0.05478306 -0.18260995 -0.5264779 -0.0075333198 0.38034913 -0.17813297 -0.12922558 -0.3425165 0.49535495 -0.6503301 -0.07290698 -0.08383204 0.28724602 0.45129204 0.34007362 -0.16964255 0.38932317 0.0293086 0.5024467 -0.0058770888 0.052752603 -0.20060977 -0.027250266 -0.22176667 -0.37728095 -0.2922479 0.49616832 -0.37177524 0.015627116 0.08860155
about 0.091410495 0.41958925 0.16511883 -0.052733596 0.24382272 0.4562329 0.19827215 0.10632126 0.34826252 -0.25272486 -0.4009815 0.7315518 -0.36709458 0.39768398 -0.21114242 -0.04995538 -0.14233144 0.21396697 -0.113536544 0.4161001 0.8061711 -0.018808426 -0.52917004 -0.38756698 0.2327393 -0.56233734 -0.88256973 -0.33247614 0.44446 0.18460691 0.021371596 -0.12037609 0.344206 0.03866302 -0.25260547 0.08431529 0.15924363 0.14106509 0.36540225 0.01868467 -0.26174167 -0.24426281 0.6142005 0.08182218 -0.12863122 -0.023585802 0.21161653 -0.11660998 -0.30421865 0.60508716
no 0.65820485 0.9970323 0.14295496 0.31109616 0.27870324 -0.20342587 -0.067868754 0.44679484 -0.3467726 0.09214541 0.25564745 0.34135896 0.34933236 0.42573687 0.026927456 0.41371864 0.53706396 -0.124490775 0.6253808 0.23060012 -0.18493424 -0.7698777 -0.70812917 -0.21133123 0.2963944 -0.6083288 -0.10992036 0.568963 0.86235017 -0.111655295 0.37581593 -0.010488159 -0.57586205 -0.26809186 -0.1303341 -0.16498566 -0.75699675 0.40948078 -0.59630543 0.41143566 -0.015825981 0.19990003 -0.52486235 -0.1880949 0.5152713 -0.04531185 0.14326917 0.26560473 0.008959679 0.3342599
them 0.15192759 0.1978107 -0.1883708 -0.2286916 0.46082333 0.4760866 0.06453995 -0.42937884 0.17168942 0.08713983 0.3417491 -0.08948365 0.15226288 0.091356754 -0.28035903 0.06494795 -0.12264082 -0.21515684 0.65945566 -0.4064014 0.19669361 -0.33529934 -0.5382273 0.24061018 0.05363117 0.47998154 -0.26046628 -0.7439764 0.4109495 0.3943277 0.409128 -0.17263138 0.13412514 0.20822558 0.59598964 0.29805073 -0.40788832 -0.13705927 -0.04876957 0.07405109 -0.36463714 0.17641455 0.15677153 -0.2768831 -0.13412702 -0.040515985 0.03147729 0.15665987 0.60901916 -0.479106
like 0.34351778 -0.043621305 -0.33858627 -0.17207313 0.02873818 0.15060666 -0.0042840573 0.2396686 0.68569815 0.15945373 -0.39851442 -0.037531827 -0.45194522 -0.8918399 -0.32619742 0.75100666 -0.6215449 -0.12634255 -0.03973419 0.05984364 0.5891125 0.26290175 0.30729532 0.61792046 -0.10335774 -0.15193944 -0.13950934 -0.099582076 0.13774297 -0.17434578 0.94818383 0.24671553 0.43063805 0.07342339 -0.10293319 0.1995004 -0.35342628 0.08792453 -0.19135997 0.08338447 -0.18553017 0.53099126 0.71092176 0.190407 0.11420047 -0.0032860423 0.062372886 -0.26781327 0.24971549 0.15367587
were -0.0125416275 0.5432362 -0.2664731 0.8629221 0.29505974 -0.2587963 -1.2340318 -0.10047615 0.264028 0.46969607 -0.32402024 0.47650817 0.4117938 0.09998327 0.17537925 0.03397218 -0.62322676 0.86686456 0.34957826 -0.1132652 -0.2381043 0.062145848 -0.4560076 0.19348887 -0.115414135 -0.40444258 -0.241067 -0.3610211 0.074472554 0.39275587 0.5384163 -0.6574165 0.37952808 0.5229884 0.5377671 -0.17686832 -0.5957275 0.039993618 -0.14311089 -0.17761251 0.29567122 0.3484587 0.3068186 0.12082381 -0.34843618 0.36087427 -0.21018517 0.38324958 -0.054652773 0.15793313
would 0.56120336 0.25232348 0.20053841 0.76621807 -0.044559553 0.075247735 -0.28433883 0.04018242 -0.23994587 0.47327146 -0.76336575 0.16094749 -0.06597455 -0.31695062 0.43708995 0.54596853 0.03589223 -0.10546928 0.1945996 0.16778351 0.00027052226 0.07527599 0.21117365 -0.21043351 0.2552519 -0.383414 -0.48809952 -0.40626222 -0.4489733 -0.49693742 0.70131564 -0.07165469 0.49662578 -0.6067191 0.4231698 0.1570098 0.11475394 -0.30543855 0.46343634 0.48759896 -0.664838 -0.22335544 -0.3475223 0.059231844 -0.10569485 0.120478004 0.017104715 -0.22594835 0.7481651 0.77741843
herself -0.050130267 0.07243403 -0.65392596 -0.0101381065 0.06304006 -0.3513805 -0.47415984 0.7191171 0.34492978 0.22708113 0.15509354 -0.35190442 0.20189033 -0.5179961 0.62713706 0.57843506 0.22607732 0.061271854 0.2100754 -0.26221606 -0.10052467 -0.38423467 -0.40779215 -0.5334843 0.42126697 -0.40324128 -0.10514536 -0.049688715 0.11590325 0.5124274 -0.041446693 0.14369924 0.114781894 0.23040628 -0.12068396 0.40598804 0.07485874 -0.19768417 -0.124965385 -0.22822566 -0.54295766 -0.2052001 -0.14280923 0.33658695 -0.44232747 -0.07555144 0.26510245 -0.636558 0.17986712 -0.14998098
know 0.14633007 0.69680715 -0.074861676 -0.029987 0.2326826 -0.020489128 0.2581909 0.2040526 0.478691 0.48481688 -0.15473329 0.32311565 0.08442574 -0.20027377 -0.57943803 0.48523867 -0.27609673 0.14650169 0.29630214 -0.16370632 0.6490718 -0.292995 -0.21925645 -0.05365213 -0.018555246 -0.33217412 0.47931015 0.05989249 0.2525989 -0.34835035 0.19815664 0.20102847 0.0038410053 0.24506573 0.7382989 -0.21163356 -0.27467358 -0.27262497 0.3664828 0.13129108 0.5884163 0.06302487 0.39452618 0.31983304 0.20393863 -0.47006556 0.28590322 -0.21931066 0.12768413 -0.06875586
went -0.08816116 0.6999725 -0.5121231 0.3470109 -0.54031223 -0.14244495 -0.9709354 0.25933304 0.4873687 0.1907271 0.028471297 -0.35263455 -0.2250108 -0.5104902 0.15907323 -0.48216003 0.14013296 0.18838477 -0.20655032 -0.6535209 -0.03371279 -0.21313535 -0.8141615 -0.3752042 -0.048182193 -0.1265506 0.034661483 -0.16349098 -0.10144902 -0.05954039 -0.28550613 -0.26757866 0.36426893 -0.57114303 0.7656875 0.47235048 -0.21904798 -0.83858097 0.40719703 -0.05427252 -0.25762826 0.011283021 -0.14340334 0.25933486 -0.38546777 -0.3377558 0.21591215 -0.10988747 -0.2785896 0.24373916
again 0.4432048 0.47214267 -0.535446 0.02686078 0.100773335 -0.21793656 -0.12999341 0.3018634 0.41414976 -0.042472962 -0.41676936 0.247499 -0.012982363 0.27819836 0.44375518 -0.13331965 0.22690007 -0.29638708 -0.24820189 -0.6172046 0.06763973 0.1828275 -0.12574786 -0.09312106 -0.010915962 0.21054837 0.08734857 -0.5680603 0.5904292 -0.41973054 0.1933055 -0.100302085 0.55278397 0.0056958986 -0.23245926 0.20526576 0.11780933 -0.47926867 0.11826706 -0.16834572 -0.17794739 -0.34045613 0.49449974 -0.17828916 -0.29106084 -0.68201077 0.14320032 -0.3660359 0.42374116 -0.23340853
do 0.06581576 0.14768471 -0.23121898 0.28144717 0.19033484 0.17401832 0.1632665 0.24894941 0.092643194 0.2597392 -0.55098164 0.01678778 0.46282765 -0.4877349 -0.6622723 0.85165805 -0.08501598 0.109817296 0.28463405 -0.14975029 -0.1008728 -0.6648637 -0.21289492 -0.5680918 0.35576284 -0.08873094 0.1674536 0.0019465954 0.22183023 -0.1549369 -0.052712727 0.17736101 0.0727963 -0.02646852 0.011638137 0.1701396 -0.20904194 -0.12360637 0.108275585 0.2984627 0.061148573 0.07250099 0.28780767 0.49644947 -0.3121317 -0.1839472 0.4484966 -0.5457679 0.53273046 0.2311623
have 0.4623957 0.43654174 -0.3029709 0.61644876 0.7110854 -0.058072187 0.3380524 -0.12800111 -0.24254337 0.33083966 -0.046801616 0.42654693 -0.28127876 -0.093806684 -0.23434556 0.93047035 -0.29637912 -0.25281733 0.68915427 -0.6137917 -0.08885048 -0.4579372 0.17140463 -0.25832704 -0.5840755 0.3548699 -0.9943391 -0.11314001 0.08447973 -0.46983957 0.38822803 0.53597337 -0.7806829 0.4649496 -0.13608499 0.19367883 -0.81369674 -0.07511221 -0.10410228 0.40993205 0.124012895 -0.048091207 0.041394997 0.3002816 -0.5344922 0.1332239 -0.31606695 0.32681742 0.14498775 -0.44542816
when 0.7464981 0.45290342 0.17748538 -0.35517368 0.105304115 0.8424675 -0.21356377 -0.021626623 0.21431912 -0.24562386 -0.0684289 -0.2350766 0.904753 -0.28490722 0.046210203 0.4082896 0.06304538 -0.37004563 0.4374773 -0.22119461 -0.0041272114 0.08589348 -0.2587616 0.22717845 -0.12946455 -0.27291784 -0.2750617 -0.52049536 0.15503496 -0.6304327 -0.37664935 -0.20279765 -0.22536285 0.43612176 0.11532278 0.27412435 0.3577407 0.42393506 -0.16896838 0.12786177 -0.6732354 0.060884077 0.22108142 -0.17141801 0.15236361 -0.2898731 0.24367963 -0.11525308 -0.1208457 -0.4515633
or -0.2561779 -0.17788789 0.23613554 0.66776794 -0.2971696 0.31240872 0.31482375 -0.25286847 -0.41421476 0.56440264 0.15570329 -0.24037842 -0.20562792 0.07212477 0.20480473 0.40065515 -0.18245016 -0.65879184 -0.23568822 0.033751845 -0.25249675 -0.053260338 -0.67212886 -0.36109772 -0.2709423 -0.30833653 -0.7812396 -0.058039874 0.0822546 -0.3488052 0.5315646 -0.45287845 0.30878562 0.79739136 0.69793487 0.2554821 0.21618794 0.23171192 -0.42113906 0.51443046 0.018026957 0.55429703 0.6544989 -0.34425434 0.44249734 -0.15880838 0.12009792 -0.75623786 0.1429826 0.17821153
could 0.90296817 -0.19252282 0.50121766 0.99862 -0.29552165 0.910346 -0.16334718 -0.3841029 -0.23995952 0.638953 -0.86108255 0.076744325 -0.35357943 -0.21962535 0.1922525 0.3336125 0.0348246 0.1268572 -0.2448531 -0.29292038 0.07693991 -0.58772707 0.18598895 -0.55421805 -0.2720861 0.112165734 -0.022558773 -0.35428038 0.1990432 -0.42611107 -0.3310955 -0.1541738 0.07003156 0.123276316 0.4073232 -0.38328624 0.009538167 -0.56532806 0.28492385 0.4157024 -0.59275573 -0.2708477 0.08683534 0.03557635 -0.14499657 -0.24505049 0.39335412 -0.49209392 1.0542831 0.69852275
thought 0.02005791 0.2353747 -0.33872622 0.6976395 -0.35048047 0.29052672 -0.89118713 0.043356262 0.114157036 -0.07446038 -0.16639674 0.1880745 -0.27737793 -0.21906702 0.17849474 0.039051358 0.3646319 -0.64901996 0.38964993 -0.042773906 -0.3490191 -0.7633458 0.23218308 0.26131862 -0.21304017 0.19798964 -0.18641698 -0.11668027 0.48333493 -0.47863787 -0.019069942 -0.002067496 -0.570869 0.17396423 0.2523389 -0.20878153 -0.36432713 -0.18711938 -0.022993272 -0.46393535 0.15402457 0.21189582 0.08120249 -0.27542582 -0.18306442 -0.318721 0.7529738 -0.041592807 -0.18507366 0.029657576
off 0.12822711 -0.19223742 -0.45445168 0.53768796 -0.61523676 0.20060913 -0.043707743 0.20117255 -0.12490824 -0.64767414 -0.21387719 -0.06066835 0.3079888 -0.060091853 0.11026098 -0.57096803 0.6151013 -0.0935386 -0.17233546 -0.05257945 0.0884737 -0.19232213 -0.4011135 -0.14510152 0.41946098 0.28960133 -0.08200708 -0.02742969 -0.07051943 -0.5209004 0.22304733 -0.19506347 -0.037996735 0.4540441 -0.3681194 -0.17121291 0.26153916 0.27897596 -0.39527187 0.21647371 -1.0478767 0.5695381 0.18207206 0.4945797 0.13180985 -0.68257314 -0.20837212 0.092755 0.68183655 0.32880777
queen 0.3261403 -0.17224361 -0.3234642 0.6296891 0.5539438 0.018083198 -0.0753694 0.522909 0.5957281 0.057785623 0.30826557 -0.15009177 0.20459631 -0.16505244 -0.4285282 -0.73545414 -0.050174665 0.004929188 -0.113407284 -0.06705014 -0.4032219 0.009010699 -0.27586308 -0.29716992 0.4343887 -0.14395048 0.5929031 0.09871294 -0.14191008 -0.33128497 -0.025652131 0.22017138 -0.10937671 -0.08448225 -0.1794833 0.5207658 -0.34322476 0.29824862 -0.5142504 -0.15840155 -0.64927894 0.040443808 -0.1281259 0.77994406 0.23667526 -0.12873915 0.11706867 0.38811705 -0.05598955 0.21984123
time 0.34846485 0.9030516 -0.29739776 -0.22415186 0.42654186 0.5978321 -0.21140155 0.4704459 0.027441014 -0.08786571 0.05828552 0.36753163 -0.3580909 0.23113951 0.055399634 0.10297418 0.3246899 -0.17662372 0.6915177 -0.6209999 0.032120503 0.22872087 0.39935702 -0.76763076 0.19009665 -0.28350684 -0.23302782 -0.17453596 0.015146204 0.11173951 -0.32996154 -0.4872436 -0.11576245 0.20043808 0.4674294 -0.052648418 -0.1324944 0.33909178 -0.211504 0.050885327 0.019549329 0.23280478 0.055502765 -0.21862914 -0.06647562 0.06146808 -0.31145805 0.5014505 0.23646897 0.24298917
how 0.42852172 0.340889 -0.39191422 -0.13522176 -0.36009452 0.046892986 0.5174089 0.50571156 0.6014314 0.64116335 -0.37379313 0.42464396 0.5680722 -0.20916602 0.08197903 0.297193 0.60549676 -0.14835075 -0.22899218 -0.64779276 -0.40524805 -0.26970348 0.49630746 0.1013911 0.40231702 -0.016221596 -0.36198878 -0.41794848 0.061214667 -0.07376907 -0.14511627 0.09413651 -0.025768813 0.5476566 0.6826582 -0.32588053 -0.43168968 0.17432353 0.3838591 0.42558697 -0.09184761 -0.3247924 0.38965252 0.3040841 -0.11651117 -0.026572503 0.28385812 -0.18925782 0.31501728 -0.20061652
me 0.10285648 0.43826804 -0.28273958 1.0075347 0.96858996 -0.019305704 0.055132315 -0.39351973 0.04368815 0.21925753 -0.6573472 0.31518954 -0.022175387 0.30156043 0.15499976 0.47330493 0.55201775 0.031674765 -0.35502785 -0.37140465 -0.3539313 -0.40116414 0.039395396 -0.29660916 -0.12989737 0.6043088 -0.17980741 0.16642427 0.21250083 -0.6447871 0.084868506 -0.2167037 -0.0365395 0.33760867 -0.32406574 -0.39122257 0.03482352 0.529527 0.2833978 0.24338147 0.1563039 0.281863 -0.099785686 0.3747058 0.8043969 -0.6186455 0.4275743 0.019872604 1.1842738 0.2531552
into -0.01945148 -0.14310306 0.100433975 -0.3598526 0.5574519 -0.0013266555 -0.05629713 0.69380116 0.89792454 -0.20403759 -0.32731554 0.28095895 -0.57357186 -0.7229182 0.04125581 -0.6861287 -0.5812156 -0.7243271 0.50639397 -0.12518993 -0.6252283 0.6383245 0.062164772 -0.46511447 0.22733024 0.035716284 -0.48678273 0.22859868 0.5373338 -0.5704493 -0.10748227 -0.4981472 -0.016660651 0.34254315 -0.44596452 -0.10343523 0.38636735 -0.44035134 -0.35748333 0.16422567 0.030760951 -0.34748608 -0.21058765 0.82952875 -0.11484465 0.33907965 -0.014733244 0.1292841 0.40941113 -0.484214
see 0.47240734 0.5129306 -0.2353786 0.5386892 -0.02330291 -0.035077848 0.009709269 0.39658606 0.23724107 0.24805315 -0.28936103 0.00027990027 0.10780059 0.18960695 -0.23777488 0.8267126 0.12623826 0.11213083 0.43645254 -0.24447219 0.08974446 -0.12900135 -0.34006786 0.17298849 0.299249 -0.16137406 -0.5543139 -0.35541162 0.095473364 0.18284625 -0.20730571 0.14480335 -0.077841364 0.26615787 0.15444294 -0.100665085 -0.41666663 -0.7133875 0.2813478 0.22415674 0.4594853 0.26680067 0.16376379 -0.20581529 -0.087609924 -0.24984886 0.2954761 0.082372844 0.7020484 0.49443647
did 0.4877903 -0.007072325 -0.074678704 0.7866104 0.013275149 0.19543332 -0.047078036 -0.19085096 0.32162163 0.62725717 -0.6203858 -0.16459024 0.15351467 -0.51201004 -0.039428495 0.49003786 -0.0079618255 -0.042607374 0.21471508 0.4160384 -0.15676528 -0.091837384 -0.094692126 -0.124150634 -0.31052157 -0.72580665 0.21383329 -0.46170476 -0.23732829 -0.54196143 -0.1631247 -0.2806152 0.25514838 -0.3368205 0.3358139 -0.5754676 -0.7051519 -0.51764655 0.48457623 -0.17594916 -0.40376943 -0.15311004 0.0245846 0.3673422 -0.2893404 -0.19312845 -0.09213746 -0.44381672 0.12405858 1.090223
who 0.24203193 -0.1662826 -0.22078452 0.080994874 0.13862015 0.36339372 -0.088783294 -0.33753878 0.392478 0.16809061 0.40232167 0.0773387 -0.4351939 -0.18167453 -0.35900587 0.08877632 -0.19790895 -0.7794086 0.16307294 -0.019654753 -0.37745735 -0.06140667 -0.43376383 -0.19884458 0.15899344 -0.19923586 0.035513513 0.23557627 -0.08045959 -0.034041822 -0.35622302 -0.15251793 -0.4313269 -0.058314957 -0.0047586653 -0.19343533 -0.45183674 0.22350517 -0.09973502 0.15240484 -0.09313274 0.06717076 0.6090228 0.27593377 0.6966417 0.021433368 0.006630534 0.14499953 0.0027489716 0.8334225
can 0.91787416 -0.006917622 0.33407864 0.2937964 -0.046239328 0.12884624 0.24738911 -0.45710042 0.40107808 0.3204699 -0.6948786 0.44965988 -0.43461064 0.03898507 0.08643717 0.5133516 0.5230317 0.356684 -0.07688529 0.00013177209 0.3954093 -0.65908754 -0.25349 -0.35765252 -0.46687064 -0.025069615 0.32480165 -0.39069623 0.6210873 -0.35793856 0.43086594 0.12359027 -0.33023816 -0.22539526 0.9422267 0.07089509 -0.17317359 0.20794395 0.46426296 0.6276691 -0.16277684 -0.039928336 0.32039565 0.15074213 -0.3831272 -0.7279774 0.15292197 -0.4735856 0.3790238 0.22483175
well 0.5571291 0.058026277 0.43354928 0.49831447 0.39685985 0.3969026 -0.06523658 -0.42137972 -0.0144907115 0.57721925 -0.15643546 -0.17331491 -0.18506384 -0.31448674 0.046526615 0.1060132 0.1938275 -0.06566628 0.6482758 -0.08830926 0.5905352 -0.3127764 -0.060494073 -0.8533649 -0.29572383 -0.026743675 -0.46421996 -0.18384731 0.30376083 0.28606105 -0.49477533 0.21797557 -0.71619505 -0.18870027 0.47060367 0.282541 0.31784856 -0.25578395 0.07458727 0.09962493 0.06070485 0.11316381 0.23486881 0.30897158 0.27351224 -0.4805752 0.7295891 -0.054619774 -0.0763814 -0.31305876
m 0.54734874 0.2679938 0.45183215 -0.39114976 -0.32027176 -0.47037783 -0.6908028 0.066760845 -0.55846816 0.7327412 -0.31558245 -0.23814337 -0.10885156 -0.40707117 -0.14557035 0.4585581 -0.010300185 -0.4435234 -0.6930447 -0.05908337 0.19108438 -0.39822483 -0.025951575 -0.5924175 -0.595412 0.16994946 0.37902442 0.088307746 0.42792618 -0.68873847 0.2489429 0.6468541 0.022625225 0.8797999 0.61599517 0.57317615 -0.15758643 0.12508677 -0.1030372 -0.68630415 -0.18114498 0.06576926 0.25117007 0.2497282 -0.7531597 -0.83480823 0.09000288 -0.53866285 0.19699886 0.29528424
your -0.17145097 0.40644217 -0.109662555 0.40232745 -0.39970464 -0.21608168 -0.4551777 0.06769978 0.5865708 -0.08432167 0.32338166 0.075987734 0.75571865 0.15492864 -0.8478871 -0.047636706 0.4203921 0.55918074 -0.30948135 -0.7326276 0.4407507 -0.4273312 0.63806736 -1.0150965 0.21981262 -0.422472 0.569935 0.16991356 -0.42201093 -0.22760476 0.36452594 0.0048943493 -0.82605785 -0.0018397933 0.26650116 0.0144642275 -0.3341595 0.088670775 0.4259785 -0.18235847 -0.14668037 0.41559094 -0.4791968 0.015413767 0.24688515 -0.49992985 0.30505484 -0.61324227 -0.039330736 -0.37048024
king 0.49965537 -0.06870504 -0.4193433 -0.03995252 0.21233279 -0.42200032 -0.2727497 0.425973 0.4733079 0.36860916 0.08866425 0.19828372 -0.0330724 -0.48112568 -0.29360414 -0.6014758 -0.27288312 -0.05882729 -0.22791131 -0.34432882 -0.29603165 0.1895426 -0.65076804 -0.40071785 0.6121658 -0.21683039 0.36922446 0.16436799 -0.21145442 0.092930704 0.16017674 0.31708303 -0.1886559 0.43450114 -0.2373981 0.28762266 -0.3273644 0.13418896 0.04708618 -0.31205726 -0.5190504 -0.40310824 0.025983296 0.34898543 0.27264488 -0.47860178 0.060591776 -0.21943 -0.31736773 0.2677836
don 0.60619926 0.1919236 0.11623822 0.8261998 -0.31574494 0.120749764 0.18468037 -0.7361712 0.6626333 0.40703413 -0.4178475 0.44472358 -0.038100608 -0.2233104 -0.48334387 0.5645135 1.1284416 0.117057815 -0.27332595 0.30289203 0.033536732 -0.68045574 -0.007721722 0.3235267 -0.25673878 0.09775125 0.58963615 0.009128444 0.78804564 -1.1295786 0.35361344 0.5893337 -0.0773156 -0.025888177 0.3743473 0.1425787 -0.1586153 0.04007411 0.68389714 0.2507781 0.07825509 0.068577625 0.48186 0.40172642 -0.5721898 -0.69910204 0.11489045 -0.3176871 0.23461725 0.25444233
now 0.38700262 0.82948583 -0.3371454 -0.05569892 -0.068515144 -0.14144196 -0.09310586 0.41150302 0.31963083 0.5967081 0.15842597 0.11547332 -0.12717871 0.2964331 -0.43864515 0.42313784 0.24832831 -0.3684524 0.52417505 0.100632615 0.2265089 -0.20636702 0.14932682 0.06503685 -0.17216495 0.14235322 0.064575404 -0.1675403 0.1388849 -0.42422917 -0.6131129 0.007956523 -0.2235592 0.4474314 0.36532778 -0.14144827 0.005013922 0.2441145 0.012223027 -0.2743312 0.22100587 -0.1990301 0.0316825 0.32322335 0.2264843 -0.48700812 0.23931964 0.002883367 0.3074708 0.15253367
by 0.111701034 0.5915401 0.25898442 0.44347396 0.049275376 -0.14846076 -0.07376593 0.40859082 0.22700256 -0.3778476 -0.35494646 0.036780242 -0.52328426 0.090570435 0.025812188 -0.85776776 -0.24159811 -0.08461748 0.22582115 -0.40245447 -0.5490919 0.3756241 -0.49703905 0.20980515 0.08320709 -0.22741455 -0.32235834 0.25939286 0.6555366 -0.16659804 0.24679886 -0.27418053 0.04393729 0.6199455 0.07952585 0.0041473643 -0.1268441 0.075649045 -0.7021312 -0.028619219 0.28114572 -0.0021513195 0.064046286 -0.39050898 -0.029316142 -0.14445916 -0.34970886 -0.07128614 0.093593195 0.2758099
began -0.3097759 0.47040105 -0.46200806 0.4024593 0.24390575 -0.071683325 -0.36588225 0.3358642 0.16298509 -0.3472463 0.07628332 -0.35874665 -0.077951424 0.2388316 -0.28542012 -0.015216649 0.16919248 -0.24060257 -0.22962563 0.22683619 -0.21385062 0.12366063 -0.47738743 -0.10788506 -0.24991108 0.0035250897 -0.04356986 -0.047606714 0.42279923 -0.1208946 -0.3241705 -0.5497592 0.73607266 0.16771524 -0.036839206 0.26378453 -0.26576233 -0.63729525 -0.25540605 -0.56570315 -1.0659771 0.37398767 -0.12505895 -0.24895999 -0.42669925 -0.96423686 0.2717932 -0.4633693 -0.55468 -0.27686617
its -0.8096457 -0.45127925 -0.4215444 -0.035620525 0.69643676 -0.66455185 -0.45192012 0.7290169 0.5585641 -0.17133442 0.032737426 -0.17525658 0.577574 0.08067487 -0.4598517 -0.41603354 0.74638605 -0.14614223 0.25919703 -0.2716166 0.3690453 -0.79498094 0.18652126 0.04798752 0.678496 0.20885965 -0.110938095 -0.16955134 -0.2309519 0.31198907 -0.1836934 -0.66284925 0.34191272 0.059901893 -0.2667771 0.2008307 0.5365374 -0.69066304 -0.7263191 0.06554802 -0.11441325 -0.19960694 -0.0018057904 -0.34241033 0.47834066 0.084332645 0.03791441 0.06185345 0.29320794 -0.16590483
ll 0.34043986 0.798511 0.42762104 0.03613721 -0.36645132 0.38326678 -0.114853375 -0.4191043 0.45451155 0.48249307 -0.98402554 0.88830554 0.4217144 -0.47158083 0.19284746 0.77915937 0.13605613 0.25041154 0.10217156 0.014603563 0.13255969 -0.48799482 0.29446656 -0.30785248 0.033760097 0.46580663 -0.28283826 -0.13987675 0.7296698 -0.7433126 0.16769323 -0.45244813 0.23879221 0.51341015 -0.055750467 0.21764602 -0.1266845 -0.1128527 -0.13017274 0.8658498 0.16470394 -0.43686533 0.04486025 0.20352584 -0.16747451 -0.7071475 0.15305965 -0.5891279 0.6015535 -0.66801167
an -0.17632312 -0.29352042 -0.03988251 0.11643604 0.46466812 -0.3746031 -0.036650803 0.44458964 0.25682214 0.37880793 0.35207757 -0.5038083 -0.16232096 0.01256951 0.10363737 -0.043539148 0.9761241 -0.049443446 0.20884244 -0.37051702 0.4225272 -0.678903 -0.36426452 0.36897475 0.42152584 -1.2042717 -0.3850687 0.6872645 -0.46788567 -0.3578232 0.018226737 0.51048017 0.2421981 -0.63601017 -0.23731068 0.6184955 -0.058268134 0.074629575 0.079200454 -0.3176083 -0.33818316 0.64434564 -0.210315 0.94593906 0.06313023 0.2086159 -0.050113577 -0.48755515 0.11918787 -0.3928435
my -0.25107172 0.9340319 -0.31212327 -0.8195856 0.5681935 -0.4548984 -0.036556374 0.41465145 -0.021540124 0.10627324 -0.39535442 0.5042545 0.20727113 0.27429706 -0.05830878 0.13919494 0.35477144 0.065505795 0.3285962 -0.43081018 0.11396474 -0.8386208 0.29990909 -0.24337067 -0.08515943 0.34089682 -0.25638396 -0.19988902 0.24852896 -0.28517836 0.40152645 0.3467959 -0.057987962 -0.45019543 0.17163655 0.8825675 0.22584425 -0.08120604 -0.21945174 -0.068166316 0.5858419 0.29577354 0.20375767 -0.123782076 0.43346715 -0.78678185 0.043756 0.18161272 -0.410073 0.07588306
turtle 0.2679037 -0.2872504 0.18780573 -0.006615389 0.18155248 0.2030766 -1.0611187 0.23046558 0.32352474 -0.30933702 0.49373698 0.31939712 0.013557672 -0.9066843 -0.55262536 -0.25453943 0.5439989 -0.37095055 -0.39414495 0.1035048 -0.10731264 0.54825276 -0.59764445 -0.17989288 0.71668094 -0.045908157 0.25042146 0.16289885 -0.3743371 0.65331244 0.4041893 0.2670383 -0.08429304 -0.42449424 0.8990789 0.099308506 -0.376351 -0.65555173 0.52972937 0.026131721 0.03066525 0.5676217 0.5653591 0.28352517 0.45123255 0.008678767 -0.13336252 -0.6916918 -0.24695049 0.37428552
way 0.47833985 0.3750963 -0.49762046 0.13018788 0.17514458 0.48532218 0.47866938 0.19470172 0.068792306 -0.08583124 0.13589008 0.39157417 -0.040158372 0.31435624 -0.13913217 0.14554426 -0.033711165 0.074593596 0.10286956 -0.4074378 -0.12076558 0.29764318 0.26872826 -0.4227156 0.13998611 0.05576313 -0.44877848 0.13310634 0.5436959 -0.29462084 0.52203345 -0.22007313 0.022128824 0.2661748 0.36034334 0.058620393 0.21244779 -0.3366096 -0.7759015 -0.067769356 0.042266734 0.06271119 -0.035176117 0.12609296 0.14503604 0.24272893 0.2745356 -0.16287144 0.4896993 -0.06430046
hatter 0.59370273 0.039824016 -0.23066555 0.14552408 0.31331345 0.21577139 -0.16039738 -0.096846394 0.75884706 0.51073414 0.1725424 -0.16526382 0.22939034 -0.5718318 -0.33669487 -0.31890383 0.21900918 -0.16493861 -0.46691608 -0.38579342 0.31114888 0.18963814 -0.15557636 -0.39507747 0.46483356 -0.24100968 -0.11699254 -0.16192734 -0.23822166 -0.053759158 0.12432563 0.39599887 -0.318854 0.15248466 0.18696046 0.37312663 -0.06716732 0.184398 0.285235 -0.25177267 -0.12988976 0.16365595 0.11026536 0.14819169 0.41348696 -0.7102451 -0.4099214 -0.0054873596 -0.11463446 0.09904957
mock 0.12772872 -0.37711266 -0.025692616 -0.13278462 0.28682536 -0.10844666 0.008152631 0.5393856 0.18419819 0.47080547 0.51510876 0.6703258 0.41513535 -0.95041263 -0.058840778 -0.46823895 0.23446569 -0.02013968 0.15288462 -0.24679807 -0.25473413 0.23807095 -0.52525556 -0.9245271 0.8582948 -0.0045036785 0.4198571 0.23583253 -0.50316256 0.12591651 0.43218592 0.37756774 -0.21086484 -0.13595226 0.74161565 0.56903565 -0.6587865 0.22655575 -0.02318957 -0.33516207 -0.039496396 0.357313 0.6054135 -0.2048472 0.018903306 0.20456566 0.52242917 0.10245708 -0.48800853 0.6888319
quite 0.5367783 -0.12314621 -0.20953259 -0.19331029 -0.2064593 -0.14187422 0.13531353 0.12081172 0.16067262 -0.09619369 0.09440712 -0.0013140587 -0.66214514 -0.07058719 0.60951436 0.3831912 0.6038021 -0.36571717 -0.022191575 0.0066651874 -0.40761095 -0.44665262 0.16172615 0.11506369 -0.14941576 -0.2677203 -0.46360713 -0.5791199 0.30726254 -0.08978359 0.2780771 0.20537835 -0.27203858 0.3968449 -0.12055114 -0.4838335 -0.19801813 -0.3277875 -0.07370749 -0.035027508 -0.3870601 0.2754492 0.13625804 0.33602506 0.48116022 -0.26012516 0.45973536 -0.09490807 0.48625392 -0.13964306
are 0.42573303 0.037258126 -0.42270523 0.386386 0.9608438 -0.23193526 -0.42567307 0.32339448 -0.1352906 0.38173667 -0.45547307 0.42562532 0.60206866 0.310966 -0.21941458 0.35208052 -0.4754603 1.1317016 -0.060019765 -0.13702677 0.101156175 -0.1958926 -0.7560999 -0.19511077 0.038215123 -0.4913861 -0.14844556 0.34664378 -0.3711707 -0.43410715 -0.09857386 -0.21283129 0.50649804 0.19937667 -0.13738613 -0.16966407 -0.71200347 0.18396093 0.39661643 -0.15397428 0.14417306 0.5209338 0.17692369 0.59539986 -0.1950647 0.026406083 -0.5494392 -0.45795897 0.1944984 0.6598346
gryphon 0.3510707 -0.012202625 -0.6774028 0.07800869 0.31128582 0.050840978 -0.0804588 0.022576155 0.54336256 0.12724583 0.10379952 -0.08529814 0.4910906 -0.70890975 -0.22960496 -0.30889177 -0.12264033 0.024533257 -0.10433179 -0.69082326 0.16003886 0.11391072 -0.31609657 -0.34132114 0.17899501 -0.19776516 0.29321435 -0.17035535 -0.21490058 -0.18126701 0.17016472 0.22238152 -0.16858391 0.25920504 -0.104267426 0.58106583 -0.36813107 -0.05059798 0.12293081 -0.5508742 -0.19242373 0.15077882 0.05122218 0.25182715 -0.24672474 -0.36728147 -0.04077205 -0.19817476 -0.15311834 0.1437037
think 0.3349601 0.28935194 -0.27708024 0.09743069 0.10707307 -0.035765845 0.12855548 -0.19053897 -5.284726e-05 0.5822051 -0.32595545 0.07244329 -0.016637983 -0.109939285 -0.5738951 0.84642804 -0.15682459 -0.21461192 0.37061167 -0.41937596 -0.020663725 -0.93336827 0.1627647 -0.20193648 -0.18363194 -0.33054492 -0.33954668 -0.41468254 0.9178745 -0.27957872 0.069885135 0.2669983 -0.7159469 0.36370307 0.17754175 -0.24259666 -0.37823334 -0.2666273 0.19155425 0.07103651 0.2375441 0.027393145 0.5126283 -0.10591664 0.5722581 0.023038642 0.15680201 -0.2605011 0.34568828 0.048379537
just 0.5338673 0.07954554 0.36149564 0.16631533 0.11548326 0.40936345 -0.6351546 0.3538526 0.5022993 -0.19591321 0.2186357 -0.14677449 -0.28891125 -0.18506023 -0.024871634 -0.0813398 0.53283876 -0.16823483 0.5198201 -0.45732382 0.2495628 -0.4834044 -0.55127573 -0.25990176 0.13012439 -0.08765939 -0.27945477 -0.011009234 -0.0010704608 -0.036630206 -0.41078284 0.015392837 -0.42424452 -0.18388468 0.5015242 -0.026073443 0.10790264 -0.24930291 0.014043946 0.13775283 0.31974545 0.191894 0.37194747 0.056875706 0.10491436 -0.4179689 0.023535317 0.32782364 0.22037672 0.1873085
their 0.44778988 0.52294356 -0.4791996 -0.29423547 0.54882056 0.2837912 -0.33645952 -0.6397025 -0.11327745 0.12543094 0.1842956 0.21026573 -0.060213234 -0.043745525 0.6544451 -0.7583038 0.60007614 0.9855567 -0.08907021 -0.77566606 -0.015899004 -0.7921225 -0.57381564 0.20999716 0.636483 0.070461795 -0.68797153 -0.12723388 -0.3216824 -0.28980666 0.18922575 -0.54773915 0.57503676 0.28830186 -0.18853979 0.04706709 -0.15369412 -0.029839091 -1.1589893 0.35418585 -0.23641326 0.28207156 -0.8564725 -0.24863227 -0.48940828 -0.42906055 0.04519704 -0.023617728 -0.3495792 -0.4986098
rabbit -0.012212974 -0.011355938 0.06786969 -0.6447219 0.18191557 -0.35899875 -0.27243522 0.25223827 0.2794537 0.7029904 0.46663764 -0.19207704 -0.7077375 -0.41708228 -0.2829006 -0.9034392 -0.45570067 -0.7126229 -0.49231398 -0.7662127 -0.15890378 0.3226049 -0.37067503 -0.38204455 0.20577075 0.110017665 0.44832426 -0.09462273 0.07073279 -0.15295072 -0.4609005 0.1238141 0.08778803 0.40628687 0.22739273 0.3734746 -0.25679693 0.22513823 -0.21728884 -0.3216043 -0.22514017 0.55903035 0.45007575 0.640423 0.36359853 -0.14037535 0.44780758 0.17338677 0.27033186 0.15499455
much 0.6685776 -0.32552162 -0.30631146 0.5763706 0.45645925 -0.37029696 0.3253772 -0.060527556 0.13554725 0.25860927 -0.45929706 -0.6001331 -0.3991269 0.09206959 0.34292287 0.43845516 -0.12570277 -0.31753048 -0.09940868 0.3748424 0.29871225 -0.48989457 -0.121281125 -0.44206294 0.032055516 -0.25810793 -0.5915438 -0.15721214 0.16489547 0.34256735 0.17324875 -0.08446971 -0.64378345 -0.15647618 0.30570805 -0.6150272 -0.4335229 -0.35769355 -0.05505336 -0.3616658 -0.044961225 0.31992218 0.09030753 0.35313866 0.20721154 -0.110123016 0.2458569 0.04090523 -0.2212603 0.46646768
some 0.123460025 0.55936587 0.004349369 0.36365 -0.47296953 0.26945803 -0.3023569 0.13985004 -0.21400061 -0.026408413 0.6138078 0.20899113 -0.2596899 -0.022124698 -0.11433072 -0.2994851 0.5227603 0.1827192 0.7582872 -0.18231235 0.509804 -0.22667119 -0.19483072 -0.7462332 0.34309947 -0.33311063 0.047222283 0.20920978 0.061656225 0.36864072 0.3234883 -0.18473633 0.013710238 -0.074077904 0.00224899 0.100595914 -0.2258076 0.094271906 0.14425726 -0.05146076 0.22905102 0.28290448 -0.1409316 0.0445474 -0.059256755 0.2638126 0.046471287 0.45586064 0.8366763 0.27007848
here 0.18507439 0.82318443 0.11697173 -0.15170169 0.43757582 -0.037584037 -0.0949858 -0.06866787 0.45454875 0.43286228 -0.3176252 0.34773377 0.13799673 -0.42580605 -0.81184125 -0.054606564 0.38411966 -0.00618217 0.32750538 0.16747035 0.12024908 -0.304885 -0.15242241 -0.24320722 -0.14129259 0.43169624 0.045988534 0.4568136 0.26388872 -0.7817171 0.15369901 -0.12889549 0.16335127 0.16717361 -0.45762587 -0.194371 -0.40623719 -0.12508312 -0.17353341 -0.123566665 -0.3201803 0.058968853 0.15643337 -0.39886832 -0.053718444 -0.16648626 0.24815947 -0.07675873 -0.025358042 0.053704318
say 0.39262924 0.10895046 0.16562292 0.4218151 -0.06621497 -0.1305374 0.014520037 0.18025099 0.057405602 0.056252263 -0.08697039 0.21223651 0.041889638 -0.4457644 -0.27309507 0.6048051 -0.27256116 -0.33053827 0.3752919 -0.23043877 0.028311292 -0.09457562 -0.40467337 -0.053749487 0.11524514 -0.3249289 -0.043996006 0.1920721 -0.1315469 0.13450797 -0.09318493 0.2720612 -0.09824057 0.30317384 0.049491 0.3866268 -0.07072864 -0.48053417 0.34240252 0.23442915 -0.0118499445 -0.07991824 0.8393247 0.49911654 0.07682765 -0.19434926 0.35531136 -0.19962372 0.94350004 -0.1763896
first 0.4151792 0.61094594 -0.47293216 0.18617171 0.06802999 -0.050280705 -0.22212158 -0.18017383 0.87047964 0.3323758 0.31043273 -0.16535713 -0.07101633 -0.006570595 -0.3408535 -0.10226991 0.06833932 -0.4383827 0.15935594 -0.34935993 -0.024591763 0.109520935 -0.38350075 -0.41937882 -0.1753061 -0.12911794 0.030051608 -0.5892899 -0.27532554 0.088656366 -0.079510234 0.21530595 -0.21351297 0.41250408 0.08369052 -0.5381223 -0.1659617 0.356254 -0.4951496 -0.049150288 -0.3556387 -0.12687695 -0.1909717 0.25293696 0.7064265 0.1210273 -0.07433992 0.21335286 -0.26992476 0.57227445
go 0.3186901 0.62433237 -0.3902447 0.08580217 0.2951387 -0.123273075 -0.015307535 0.24603927 -0.13784806 0.32073262 -0.39919665 0.20143451 -0.13067107 -0.4725233 -0.64221823 0.11592078 0.61266285 0.27427712 -0.23948821 -0.3442367 -0.19762328 -0.37128615 -0.17714575 -0.74894404 0.059089385 0.24565713 -0.27236038 -0.6043076 0.015012644 -0.15640481 0.3896353 0.25043315 0.02472975 -0.2441741 0.09259578 0.11149334 -0.2850306 -0.56271785 0.27883026 0.16059555 -0.1987109 0.16110648 -0.060835164 -0.3162073 0.2701449 -0.44306436 -0.29283938 0.41566736 0.43058875 -0.3698583
only 0.30731496 0.068327904 0.15546456 -0.37906438 -0.05741726 0.5378054 0.15085687 -0.07132888 0.44701126 0.5519208 -0.21966024 0.05428872 0.08096904 -0.49757358 -0.56390977 -0.011379415 -0.07805829 -0.08846328 -0.18381886 0.030896384 0.3218371 0.01851969 0.33420327 -0.15719411 0.3626798 -0.5078108 -0.27875724 -0.102355376 0.3360905 0.067050815 -0.024752133 0.2019121 -0.66153604 0.22977817 0.30664787 -0.022790685 0.14496063 -0.5773497 -0.23736191 0.32344833 -0.0976586 0.24936494 0.2947052 0.26227424 -0.12367779 0.21883638 0.20417239 0.15772134 -0.053081214 0.58705914
which 0.19491869 0.12424045 -0.43685105 0.3117637 -0.111157 -0.031389356 0.6439936 0.09707453 0.98832524 0.2259878 0.29566967 0.3473065 -0.4699354 0.23436849 0.26444772 -0.11377346 0.29096058 -0.44058183 -0.29456314 -0.22763824 -0.19983777 0.24103393 -0.0022567532 -0.046431057 0.08639041 -0.9615387 -0.3248925 -0.2582533 0.35486478 0.2846454 0.2852256 -0.20768413 0.07132718 -0.0740353 0.017403746 -0.37264356 -0.12938687 -0.2729045 -0.4740454 0.15213235 0.35633978 0.36458215 0.03813639 0.051328782 0.21266551 -0.084663756 0.20790215 0.24723627 0.041102402 -0.5599908
head -0.1915651 -0.07684212 -0.016980305 0.40608096 -0.17851667 0.064956926 -0.09527341 0.28491828 0.1740666 -0.09832155 -0.82405436 -0.05573186 -0.5355123 -0.38595843 -0.05788923 -0.31804198 0.266809 -0.38826567 -0.3494058 0.20043601 0.30931577 -0.3817695 0.07354929 -0.35215515 0.5236886 0.37386835 -0.41147354 -0.111956835 -0.41378838 -0.09995525 0.12833439 -0.34793192 -0.046189718 0.237989 0.0836265 0.5494763 0.24973916 -0.16979678 -0.5855382 0.08691547 -0.8174359 -0.10655312 -0.20580769 -0.31389672 0.5000769 0.07611589 -0.189151 -0.47268587 0.06613586 -0.0363414
thing 0.11104133 -0.06467551 -0.08743096 0.42502135 -0.28608087 0.41827923 -0.26929373 0.35536408 -0.4958279 0.21747091 0.009065801 0.018249884 0.5369249 0.20405222 -0.005695347 0.21076876 0.63902265 -0.50816303 0.29197356 -0.65535337 -0.36056432 0.335118 0.2819288 -0.29385322 -0.19743963 -0.19227362 0.37732673 0.4180989 0.07636601 0.3130164 0.14566252 0.281939 -0.6830898 0.23458074 0.69358206 0.35660037 0.09602717 -0.17292078 -0.094144545 -0.455269 -0.0049482225 0.27040413 0.49633288 0.3811362 0.2123153 -0.18063977 0.582968 -0.04198531 -0.045703266 0.070131324
never 0.69056517 0.078236505 -0.2485364 -0.24351649 -0.114898525 0.10154436 -0.15053637 0.2243125 -0.30458382 -0.2022308 -0.075518735 -0.31725347 0.45398554 0.23871917 -0.09445143 0.50902545 -0.3157977 -0.31067 0.6892677 -0.51569843 0.19309849 -0.38086224 -0.64683336 -0.05192781 0.029919932 -0.44525155 -0.14304131 0.05713199 0.17251706 -0.63428414 0.2024086 0.15325657 -0.66864777 0.30400756 0.52981347 0.21858431 0.087411724 0.09801278 -0.26924977 0.4369888 -0.37798482 -0.10610458 0.18908286 0.21953261 0.0071069156 -0.3526159 0.21442567 0.26032126 0.35651094 0.13269062
more 0.20232835 0.44427478 0.14886321 -0.031061446 -0.10655808 0.35836276 -0.2487539 0.4429041 0.012411389 0.037518263 0.45276353 0.32568377 0.22451136 -0.18459526 -0.6219618 0.13264154 0.2870383 -0.43885672 0.57103825 0.21360858 0.34797588 -0.2222681 0.37061995 -0.496091 -0.113161616 -0.046985384 0.11817814 0.0009922155 0.55281395 0.26000035 0.28982145 -0.7730974 0.3204459 0.04500614 0.2873945 -0.59009516 -0.65548223 0.3998077 -0.049673717 0.19047844 0.037474975 0.35092914 0.14633133 -0.062777504 0.2743314 0.1090731 0.16693693 -0.28245476 0.22829123 -0.078461334
voice -0.26767597 -0.58256596 -0.2599504 -0.059335597 0.37978455 -0.08409078 -0.33741203 0.21865098 0.084482014 0.363311 -0.31086704 0.2597467 -0.22995731 0.4416631 -0.18224753 -0.18177117 0.09912743 -0.59573495 -0.18149082 0.111639865 0.36585715 0.49677807 -0.95409983 0.10531798 0.12552464 0.3638913 -0.1942321 0.3828087 0.33310646 0.18926641 -0.41122118 -0.44624877 -0.51227486 0.2710551 -0.15327644 0.60834324 0.13114293 0.26098776 -0.3186195 -0.5674554 0.5472776 0.60083914 0.471783 0.3762835 0.07371773 0.15186884 0.39004308 -0.06719106 0.23194642 0.05238921
get 0.4552951 0.038970068 -0.45072317 0.4980607 0.1518915 -0.3466731 0.017264506 0.020407666 0.48006752 0.07712192 -0.56523734 -0.09231727 -0.07155456 0.20187007 -0.29078427 0.69293755 -0.01993212 -0.02158371 -0.018060815 -0.40171853 -0.19062026 -0.683588 0.031357836 -0.63703144 0.060862057 0.27878594 -0.009100225 -0.5039389 0.46541107 0.52311 0.11823063 0.20885062 0.1839694 0.43516928 -0.39097694 0.082850724 -0.02763828 -0.6236528 -0.24351817 -0.3637987 -0.26851124 0.09719902 0.5518948 -0.36451647 0.5510838 -0.34314337 -0.0931358 -0.38487896 0.428368 0.05043783
come 0.28056413 0.614162 -0.3074902 0.16278249 0.12943459 -0.016788023 -0.12435857 0.33525142 0.018252788 0.43681657 -0.6269084 0.21955678 -0.1534736 -0.5981668 -0.41063127 0.3126692 -0.060845878 0.14191176 -0.18926804 -0.25477672 -0.399588 -0.56410056 -0.2385392 -0.3760151 0.6220738 0.18653469 -0.255543 -0.44464752 -0.2845376 -0.7057528 -0.049797606 0.17728144 0.015828796 -0.50991166 0.180414 0.20196797 -0.20102167 -0.017646722 -0.33238932 0.116828844 -0.13695681 0.15561311 0.028725598 0.054769233 0.2147934 -0.41190234 -0.21677426 0.003286117 0.16949514 -0.25578016
oh 0.38929495 0.5663604 -0.10961353 -0.16398413 0.11838227 -0.13096362 0.5399302 0.31304708 -0.26424235 0.22050616 -0.25228056 -0.06613615 -0.054972693 -0.094611354 -0.83222795 0.5867761 0.2261363 0.43768093 0.08723603 -0.20939735 -0.0071491553 -0.64995795 0.27104336 0.2289142 0.027594946 -0.47929412 -0.25109527 -0.08751775 -0.1265279 -0.42708713 -0.21502557 0.054290872 -0.1894914 -0.049104914 0.6405558 0.6108685 -0.071265124 0.070471615 -0.44438115 -0.31977278 0.222964 0.42308608 0.2409661 -0.06184592 -0.020221481 -0.7195907 0.78981465 -0.35236433 0.11270759 -0.30575746
looked -0.18642737 0.25854844 -0.21084428 0.12638485 0.25662404 0.030756278 -1.0163707 -0.082729645 0.7502624 0.18343955 -0.59234875 -0.1041554 -0.3978815 -0.12986411 -0.32908222 -0.87543494 -0.01988122 -0.11597467 0.57964796 0.044834096 -0.49700582 -0.13547719 -0.07368177 0.3232411 -0.19496325 0.046718244 -0.613543 -0.49706167 0.108715236 -0.30933237 -0.24324448 -0.9567769 0.09642626 -0.2112875 -0.26290432 -0.5735476 -0.1291552 -0.11950811 -0.3860692 -0.48696643 -0.48994285 -0.05164217 0.3443633 -0.032991722 -0.35963863 -0.3957582 -0.2051759 -0.6589525 -0.25526473 0.376809
got 0.58505625 0.52063316 -0.06999244 -0.0063694944 0.29133797 -0.21475904 -0.4711713 0.21646984 0.07071782 0.15437143 -0.6468145 0.2797777 -0.024109079 -0.22397438 -0.37826884 0.5530278 -0.027250206 -0.24002303 0.14066917 -0.092610836 -0.57675666 -0.5551452 -0.40626216 -0.39440167 -0.0806303 0.17939347 -0.37421894 -0.08256132 0.4598046 -0.18743062 -0.2263469 -0.4403667 -0.014639636 0.22607653 0.19465882 0.6319869 -0.123477004 -0.3485234 -0.93195045 0.004795271 -0.5716773 -0.17909221 -0.09873496 0.051896337 -0.35863724 -0.3467954 -0.29155648 0.24647751 -0.4571797 -0.2994274
ve 0.19560264 0.36945838 0.25877193 -0.51891214 -0.060942356 0.14329535 -0.060788468 -0.09305721 -0.09990209 -0.0072654346 0.12799627 -0.2027223 0.6289085 -0.25072932 -0.22736993 0.59085923 -0.23738651 -0.21734212 0.66061544 -0.49941835 -0.41223344 -0.55685365 -0.57427543 -0.40581313 -0.40145075 0.01782953 0.101301424 -0.40455666 0.5891816 -0.4460739 0.39923698 0.05626895 -0.7164187 0.6725856 0.6045501 0.47583693 0.027049918 -0.12129351 -0.36025503 0.21605092 0.33430097 -0.23717254 0.82027155 1.3042488 -0.25115627 -0.22562674 -0.34524724 0.068946466 0.17855777 -0.49815425
must 0.6377466 0.7418946 0.48023325 0.20934436 -0.055087674 -0.015618622 -0.8094053 -0.27349767 -0.45399636 0.33348495 -0.18417355 0.54033035 -0.41567183 -0.7033329 0.13779508 0.5592334 0.28223604 0.1506462 0.4573332 -0.26308548 0.6853336 0.0066177174 0.23218392 -0.5533246 -0.2500533 -0.32275286 -0.22762616 0.21652831 0.3451266 -1.0178508 0.40307498 -0.16723424 -0.30446878 0.07577882 0.31260374 0.35097453 0.02614003 0.6268088 0.8257829 0.2637096 -0.21773013 -0.10766986 0.013008832 0.12085048 -0.49388987 -0.14686851 -0.36012235 -0.11158595 0.348995 0.014216993
mouse 0.26231924 0.049358938 -0.6128596 -0.18298239 0.22779374 0.06425929 0.14658034 0.511428 0.15743934 0.22209299 -0.18091518 0.052872878 -0.58846754 -0.30373597 -0.33473137 0.21958308 -0.07780238 -0.66308886 -0.11835203 -0.17299353 -0.24631074 0.301747 0.16941328 -0.26100418 0.1746096 -0.09436202 0.15960152 0.061645843 -0.4394042 -0.21713832 0.041800566 0.10438611 -0.042862408 0.36081246 0.23401348 0.13177383 -0.6166235 0.27698368 -0.2497135 -0.29686058 0.02830695 0.074735254 0.34195065 0.23646608 0.18454166 -0.20997064 0.3075854 -0.34901482 -0.11192162 0.5514647
after -0.1352412 0.24010533 0.50468767 0.3515935 -0.15345575 0.8698137 -0.4432763 0.13079172 0.19694087 -0.34253114 -0.16140617 0.3345169 0.077476285 -0.15071446 0.4456042 -0.3963836 -0.07746208 -0.22265628 0.030929223 0.0664929 0.57887715 0.09896999 -0.024772841 0.24189998 -0.11054711 -0.060309626 -0.44889644 0.024790771 0.40369448 -0.28189093 0.52185434 -0.054300494 -0.068789415 0.2399718 0.09562158 0.29075465 -0.39691335 0.4892484 0.12919627 -0.39272517 -0.09177128 -0.07327513 -0.027953172 -0.030418973 -0.28472188 0.080267556 0.15191367 -0.4321808 0.15746209 0.39161032
him 0.15908283 0.31619754 0.07945015 0.6330538 0.12977998 -0.23082079 0.0022041125 -0.57851535 -0.06355424 0.27016848 0.53513867 -0.022970287 0.14484523 -0.25886732 -0.40670037 0.4655009 0.38777953 -0.43185127 0.27837685 -0.41425633 -0.38512522 -0.37749636 -0.5756293 0.080974355 0.17055327 0.33504263 0.28765497 -0.57413405 -0.006748935 0.34558883 -0.020340811 -0.10471824 0.14643337 -0.27520975 0.80307883 0.6562576 -0.16431613 0.23515074 -0.17603444 0.002945106 -0.5594723 0.10663029 0.4276869 -0.29034516 -0.0075661317 -0.76118624 -0.5035374 0.24546552 0.5843433 0.024563693
duchess 0.39444458 0.20537743 -0.17383444 -0.15448575 0.15910414 -0.09994427 -0.0128496345 0.586552 0.365458 0.4065818 -0.156071 0.21175957 -0.09246542 -0.01682475 -0.33270717 -0.5562484 0.03673837 -0.13842756 -0.16614397 -0.3276926 0.007848476 0.18104249 -0.3309997 -0.37033853 0.18906143 -0.19230065 0.25618747 0.24678119 -0.25869232 -0.07713749 0.095909245 0.18464611 -0.5056189 0.11498642 -0.026339 0.7274484 -0.08064091 0.21284981 -0.20542866 -0.44779775 -0.5535741 -0.17511034 0.14394298 0.35484904 0.26761267 -0.1742482 0.28089595 -0.12541498 -0.107977174 0.22054568
such -0.16863666 0.023057194 0.026308991 -0.3583011 -0.20492063 0.7164408 0.32165715 0.40132007 -0.32706866 0.6329814 -0.3601878 0.1707781 -0.39687088 0.24811064 0.35300645 0.68258655 0.5224185 -0.07252339 -0.05084669 0.29759344 0.050224364 -0.016625948 0.14996076 0.07453297 0.09016633 -0.13623604 -0.0363085 -0.18406281 0.3080774 0.6462774 0.08662068 0.005696683 0.050561618 -0.17778443 0.55792814 0.7362267 -0.042790905 -0.2347407 -0.76865226 -0.41955236 0.24380678 0.3440479 -0.4528191 0.7004147 -0.11755414 -0.16764967 0.27235088 -0.20587897 0.4662304 0.5579348
round -0.327661 -0.055556566 0.0025959297 0.28299764 0.48894185 0.32130775 -0.22705758 0.32008472 0.79442775 -0.39394987 -0.12504737 0.46330288 -0.12533851 -0.14623792 0.20331821 -0.7357553 0.53872466 0.30943304 0.35860032 0.07115432 0.0940355 0.08954455 -0.19876516 0.14729658 -0.09957918 0.26235312 -0.4685774 -0.5461918 -0.2665202 0.012185651 -0.23866193 -0.6793807 -0.08139758 -0.056698766 0.18229496 -0.1997345 -0.15752688 0.24735919 0.14332709 0.04706949 -0.70847636 -0.32055837 0.5434983 -0.32576114 0.08365566 -0.3831311 0.19261314 -0.08256833 0.2878364 -0.16713235
why 0.38618723 0.082658246 -0.52338904 0.3869335 0.40163773 0.19328626 -0.29327443 0.23356277 -0.03160994 0.71768236 -0.35569626 0.3079213 0.43110687 -0.4140072 -0.23073043 0.3830143 -0.045913238 -0.43412212 -0.29369473 0.18214315 0.46649975 -0.32201433 -0.045554224 0.04012162 0.001977749 -0.38046435 0.14030103 0.14742453 0.4395808 -0.0977253 0.1725622 -0.070949286 -0.18364461 0.031277593 0.5035168 -0.2560265 -0.11829045 0.55228585 -0.17016424 -0.056502238 0.21932802 0.49870482 0.38844192 0.03249084 -0.05790804 0.009474695 0.29090533 -0.55899465 -0.08467283 0.39523178
came -0.36534756 0.068217136 -0.2914914 0.03889039 0.5201788 0.4370812 -0.55000114 0.40727347 0.11458274 -0.12724678 -0.31482455 0.26435423 -0.06090341 -0.14618847 0.11317708 -0.4044478 -0.16738041 -0.41970137 0.20604202 -0.81818986 0.04795436 0.34344196 -0.32641536 0.19601144 -0.21539095 0.2636371 -0.0031031037 -0.2912069 -0.175992 0.18124801 -0.41138923 -0.3018949 0.12871869 0.28807062 0.59112704 -0.028154943 0.005766703 -0.60619247 -0.2792406 -0.6012234 -0.3462698 0.75912523 -0.36292696 0.41026735 -0.1929247 -0.1781429 -0.094946854 0.091002464 -0.2704353 -0.22077532
other 0.12613511 -0.051801275 0.23168665 0.48529586 0.28321618 0.18522589 -0.14983584 -0.25564215 -0.08070375 -0.19680247 0.3491574 0.27769545 0.14036772 -0.109570615 -0.4632907 -0.490533 0.16504896 0.18663746 0.7644764 -0.5141147 0.07052993 0.034702662 -0.23758139 -0.37937137 0.47790986 -0.09144406 -0.17733535 -0.06734423 -0.27222732 -0.052471805 0.20780383 -0.46174106 0.27843994 -0.033191726 0.08822102 0.26303476 -0.09320709 0.062123533 -0.49417982 -0.37811753 -0.30751336 0.21599153 0.36190185 -0.08446536 0.026809437 -0.3081084 -0.0021556453 0.27497867 0.20446168 -0.24324992
tone -0.18663383 0.21570435 -0.25351888 -0.06238545 0.7307243 -0.4225656 0.1174137 -0.24689226 -0.31596088 0.67945206 -0.3340722 -0.23093042 -0.28337047 0.41923815 0.20137446 -0.3030714 0.5646621 -0.6525608 0.2946605 0.13314916 0.97990406 0.33244443 -0.060690112 0.3356725 -0.28119302 -0.292455 -0.35602695 -0.0008539598 0.37642115 -0.061175242 0.46446818 -0.24886939 0.25458434 0.2897322 0.2030668 0.19863534 -0.028563963 0.2012658 0.37650993 -0.36846417 0.29610443 0.8372868 0.27685747 0.36164644 -0.5149063 -0.20115656 0.20825712 -0.39961272 0.26704928 -0.37461928
dormouse 0.5680344 -0.015741652 -0.494552 0.007507417 0.3635024 -0.03183702 -0.37431785 0.05339313 0.20602655 0.2172089 -0.21049134 -0.15859921 0.0180174 -0.15269622 -0.21740943 -0.4740401 -0.49843162 -0.05831951 -0.25055104 -0.33952767 -0.31020644 0.15926163 -0.3195478 -0.34939322 0.47203 -0.12501632 0.03231499 -0.055899743 -0.117567286 0.1384886 0.28199825 0.28674132 0.19708972 0.20192112 -0.24215919 0.32656336 -0.30366883 -0.39270893 0.022819249 -0.26903275 -0.45744 -0.34604764 0.13722186 -0.053720348 0.37408453 -0.28967664 0.11893169 0.021669772 0.39302886 0.19727513
over -0.076632656 0.08393435 -0.06661405 -0.29192743 0.30499908 -0.04516447 -0.16749434 0.16122746 0.46514264 0.18732652 -0.39349243 0.65850693 0.093650356 -0.22462639 0.19479628 -0.55669445 0.6571324 0.022860436 0.37794796 -0.5000618 0.22863936 0.26015693 -0.31227347 0.06775908 0.5085863 0.23728159 -0.45447302 -0.41441867 -0.34193885 0.1727692 -0.20054136 -0.41538256 -0.17129315 -0.00492616 -0.17848091 -0.21240032 -0.29361013 0.45450592 -0.054198198 0.16794154 -0.55534583 -0.26574874 0.3618151 -0.08877679 0.034330305 -0.29564884 0.30606535 -0.24084103 -0.43701217 -0.0134982355
any 0.51689947 0.42856544 0.074136525 0.24965848 0.29879612 -0.0882038 -0.14007533 -0.5073353 -0.38817084 -0.002021451 -0.26591697 0.17475383 -0.4833312 -0.05426197 -0.2185057 0.40542537 0.16878179 0.01948689 0.69146615 0.26125258 0.21436357 -0.65273136 -0.55383873 -0.5913862 -0.052487407 -0.26876783 -0.23686606 -0.19091582 0.5583233 0.08813037 0.60145384 -0.16974665 -0.19093128 -0.3130541 -0.7365545 -0.066795446 -0.1253329 -0.15748858 0.031104928 0.36090618 -0.30074084 0.20845596 0.2161903 -0.579755 0.36661097 -0.048288055 0.40174913 0.40129262 0.12930688 0.43828735
back -0.041721053 0.39674154 -0.40827948 0.06867013 0.5313491 0.35903794 -0.07098833 -0.049717937 0.3589842 -0.6648842 0.117093496 0.5914588 0.5400826 -0.09332933 -0.31328696 0.01957856 0.20169628 -0.29083017 0.06456255 -0.5353498 -0.042339593 0.24063283 -0.38043687 -0.57159686 0.6956305 0.5733187 -0.22280926 -0.3630971 0.22980228 -0.15408948 0.15732175 -0.45297715 -0.05797109 -0.15928413 -0.40256357 0.6344276 -0.22208521 -0.32152852 0.07805797 0.31755403 -0.2742179 -0.36022905 0.0053301025 -0.08609408 -0.14529109 -0.6355754 0.117764905 0.11995995 0.18015611 -0.16939151
two -0.40537345 0.49069405 -0.14596207 0.5247816 -0.46017578 0.12300927 -0.08302668 -0.500659 -0.1136822 -0.32032266 0.4782674 0.11973303 -0.24012405 0.30795485 0.013908679 -0.10778526 -0.23604555 -0.18194999 0.021865556 -0.11158238 0.45102054 -0.14401822 -0.26748458 -0.50985783 0.18758142 -0.76928806 -0.39398402 -0.30224523 -0.30818886 -0.25219324 0.2629665 -0.45431337 0.39862183 0.6385259 -0.48210517 0.538523 -0.6010743 0.28557897 -0.38164076 -0.009111339 -0.2371369 -0.032463018 0.74661696 -0.009721273 0.3737291 -0.5842192 0.045662336 -0.051933546 -0.40275517 0.35557663
before 0.52857286 -0.18884943 0.10696523 -0.0926129 0.088881366 0.80618674 -0.7127034 -0.07145698 0.25060156 0.21542603 -0.113371365 -0.2319542 0.25534832 -0.18904375 0.39545208 -0.007972361 0.1810707 -0.31784633 0.16854496 -0.076402366 -0.21271358 -0.049721655 -0.11115728 -0.08930365 -0.08580821 -0.31462985 0.17138797 -0.38556945 0.48527396 -0.08346486 -0.15377823 0.10358976 -0.43098247 0.5362875 0.64177555 0.23932822 0.16423126 -0.25065416 -0.113817744 -0.16256754 -0.44835696 -0.35004345 -0.08873931 0.3162445 0.16122769 -0.051544573 0.21000183 0.13205947 -0.07607476 0.17598248
great -0.3379889 -0.4348382 -0.36974308 0.18493535 0.22070123 -0.47828183 -0.45578527 0.49534625 0.58694625 0.27169493 0.42264783 0.42715117 -0.4343302 -0.031855542 0.24956997 -0.32115725 0.7972383 -0.226876 0.43601078 0.5819841 0.1397465 0.24567856 0.19311063 0.11133085 -0.15588686 0.21876848 -0.32282555 -0.017558085 0.5790198 -0.0963005 0.24424307 -0.38982275 0.52873784 0.18368499 -0.2550801 0.20951913 0.0149023235 0.2823294 -0.12757091 -0.76454735 0.028643643 0.6557949 0.35051692 -0.32865295 0.277109 0.08656931 0.1670762 0.07537593 0.74770087 0.11208911
been 0.74636924 -0.026983412 -0.1789905 0.14975289 0.4338043 0.26168787 -0.17884703 -0.15324396 -0.24304666 -0.14831963 0.4489721 0.0006496375 -0.5541073 -0.6863592 -0.082039475 0.80148524 -0.1733408 -0.18148245 0.085061185 0.06010996 -0.057255127 -0.4477785 -0.38615248 -1.0300894 0.09909809 -0.46602002 -0.6425085 0.4114501 0.29717475 -0.3257907 -0.120494634 -0.30197486 -0.4752675 0.36504304 0.30774915 0.3655112 -0.10821111 0.11172416 -0.13712111 0.08016276 -0.40050766 0.06000361 0.089607716 0.16312443 -0.39842367 -0.21822491 -0.1246765 0.49951926 -0.119913645 0.22338331
re -0.2568953 0.45498887 -0.52704334 0.41799018 0.5521434 0.26114812 -0.024120819 0.2632737 -0.34517172 0.40838504 -0.4773326 0.33613798 0.3141596 -0.44555184 0.16261712 1.0615369 -0.5716542 0.36557412 -0.16344799 0.15202105 0.19979171 -0.3205609 -0.6773335 -0.2555787 -0.73076326 -0.08834874 -0.10941025 -0.5037101 -0.15500279 -0.08056459 0.41828254 -0.3095065 0.3924859 -0.18678023 0.10786693 0.07313615 -0.6154677 0.16509049 0.25641122 0.09698979 0.39258108 0.41322157 0.13771862 0.45619705 -0.54635197 -0.49248233 0.14798719 -0.16883197 0.31912357 0.30973864
cat 0.6104175 0.21281002 -0.342892 0.13547939 -0.022061188 0.3647182 -0.3433451 0.44887686 -0.012275712 0.7277749 0.05169311 0.025255784 0.4121405 -0.30534253 -0.18060903 0.21601477 0.2387986 -0.44066703 -0.4766801 -0.072402194 0.28169817 0.31662464 -0.07998075 -0.4527614 0.20822102 0.01983305 -0.31195137 -0.18145485 0.15604171 -0.26126978 0.33823347 0.13971616 -0.31208265 0.12150226 -0.043450054 0.4023884 -0.1924334 0.36936888 0.09401959 -0.08453852 0.27135977 0.13773355 0.4685997 0.19965953 0.31879783 -0.8167165 -0.01879281 -0.02436124 -0.038989794 0.2841474
from -0.02929414 -0.22549072 0.25907925 0.13594353 0.13040775 -5.7550224e-06 -0.007393088 -0.09703362 0.034924276 -0.3023715 -0.12875383 0.53449064 -0.26860777 -0.5401488 -0.29952213 0.054777376 -0.14586626 0.008278855 0.29960868 -0.28162813 -0.064954974 0.24757656 -0.2965997 0.043731302 0.07494014 -0.15457602 -0.086507306 0.43488467 -0.27084866 0.343124 0.37313104 -0.5680737 -0.3378505 0.34985003 0.5903776 0.37352774 -0.44254047 0.061326467 -0.51505566 -0.056058 -0.6286853 -0.10624835 -0.10060901 -0.3443812 0.5589999 0.5131675 -0.22007526 -0.42600626 -0.23437668 0.14644507
once -0.4593876 0.38070932 0.11664452 0.24307288 0.06171676 -0.05408437 -0.19224562 0.18977869 0.13987301 0.056094036 0.089906186 -0.024630865 -0.14129479 -0.85657644 0.06565498 -0.21748222 0.09687443 -0.3864003 0.35158673 0.03032214 -0.36435795 -0.11172905 -0.32244754 -0.429208 0.02853005 0.5719007 -0.73283213 -0.69375205 -0.019734556 0.39121082 0.412356 -0.38510928 0.028499177 0.42239627 -0.20439257 0.111304425 0.0029051078 0.019921172 -0.19214495 0.032295913 -0.42058122 0.14296338 0.15372589 -0.5361619 0.06141859 -0.41584808 0.24637097 -0.3926395 -0.07088707 0.515399
we 0.07467034 0.25602764 -0.49665862 0.36500618 0.6839194 0.21400708 0.12102137 -0.104135215 0.14490944 -0.16222014 -0.21848224 0.27990758 0.12906395 -0.44499838 0.10786114 0.4238898 -0.156094 0.15781702 0.269665 0.021372031 0.28499314 -0.24126567 -0.17237109 -0.43525478 0.67763615 0.1658813 -0.059591316 -0.3046621 0.23215133 -0.6770967 -0.30267042 0.10364913 -0.63486785 -0.23807982 0.72717994 0.56837887 -0.38966712 -0.18311356 0.12585653 -0.13273126 0.19425875 -0.42586544 -0.14338548 0.19675119 -0.052370407 -0.450378 -0.017034082 0.114500605 -0.21241188 -0.15592323
nothing 0.5420754 0.3760427 -0.15064952 0.22447246 0.17657974 0.025029967 -0.16095412 0.27721533 -0.18345876 0.031572014 0.08110498 -0.3476411 0.0733523 -0.29285562 0.0072363373 0.5204454 -0.064410105 -0.032270372 0.355673 0.04655122 0.3147104 -0.61884564 -0.118375614 -0.60546035 0.60120535 -0.34725472 0.042625733 0.39452052 0.4450382 -0.14698836 0.19100992 -0.31397736 -0.070792876 -0.057275373 0.16984695 -0.44842935 -0.6955032 0.25750577 -0.15576065 0.07717302 -0.13187069 -0.07461462 -0.2414736 0.32428613 0.4736761 -0.046839785 0.8175756 -0.07487829 0.26696163 0.2060932
large -0.1898941 -0.523778 0.086821854 -0.13592732 0.26883674 0.22801253 -0.18886341 0.22286175 0.48949587 0.2638837 0.38842705 0.26304972 -0.7242199 -0.23370318 0.60085416 -0.2601326 0.35084614 -0.07386176 -0.14718513 0.30152512 0.28892285 0.07942464 -0.16977264 0.22129126 -0.18955839 -0.31146502 -0.5708846 -0.2669699 -0.009436192 0.19495834 -0.11613414 -0.63338023 0.021051057 0.044848192 -0.37236112 0.5951907 0.16720185 -0.45443216 -0.74380726 -0.28455597 0.2153007 0.069308095 -0.18491197 0.21362485 0.4891004 -0.17717531 0.20935625 0.38117608 0.2881434 -0.13586569
will 0.3851788 0.26969656 -0.04715462 0.615673 0.45930386 0.42799288 0.31275678 -0.27846718 0.387594 0.060311247 0.067523 0.4618249 -0.41602156 -0.51073515 -0.42809194 0.43512157 0.20806348 0.66898644 0.076158576 -0.054754898 0.16666949 0.22359732 0.025632707 0.048355505 0.42858237 -0.5538162 0.15495424 0.57774264 0.36291188 -1.0354142 0.7276743 0.11828984 0.40805718 -0.35704917 0.33939922 0.14695586 0.19472028 0.024118522 0.30894303 0.6074837 0.5447998 0.33387107 0.013835547 0.42945966 -0.16791195 0.01800891 -0.12837109 -0.1463634 0.32602745 0.28730732
last -0.10670895 0.65969616 0.02069171 0.069489814 0.33824426 0.21366853 -0.7666347 0.12012187 0.5389773 0.24759841 0.45787397 -0.1452056 -0.28510112 -0.5307738 0.05303374 -0.8313005 0.33379808 -0.45537 0.33128172 -0.25392148 -0.2211991 0.115562454 0.03450574 -0.14131837 -0.13462621 0.10957808 -0.35106 -0.2355295 -0.161078 0.13292664 0.36371043 -0.12063727 -0.37934938 0.21431364 -0.056524504 -0.24687818 -0.3907031 -0.113913275 0.07227334 -0.26704812 -0.19519143 0.6555068 0.043038733 -0.16081399 -0.34326696 0.16808346 -0.016414491 -0.09247411 -0.07084553 0.4583412
march 0.5452854 -0.061829038 -0.061893567 0.51199067 0.19986221 0.47742885 -0.2206452 -0.467514 1.009783 0.6540273 0.73035634 -0.104269944 -0.39821973 -0.46715608 -0.20070486 -0.6513328 -0.43107882 -0.091366425 0.5702014 -0.85801286 -0.21623406 0.008375404 0.09762071 0.03150629 0.52508336 -0.22103383 0.20309472 0.04070034 -0.049916748 -0.101083435 0.47368747 0.18416776 -0.95183593 -0.25454682 -0.22105111 0.32257557 -0.5526704 -0.46999484 -0.08727538 -0.7869177 0.45696265 -0.20541507 0.41721582 0.4257967 -0.004630501 -0.23461547 -0.11184726 0.37446484 -0.4467699 0.32097924
found -0.026803516 -0.19620588 0.076866284 0.3573647 0.25591436 0.5280718 -0.27105546 0.46656126 0.34359944 -0.37389347 -0.14790712 -0.23049963 -0.19229226 -0.34009126 0.6700918 -0.16553582 0.056025244 -0.4527629 0.62864345 -0.23562571 0.4838417 -0.2950068 0.027085416 -0.03628495 0.0045890715 -0.106033616 -0.36089072 -0.31864765 0.37687194 -0.06687656 0.2322217 -0.3897424 -0.18160962 0.36934194 0.42267638 -0.09850228 -0.010616896 -0.5588463 -0.027887544 -0.0024967773 -0.30815408 -0.4002225 -0.49986708 0.13284998 0.0039221584 -0.2851354 0.16284178 -0.039110605 0.15110849 0.452174
right 0.3093824 0.3347602 -0.04988841 0.17340663 0.61723804 -0.26642787 -0.18357557 0.22763246 0.27859768 0.24079338 -0.690408 -0.0040908745 -0.379869 0.0016391849 -0.3021708 0.24563615 0.012702644 -0.63128877 0.3178571 0.19084214 -0.36964267 0.05229126 0.009534098 -0.3437006 0.02719011 -0.1976092 0.22291888 -0.04065702 -0.103355 0.057068776 0.15142646 0.32116836 -0.102392875 -0.09683407 0.10121362 0.30423465 0.028574541 -0.23619631 -0.14578378 -0.34781215 -0.5111171 -0.13610014 0.34690374 0.69359624 0.1628586 0.13258415 0.22456205 0.06195057 0.41773778 -0.0015390896
tell 0.4023607 0.2364654 -0.034095313 0.3719632 0.4038045 0.009823618 0.27997872 0.50035083 -0.016847128 0.18056944 -0.508887 0.42572 0.01863204 -0.17804423 -0.43218687 1.1893121 -0.3208807 -0.0017979419 0.18570708 -0.32150114 0.8206814 -0.25577244 -0.26361343 0.22339027 0.0924549 0.36369976 -0.5908325 0.020876013 -0.33959806 -0.07742123 -0.25420326 0.064032875 -0.40349832 0.65444314 0.26409137 0.12909186 -0.012059094 -0.008339816 0.11251035 0.3125516 0.26955476 -0.0048790537 0.8327828 4.6895955e-05 0.4609868 0.14168623 -0.091672115 -0.743829 0.35129237 -0.003082041
long 0.08644533 -0.27949807 0.35137036 -0.49128634 0.17493661 0.37483445 0.07408262 0.7183197 -0.33752927 0.4750799 -0.0022400008 0.040035278 -0.03993382 0.02085014 0.63195294 0.098131694 0.18181379 0.25670472 0.28199577 -0.13538003 -0.08600981 -0.1990784 -0.003203751 0.09170237 -0.020241091 -0.8175905 -0.34608948 -0.28285655 -0.061011363 0.16442111 0.2377569 -0.3969066 0.14850312 0.28325748 0.5675462 0.31806412 -0.22444558 -0.23167516 -0.17613216 -0.3164252 0.19734412 0.50404996 -0.1809741 0.41643924 -0.17561144 -0.50281143 -0.10096128 -0.040493213 0.6605242 0.32586205
looking 0.15117165 0.1239728 -0.21646386 0.14169891 0.031077519 0.4086531 -0.71153116 -0.20003891 0.000112835725 0.15805672 -0.06012182 -0.044563245 -0.511612 -0.000426496 -0.026859606 -0.80711544 0.2556281 -0.4244249 0.031164486 -0.15869427 0.05010563 -0.11604249 0.12396003 -0.17755993 -0.04000061 -0.019239983 -0.49272257 -0.84042823 0.11961217 -0.13826267 -0.092984445 -0.26413453 -0.48302618 -0.11020495 -0.49489608 -0.1352391 -0.05306075 -0.089494884 0.020513536 -0.10646188 -0.72619605 0.032572854 0.40580294 0.18371414 -0.24769898 -0.357571 -0.28296617 0.23117419 -0.02686942 0.37300587
moment 0.33070198 0.9000234 -0.1630938 -0.09105324 0.015047417 0.24105278 -0.5305544 0.10805977 0.12731436 -0.009813461 -0.24529941 0.18234268 -0.36972725 -0.2476075 0.13166754 0.003706654 0.15342586 -0.64329654 0.40587953 0.23716746 -0.3772248 0.18000755 0.53390807 -0.20928901 -0.025666727 -0.40050966 -0.5058113 -0.2659356 0.068681434 -0.02496515 0.33530134 -0.113471806 0.20287849 0.1455464 -0.10250726 -0.05912889 -0.26054558 -0.11358156 -0.3492376 -0.36423376 -0.25001413 0.39966384 -0.13980924 -0.15976442 -0.244493 -0.44239277 0.36058718 -0.082388245 0.17723168 0.31699425
put 0.07075599 0.38228357 -0.1993191 0.098640785 0.094021715 -0.16012537 0.097539514 0.36983097 0.5208104 -0.034549005 -0.17607348 0.17787082 -0.6484165 -0.24309082 -0.53504974 -0.005884005 0.40664536 -0.008792497 0.084189005 -0.08805055 0.13785113 -0.2918728 -0.506609 0.310007 0.47797468 0.2619013 -0.3369955 -0.21496612 0.26220515 -0.6327778 -0.23636363 -0.34281665 -0.3425505 0.18482623 0.038805664 -0.033765517 -0.031335965 -0.6447116 0.061948333 0.2662146 -0.40412545 0.4338371 -0.354581 -0.015729092 -0.06750763 0.015312916 -0.055721205 -0.071036965 -0.07969803 -0.35362846
white 0.12720667 0.7751612 0.026763413 -0.5448524 0.844641 0.12290947 -0.5409822 0.36485842 -0.29212257 -0.078649886 0.27447802 0.008244586 -0.2123289 0.07666153 -0.29279417 -1.0153366 -0.2960212 -0.53767204 -0.51931113 -0.51853377 -0.025745438 0.2703322 -0.55179435 0.13796015 0.29604122 -0.99264526 0.15243946 -0.09459617 -0.44865048 -0.44306996 -0.30099458 -0.12984788 -0.55541474 0.63122445 -0.15223211 0.15499349 0.15913774 -0.025791964 0.41361925 -0.8564629 0.040592935 0.32655096 -0.14277792 0.27897346 0.65068996 0.18203071 0.38530582 0.290855 0.530179 0.45140794
next 0.29111987 0.17760022 -0.0732653 0.70618755 -0.12644607 0.07453219 0.1674326 -0.06252024 0.27637967 0.39555672 -0.13469696 0.3644587 0.04632319 -0.42509454 0.15943567 -0.067443095 0.38139483 -0.36478904 -0.14216244 -0.3656329 0.05625677 0.08362526 -0.3524162 -0.43605214 0.1809365 0.20001137 0.05281188 -0.5486215 -0.40571222 0.32601896 0.117396355 0.13416357 0.4224917 0.0874841 0.40210602 0.19329363 -0.33332652 -0.23970854 -0.34901145 0.20545815 -0.29709944 0.06051228 -0.042366166 0.28347135 0.1756427 0.18842615 0.32201287 0.61613995 0.3058183 0.49791378
things 0.43034646 -0.07310368 -0.3005291 0.0019478898 0.20226756 0.42188033 -0.1565599 -0.40691704 0.009956423 -0.17063369 -0.15519449 0.08572454 -0.0052214237 -0.14794105 -0.3102436 -0.08804565 0.03954166 0.34723735 0.21761994 -0.11018682 0.6610714 -0.3275392 -0.34289497 -0.2970629 0.07719483 0.06160907 0.010864002 -0.5657854 0.292299 -0.238719 0.012352038 -0.07808501 -0.038216647 0.07676113 0.12780948 0.14550759 -0.39661905 0.22051822 -0.23764056 -0.2981731 0.38881373 -0.02886437 -0.18563515 0.12146224 -0.08760584 -0.2235707 0.14142494 -0.16286117 0.24915756 0.22513814
door 0.2624487 -0.38597056 -0.55380946 0.15841627 -0.3148491 0.3534548 -0.39889634 0.2563847 0.05983707 0.035871416 0.22982383 -0.28758192 -0.16867736 -0.09091605 -0.34788558 -0.5492142 -0.40899256 -0.2243414 -0.040022705 -0.4147642 -0.08055169 0.2834063 -0.294879 -0.086561956 0.2583322 -0.38243723 -0.3314944 -0.73725325 -0.31185728 0.017526018 -0.052101422 -0.24951823 -0.15069243 0.3688822 0.12903407 0.0037726806 0.29727787 -0.5988864 -0.5867677 -0.3439396 -0.41298068 0.04222687 0.2731447 -0.25149736 0.17817071 -0.2202271 0.2457981 0.1480061 0.16096441 0.00561062
heard 0.2761508 0.17999418 0.20315714 -0.280869 -0.48407388 0.25594142 -0.2679254 -0.09860082 -0.030982053 0.16189894 -0.11434661 -0.28645924 0.24827081 -0.016497215 -0.19635873 0.08154307 0.0046896674 -0.35776815 0.71702534 -0.02352206 0.3370121 -0.05629389 -0.20671259 -0.12994955 -0.15563925 -0.1555001 0.17749578 0.013300642 0.3429967 -0.20092778 -0.103243865 -0.24654214 -0.9934134 0.71081 0.53429204 0.42980692 0.4444687 -0.5620854 -0.34159923 -0.22975953 -0.1696263 -0.08201484 -0.20338395 0.3903782 -0.03255507 0.12192399 0.42464897 -0.15977177 0.14637278 0.679149
hare 0.24150696 0.007153285 -0.9607677 -0.010872667 0.044065297 -0.35995612 -0.905336 0.034118507 0.64109135 0.05622136 0.16750544 0.12646395 -0.40300408 -0.5399273 -0.15044303 -1.0187374 0.17635778 -0.295739 -0.106551826 -0.73052603 -0.20237224 0.2291727 0.29122436 -0.15678413 0.6670352 -0.88678527 0.07019928 0.32224864 -0.31937754 -0.7802919 -0.23663875 0.15247631 -0.71456665 0.34235543 0.9565445 0.48357573 0.037216336 0.21957208 0.27844533 0.045346648 -0.07948263 -0.23617677 0.35328096 0.72340524 0.78226435 -0.42863083 -0.32159084 0.20572197 -0.4553727 -0.19860597
made 0.2635943 -0.24033062 0.07876851 0.42154 0.25443658 0.7143694 0.07690238 0.37219158 0.18173069 -0.2931306 -0.21852894 0.29525462 0.35404235 0.24637304 0.27939078 0.24525644 0.02004416 -0.24275951 0.21902911 0.14683297 0.41237634 -0.11344068 0.018367099 -0.005036354 0.12464045 -0.19893725 -0.0010616503 -0.23578815 -0.15729275 -0.44200632 0.23175925 -0.57526463 0.32935593 0.27088833 0.18038607 -0.29762706 -0.22450708 -0.37430933 -0.719271 -0.20479757 -0.41340816 0.06078746 -0.04792169 0.4328478 -0.123844594 0.33023232 0.45896167 -0.16075438 0.046818033 0.44133434
eyes -0.14001091 -0.24321376 -0.3425505 0.12145026 0.15983069 0.49710768 -0.44792834 0.41660658 0.17135878 -0.36858243 -0.26411223 0.6468037 -0.25259453 0.35205755 -0.0323898 -0.42206585 0.05840296 -0.17528132 -0.052435264 0.03213307 -0.044069394 -0.14195906 -0.37860987 0.46274686 0.33565637 0.22729503 -0.52862674 -0.6343639 0.005719503 -0.2381185 -0.13234356 -0.51782715 0.24960999 0.5133852 0.037304744 0.059283763 0.5175124 -0.11031999 -0.42157897 -0.094957896 -0.3390299 0.06331286 0.28643617 -0.33221316 0.13365054 -0.08154018 -0.4666475 -0.40766358 0.6662903 -0.33384895
dear 0.1936183 0.7086987 0.07635482 -0.7451341 -0.06836061 -0.083952665 0.1983694 0.39088023 0.08259453 0.5914099 -0.764469 0.09542376 -0.07815227 0.07515594 -0.22766586 0.49804577 -0.05808131 -0.063769296 0.094633825 0.054053128 -0.03346603 -0.60956764 0.22890796 0.29499444 0.40579495 0.37400445 -0.37549698 0.13378392 -0.25180015 -0.74089825 -0.3541929 0.43542615 -0.28693342 0.37927648 0.6469785 0.34832546 0.16589695 -0.27010223 0.17429924 -0.569854 0.3842078 0.2505534 0.5089006 0.45529133 -0.7702804 -0.716596 0.17205563 -0.9093913 0.25607935 0.42896795
look -0.08951596 0.11239059 -0.28650478 0.26059988 0.38707167 0.02770492 0.026614074 -0.17165366 0.32479492 -0.003128154 -0.6751206 0.06525284 -0.37584248 -0.5694551 -0.44684106 -0.055913225 0.65153694 -0.13786936 0.3119497 0.22373804 0.06061148 -0.15282023 -0.31190184 -0.18445446 -0.13346602 0.22975028 -0.16109681 -0.84599435 0.32101107 0.009771592 0.34027347 0.23829779 0.021659335 -0.06908835 -0.16283047 -0.14339368 0.12414801 -0.6280236 -0.11619636 -0.22228251 -0.046538524 0.20923235 0.24645203 -0.15094084 0.26067692 -0.1412509 0.033009592 -0.036934484 0.6559677 -0.09651343
d 0.53970057 0.4177322 0.34936097 0.5997589 -0.19721077 0.30123547 -0.43920708 -0.3528833 0.1681821 0.4424196 -0.5904774 -0.41038743 0.3296344 -0.5851263 -0.45034254 0.7046183 -0.028166626 0.40089798 -0.0024912714 -0.24840525 0.07717138 -0.4995457 0.17938116 -0.7738379 -0.28765434 -0.31046405 0.13048853 0.1890162 -0.21148667 -0.406133 -0.14782788 -0.028603192 -0.103475876 0.62029004 0.1481079 0.19962558 -0.037931312 0.12565494 0.30539435 0.6369212 -0.13764647 -0.18133901 0.60305715 0.6506855 -0.48968896 -0.360177 0.05434117 0.07459764 0.45708144 0.5350261
replied 0.045474835 -0.025601434 -0.43794698 -0.07819898 -0.37330014 -0.42480704 -0.71041 0.0073563727 0.15941983 0.52838343 -0.3541776 -0.3388108 0.14121343 -0.6623822 -0.37185618 -0.25231028 0.15725897 -0.30190167 -0.18939498 0.23291434 -0.33066756 0.06920767 -0.16789345 -0.18830492 0.0019531918 -0.33239514 0.1318706 0.4529646 0.16570045 -0.07461927 -0.4531971 -0.07220184 -0.030120673 -0.3199099 0.62233835 -0.20951687 -0.31547078 -0.71241784 0.38002074 -0.73751074 -0.21475615 0.5742642 0.068775624 0.15441951 0.43112734 -0.5706007 -0.29854915 -1.0517796 -0.7308514 0.5057646
day -0.22350344 0.37513265 -0.2756587 0.4991868 -0.08284221 -0.02345143 0.12876247 0.005459067 0.0065880604 -0.025989458 0.19124418 0.4203754 -0.18915467 -0.26208133 -0.04887088 0.3032904 -0.0041660955 -0.12519819 0.08594556 -0.19891515 0.21120383 0.1682143 0.119685516 -0.2912281 0.14529051 0.09145825 0.07774021 0.38090214 0.09968587 -0.3553292 0.8119005 -0.16814336 -0.1353982 -0.018931301 0.47316113 0.4748643 -0.5033572 0.35707027 0.046146467 -0.22196622 0.24707796 0.38957292 -0.0356108 0.32367504 0.4205856 0.0052274372 0.07725088 -0.18526237 0.42393762 0.39144555
might 0.24104813 0.33027032 0.45219946 0.40390316 0.09683215 0.54706275 -0.08005591 0.13350235 0.19536321 -0.016220454 -0.4867535 0.15178369 -0.22521015 0.14070512 0.27411565 0.6387243 -0.07982782 -0.017493887 0.7471826 -0.21414171 0.76371807 -0.34825304 -0.27604523 -0.4959996 -0.5714103 -0.47962973 -0.241395 -0.09846957 0.18439604 -0.09637971 -0.33299065 -0.12514807 0.1706105 0.016852977 0.2779738 -0.09756252 -0.21533972 -0.191766 0.6331456 0.64151126 -0.112727284 -0.3400049 0.44790486 0.48929527 -0.09835853 -0.29576087 0.44560108 0.3892837 0.50881815 0.27609786
three -0.5619948 0.7725041 -0.19702522 -0.12662493 -0.4591869 0.02572605 -0.64963007 -0.32501948 -0.5554184 0.2148792 0.17036499 0.26166418 -0.21748078 -0.20122877 -0.29746357 -0.29769987 -0.16853935 0.19684963 -0.39240253 0.45672426 0.15151371 0.21996745 -0.30450025 -0.13087223 0.61501515 -0.42591214 -0.5976579 -0.62129885 -0.10193426 -0.0696461 0.23409934 -0.4748893 0.28768742 0.58160955 0.5853287 0.24266157 -0.23974094 0.043158934 -0.11887997 -0.23265512 -0.06150288 0.20140597 0.27361587 -0.4672161 0.7784312 0.31477112 0.35435638 0.4572892 -0.16666454 0.626076
caterpillar 0.3030363 0.1939175 -0.42572272 0.05679999 0.43801245 0.08079362 -0.21251065 0.3076205 0.42027792 0.33677143 0.2580284 -0.03061979 0.062609755 -0.10405883 -0.1571134 -0.51921135 -0.009296335 -0.120080896 0.103017844 -0.25845066 -0.26995432 0.31564087 -0.51401705 -0.51801085 0.17268671 -0.12430922 0.06755932 0.07805932 -0.27707306 0.20226891 0.254623 0.09885125 -0.35943002 0.26945508 -0.09713308 0.4813125 -0.46702698 0.1923816 0.37811 -0.39306313 -0.33143952 -0.180171 0.43809482 0.29261938 0.43241385 -0.26329124 0.29230425 -0.0008846235 -0.21607642 0.23113851
seemed -0.08599144 0.49092826 0.38553852 0.36996424 -0.36513615 -0.31601393 -0.21559614 0.18856762 0.14306322 -0.36868176 -0.26518518 0.15993352 -0.597952 0.17964162 0.072924316 0.44467038 -0.05868484 -0.09786195 0.23806737 -0.02147037 -0.32904655 -0.06863031 0.036813118 -0.32313722 0.16189623 -0.4531364 -0.54280293 1.0864445 -0.057409752 0.06798502 0.49620187 -0.67049354 0.13651502 -0.39824027 0.26694188 -0.051590703 -0.5520836 -0.1649517 -0.27046385 0.39749366 -0.5697086 -0.009500219 0.43722108 0.40482748 0.49528718 -0.18773063 0.38906458 -0.21521053 0.22121193 0.098367974
going -0.24646106 0.38590053 -0.20356704 -0.007820383 0.09807557 0.1960635 0.06280148 0.29835227 0.3681548 0.62081057 0.15858865 -0.29541793 -0.22577596 0.21695371 0.13388018 0.22154373 0.500677 -0.10568194 -0.29654077 -0.3966746 0.2627091 -0.44963947 -0.035898257 -0.19659774 0.30019858 0.254344 -0.340666 -0.022919483 0.39315304 0.106525816 0.32356906 -0.10621267 -0.04642939 -0.22220431 0.06851788 0.07897283 -0.38393152 -0.2671733 -0.38086897 0.37102538 -0.4795454 0.09892694 -0.042120863 0.5525698 0.5065715 -0.51695913 0.028297253 0.21100798 0.35713184 -0.37191945
make 0.5242554 0.14929022 -0.19867742 0.40097597 0.7179305 -0.43947032 0.42387518 0.23689118 0.2758387 -0.22086902 -0.51792264 0.55833185 -0.13018754 0.019486463 -0.123136334 0.5107256 -0.17471573 0.16553283 0.24643752 -0.380196 0.16217265 -0.19244593 -0.29508346 0.31256455 0.06551495 0.12320475 -0.001889987 -0.083514795 0.08038759 -0.27992517 0.19244172 -0.13765444 0.4724983 0.1459453 -0.08733093 -0.34195632 -0.3531692 -0.8887922 -0.1990154 0.5814947 -0.23415056 -0.22300483 0.26134154 0.13184708 0.36424989 0.06446332 -0.079912 -0.13891304 0.622257 0.09361472
good -0.7605558 -0.08789485 -0.6463607 -0.15942821 0.06867257 -0.13809337 -0.38670468 0.59104794 -0.16176471 0.21727324 0.42897296 -0.12504295 -0.54097384 -0.13653912 0.8362315 0.48647082 0.6222878 0.04990557 -0.3471846 -0.06594585 0.5602106 0.009355904 0.11321077 -0.08626484 -0.15021987 0.23495032 -0.4773208 -0.28286257 0.62035227 0.1388149 0.41055557 -0.7341311 0.040185913 0.115431376 -0.20625253 -0.41930053 -0.6710913 -0.17594618 0.10000882 -0.31049368 0.001270695 -0.15026021 0.42531773 0.7918933 0.3824344 0.536563 0.5159993 -0.16815135 0.10284133 0.29134133
should 0.23158038 0.2478472 0.039544363 0.49909237 -0.43128684 0.087443545 -0.14662568 -0.16964994 0.34829187 0.20380874 -0.5661457 0.30079708 0.17118715 -0.91654605 0.17499512 0.70695764 0.37564602 0.012828159 0.4130276 0.033804424 0.49483922 -0.42679048 -0.099207416 -0.19238438 -0.45719367 -0.015671665 0.23426607 0.1835107 0.245865 -0.24408136 0.40808874 0.28567272 0.09269347 0.06267979 0.32080084 -0.08324271 0.031998828 -0.0010633323 -0.117317036 0.63887936 -0.3544113 -0.19104116 -0.05489387 0.36095017 -0.11462072 -0.1403129 0.47900388 -0.20983721 0.90032643 -0.07520198
poor -0.50560296 0.4183762 0.09931834 -0.44011316 -0.2705364 -0.024895594 -0.34118143 0.26324278 -0.18545625 0.269417 -0.4562818 -0.06755898 0.021539649 0.08630206 -0.36300808 -0.34620923 -0.046822075 -0.3049801 0.7338056 0.49406156 0.27901083 0.18665574 0.25701195 -0.2636779 0.3989063 -0.22388273 0.0073868493 0.14315729 0.3463412 0.060134478 -0.07775063 0.362872 0.04378781 0.36836714 0.33245718 0.03211477 0.40048295 -0.12134552 0.5084841 -1.108873 -0.33620426 -0.20924012 0.508268 0.39694136 0.105428904 -0.6784381 0.7299759 -0.8301865 -0.15196484 0.7297313
without -0.33981243 0.6035696 -0.19888203 -0.28858325 0.09311153 0.14715984 0.12931217 0.6037268 -0.22805376 -0.03774154 0.24557549 0.13514051 -0.045223832 0.027395595 0.4151975 0.20046112 0.08179784 -0.37652883 0.2776561 -0.3001446 0.111665875 0.2970684 -0.16812064 -0.41483167 -0.21617891 0.25752744 -0.69894433 -0.060986344 0.06850379 -0.68405205 0.48654523 0.0721225 0.052061908 -0.110684454 -0.011472743 0.1337852 -0.5454185 -0.25989744 0.42547107 0.24287295 -0.513242 -0.280489 -0.113398336 -0.443326 0.023659054 -0.06907448 -0.0962569 -0.4616323 0.29743913 0.68793625
upon -0.3836846 -0.25227046 0.2578586 -0.0705498 0.32536873 0.16825713 -0.79616797 0.21490915 0.47480473 -0.1263341 -0.057525303 -0.04648061 0.5362982 0.11603113 0.33109957 -0.26517484 0.26655 -0.32184544 0.013382607 -0.22859102 0.096962385 0.47871736 -0.3327967 0.064617515 -0.04705249 0.4761329 -0.6794984 -0.38020167 0.5146439 -0.5330568 0.02661912 -0.5431936 -0.566806 0.4226407 -0.29189128 0.07199687 0.25403452 -0.3484359 -0.61855036 0.088382505 -0.3736188 0.21815728 -0.037761323 -0.01948572 -0.29313508 0.052563343 0.23167248 -0.023042057 0.1276692 -0.39248037
won 0.512499 0.17221804 -0.57617754 0.40753275 0.30802253 0.3167924 0.36549723 -0.40623885 0.49017608 0.7807831 0.12755838 0.14493875 -0.5890555 0.078328274 -0.49618995 0.743954 0.35878772 0.28455833 0.08232685 -0.26368907 0.55359334 -0.6233998 -0.27122435 0.4857868 0.11743211 -0.23946176 0.010821375 0.11900755 0.16014577 -0.7873524 0.17342788 0.19476306 -0.0310548 -0.5912485 0.7038866 0.17155474 -0.13430883 -0.29186314 0.69894975 0.5309815 0.3110456 0.40136814 0.1433747 0.47706142 -0.50180554 -0.3444369 -0.16179202 -0.14738782 0.13046066 0.056920268
shall 0.3491233 0.61577255 0.4260606 0.25418484 -0.0872843 0.08259673 -0.2335988 -0.23960249 0.024135659 0.08293247 -0.50293726 0.62576467 0.12245788 -0.81420904 -0.0877857 0.67458725 0.35223773 0.0139392 0.06847164 -0.13875435 0.04510427 -0.49536988 0.360432 -0.7201625 -0.04018914 0.32269478 0.025101017 0.18345346 0.2238241 -0.71331143 0.16232279 0.0111836335 -0.4251917 0.042696256 0.34081283 0.41170257 0.23858893 0.008037745 0.106772795 0.28761455 -0.39508566 -0.36137742 0.32580757 -0.09199599 -0.3610261 -0.60590094 0.2620338 -0.3372888 0.20269804 -0.31765184
