word value_1 value_2 value_3 value_4 value_5 value_6 value_7 value_8 value_9 value_10 value_11 value_12 value_13 value_14 value_15 value_16 value_17 value_18 value_19 value_20 value_21 value_22 value_23 value_24 value_25 value_26 value_27 value_28 value_29 value_30 value_31 value_32 value_33 value_34 value_35 value_36 value_37 value_38 value_39 value_40 value_41 value_42 value_43 value_44 value_45 value_46 value_47 value_48 value_49 value_50
the -2.027734 -0.43831304 -1.7255889 0.5680938 -0.03776005 0.9937504 1.5769775 1.4937756 0.8437461 -0.053411674 -1.2788736 0.82183015 0.30372864 0.5770341 -0.32905897 1.1127849 1.0866642 0.70304954 0.7393448 -0.9646556 -0.004605978 -0.073844254 0.43667978 1.4019805 1.9109352 0.9299925 0.22572537 0.0320368 1.2618527 0.8964828 -0.5041454 -1.1077844 -0.72187996 0.99351263 0.4477446 0.79883045 -0.08650913 0.82044464 2.017485 -0.34216273 -0.9762768 -0.8089844 1.9624873 1.4603547 1.7645403 -0.49006033 0.25253013 -1.7746471 1.857385 -2.313402
and 0.1790514 0.9993791 0.28981707 1.6278949 1.2708052 -1.9099964 -1.3737576 -0.15140067 -0.8074152 0.017211279 0.4983274 0.009534371 -1.8384541 0.8014007 -1.7090214 -1.0398874 0.86199594 -1.6834841 0.0944782 0.39487904 -0.2383275 -0.90272135 0.5651155 -0.093708955 0.67241347 2.1321502 -0.078540966 0.58762676 0.13197184 -0.7518011 0.68897 -1.1023353 -1.9193695 -1.3795686 1.0396628 0.716982 -0.0883718 -0.18577051 -1.7015358 -2.019048 1.0485857 -1.510816 -0.73666054 -1.280517 -0.004725938 1.0831406 -0.18182823 -1.57284 0.61963755 -1.3429816
to -0.11599774 -1.5498868 1.1479365 -1.6114691 0.4544186 -1.1794465 0.86457014 1.0706345 -0.78111285 -0.4362908 -2.239932 -0.883803 0.23765567 -0.25716978 0.8220611 -1.6236196 0.48181027 2.1407819 0.77752674 1.3511869 2.2128863 0.0044852295 2.0867794 -1.3782932 -1.3816899 1.2946963 -1.5681493 0.43946573 0.24200441 -0.27617142 -1.3382876 -0.1229958 1.7914028 1.386587 1.7691685 -1.6786337 2.027593 0.83706135 -0.7321567 -0.13966882 1.6220655 -1.2758377 0.7130419 0.036612716 -0.3987446 0.54041237 -1.1744119 1.4775455 -0.11556061 -0.80259466
a -1.3273534 0.8248955 0.796182 -2.3704846 0.091417775 -1.0280329 -0.71087736 -1.0261366 2.086233 0.7536152 0.30937275 1.9154017 0.5748728 1.4000788 2.2889328 0.89287806 0.9269753 2.5462723 -0.98517984 0.15586957 -2.0415688 2.303729 1.068367 -0.31921664 2.4831421 0.73991895 0.31336212 0.19510242 -0.4066347 -0.988181 -0.9952697 -0.9631845 -1.3406556 1.4164203 0.63354754 2.1815324 -0.5176054 -1.1474887 0.5681494 -1.5034924 0.975645 0.16599764 -1.4166597 0.7390455 0.35093087 0.4626378 0.34878474 1.5102307 0.6883508 -0.25980508
it -0.33540457 -0.3131479 -1.112117 0.3536259 -0.7932244 -0.72681785 -0.9795132 1.6173251 -0.63625956 -0.21855128 1.7370063 1.6801672 -1.7237725 0.38295525 -1.388174 -0.77374494 -1.4031856 0.47858822 0.8741157 1.3102738 1.0136642 0.89590466 -0.4024534 -1.7964786 0.4191055 -0.2715357 -0.20775528 -1.6934803 2.4790928 -0.46610412 -0.5716861 0.93672043 0.58590144 1.5754491 -0.13291071 0.35163122 -0.8173546 0.23287676 -0.19135806 0.5257148 -0.6235874 -0.23408885 -0.18310983 -0.6570571 1.1643776 0.35467392 1.3405486 0.9399148 0.068142995 0.87561995
she 0.15231116 -1.5140473 -0.052368164 1.296285 0.0144419195 -0.51141405 0.5375471 -0.13889572 -2.0009685 0.04064576 1.2616241 -0.20510098 -0.08191002 -0.49678013 -1.0346792 1.5992527 1.0848497 2.2332222 1.408167 0.94911075 0.38794842 0.51555026 -1.7030693 -0.28829917 -0.16823496 0.6134255 -0.019686995 -1.329757 0.31744117 -1.5416541 -0.14389376 -1.1423222 -0.8993999 1.4156474 -0.66867435 0.98690677 -0.38989374 2.0264132 -1.2235507 -2.5014791 0.15023836 1.9525868 0.13552961 0.044920683 1.2018801 -1.2555152 -1.6846008 0.46491832 -0.12272183 1.3948677
i -0.5820641 -1.2308023 -2.784764 -0.64868784 -1.2697171 -1.8384957 -0.93212914 -0.50803626 0.26386502 1.3059171 -0.09010218 -1.5118679 1.2437438 -1.6762053 -0.7956488 1.5477238 0.79992276 0.4851356 1.1324519 1.094782 -0.18396686 0.8806785 1.0152026 -0.5509898 0.7928545 0.91410935 -0.15396872 -0.7597176 1.6834621 -0.8762989 1.911598 0.9849272 1.7747558 -0.7666449 -0.9112705 1.9831471 1.8505342 0.9606284 -1.3263716 0.70821106 0.47893757 0.5476583 -1.3081597 -0.9554434 -0.2730259 -1.303454 1.1397829 1.0156745 -0.770532 0.015382518
of -0.18342389 1.0347946 -0.854106 1.050073 -2.1846032 2.188157 -0.61147475 -1.9231377 0.3926728 0.8491405 0.7827573 -0.24915594 -0.19467027 -1.031027 1.4497823 0.36675814 -1.3374188 -1.7554464 -1.016653 1.4906751 1.5983355 0.86342895 -2.5952594 0.023169314 -0.672431 0.015758261 -1.8782713 1.836045 -1.785234 -0.8380327 -1.1062484 -0.11240066 -1.1969855 -0.2454491 1.8219918 -0.62839186 2.690086 -1.3935744 1.3765554 -1.0818943 -0.80121326 0.67714834 2.422028 -0.25548032 -0.2870002 -0.86957705 1.3076061 1.4595333 -1.2908547 -1.7014151
said 0.085831694 -0.2484472 -0.4017633 0.3922327 0.5478586 1.0858098 -0.34103397 -1.4177144 -1.1828204 2.152577 0.6001234 0.6510389 1.9696219 0.6623494 0.49063462 -0.68799514 1.2678777 -0.88535476 0.57733357 -1.7343539 2.1568937 0.69875765 0.90318704 -0.15010789 0.6643113 -2.7135332 0.62127185 1.2115842 0.5468595 0.6364353 -0.045231525 -1.2147182 -0.57082444 2.0747523 -0.5448009 -0.8925706 2.0222056 -1.3886995 -0.56897146 1.6128299 0.38603634 -0.6860494 -0.30250797 0.08966909 0.13356157 1.2868842 -0.3865503 -0.6486465 0.060762994 -0.51683223
you 1.0564423 -1.7385132 -1.9207654 0.11608535 -1.2578653 -1.776154 -0.09139206 -0.016665142 0.3540879 1.3856776 -0.2287507 -1.0884589 0.53287506 -0.92622024 0.18568325 -0.83945364 -0.639601 1.5480548 2.1402078 0.8416999 -0.56266063 0.17419696 1.0113492 -0.63650495 1.3411088 0.13375637 1.0910529 0.26775336 -0.9874725 -0.44037443 2.254393 0.7828095 0.9524292 0.47308317 -0.81045294 -1.5757256 0.1570371 1.2275003 -1.1931155 0.32975414 0.28400892 1.5034612 -0.9652954 0.76920444 2.8969548 1.0536618 -0.99641925 -1.0120968 -1.3052298 -0.94667333
alice -1.402763 -0.322003 0.109129615 1.1018417 1.2435188 -1.4693164 0.70878494 -0.44504553 -0.866823 1.6079274 0.42904982 1.2973988 -1.3170475 0.10552522 -1.5462623 1.4018304 1.4164907 1.0219933 -0.2118762 -1.4862221 -0.096290536 -0.22752279 -0.7603667 1.0382123 -1.3754535 1.8513167 0.57700855 0.41054899 0.73501855 -0.7869188 -0.07578212 0.8347747 1.0744933 1.0167564 0.012989883 -1.094906 0.38936177 1.1702545 0.52925205 -0.8321318 -1.8605908 1.9343344 -0.95668715 1.3445281 0.85743356 1.333603 0.18176645 1.2004867 1.4514204 1.1067072
in 0.10817234 -0.19154902 0.5465143 -0.8120513 -0.838501 0.6019332 0.094877966 -1.1461848 0.72058374 -0.1261182 0.48616403 -0.76100904 -1.7463279 -0.4947234 -0.21608059 2.6664655 0.81402093 0.08544067 -1.0464836 0.48934934 -1.1140567 -1.9324249 -0.78850895 0.1525644 -1.2529994 -0.6094005 1.3339957 0.23829208 1.362875 2.1518395 -2.182507 -1.523933 -0.34000355 0.41100466 -0.75469714 -0.0005063959 1.2734132 -0.46990156 -1.2873601 0.028244507 0.10103312 0.065147705 -0.24010226 0.655335 -2.6339386 -0.87526613 -0.41858807 -2.955021 -1.6993214 -3.5858762
was -0.82139325 0.02689637 1.8479302 0.72921467 -0.5567085 0.042877138 1.0771465 -0.93172497 0.8759883 1.1814829 0.6647728 -0.6237032 1.4391468 -1.8999755 -0.61218697 -1.2456665 -0.74403715 -0.49959275 -0.29471087 -2.5338714 1.170225 -0.5348719 0.9307205 0.29880717 -0.49779493 -1.9367082 0.4324913 -1.2882383 -0.7366017 -0.9692966 0.5078578 -1.2137898 0.5843633 0.77593 1.3127517 0.60277545 -0.6517682 -1.4418228 0.6447068 -1.6248258 -1.9156317 -0.077442124 0.6664925 -1.6536056 -0.8530873 -1.6633632 -1.2349195 -0.6333728 1.2524917 -1.188645
that -0.9892062 -1.1482799 -0.8101478 0.64349836 1.3252174 0.56314766 0.68860424 0.41760612 -1.254884 1.7692398 0.37326992 -0.00064589526 -1.3786137 -0.20893663 0.24574791 0.0032957064 -1.7939715 1.8532413 -1.2295356 0.4950592 1.5477611 0.7302583 1.7088292 0.5260191 0.39050364 0.15072785 0.28280818 -1.0348097 0.41200686 -0.13289422 -0.5262307 0.25844684 0.65721667 0.339077 0.63704044 0.9882886 -0.8005041 0.17795047 0.7599264 0.82655257 0.12785068 0.4332274 0.8205441 -1.682741 0.5006411 0.699614 1.4023625 1.4794041 -0.9014577 1.5146619
as 0.6382744 -0.11134412 -0.93936086 1.1667211 1.1173531 1.2953707 -1.174243 -1.7241123 0.20594414 1.1060492 -1.370891 0.09859218 -1.498653 -0.08952825 0.29662332 -0.72309244 -1.925832 1.1090536 0.69772184 0.14809541 -0.295021 -1.3923448 -1.536656 1.631745 1.5252204 0.18278193 0.81109804 0.42117345 1.9863098 -0.12634994 -0.25593263 0.191822 0.17844671 1.2674656 2.459031 0.28941 -0.36430582 -0.28209904 -0.16063367 -0.59654886 0.38194975 0.8226892 -1.5365514 -0.50519174 -1.3642145 -1.2017554 -1.0588096 0.5616832 -0.61799574 -0.48960063
her 0.6261114 1.8521419 0.68105876 2.6167433 -0.11264066 1.5804739 0.93571603 1.3936954 1.6087484 -2.0353363 0.94742155 0.6173896 1.0554774 -0.29154608 1.4989356 -0.0067631747 0.42457926 1.4395627 -0.08020444 0.35487548 0.11900955 1.5987828 -0.696371 0.06783972 -0.94610274 1.970979 0.15338612 -0.24638617 0.6718807 -1.290232 -0.47775146 -0.1380403 1.6428909 0.05928384 1.3420193 -0.09795079 -0.042226315 0.41018313 -0.39360937 -0.40952495 -0.23110777 0.8252878 -2.0710416 -1.1628039 1.9896964 -0.738198 1.9033347 -2.6487765 -0.15795298 0.015162362
t -1.460959 -0.17552766 0.9837738 0.33157426 -2.2962506 0.4111445 -0.72605777 -0.39544982 -0.30835694 1.2488748 -1.82886 1.3097895 -0.12300543 -1.36988 1.95896 -1.4092995 -2.40564 -2.1046507 1.7896833 -2.429016 1.5857258 -0.48534963 1.0956804 -2.7299502 1.1677123 -0.35516894 -0.7074828 -2.347968 -0.84181184 -0.41204166 -0.32325816 1.2741305 0.9304652 -1.2292739 -1.1418697 1.2665972 -0.6735773 1.9373045 -1.6237025 0.4134726 1.9716517 0.5978715 -1.2231882 -1.5301687 0.58927184 0.66316026 0.07787987 1.3408585 -1.0256771 -3.474836
at 0.32857645 -0.49026388 0.6737015 -0.7656285 -1.3441701 1.5994345 -1.4682028 -0.4913214 -0.89544874 -0.29321802 1.1768209 0.79170525 -1.6908337 -0.026874501 0.053753532 0.44926566 2.39867 0.56945854 -1.5062268 -0.039261226 2.7277596 -2.8133056 2.2481449 0.47720012 -0.44997296 -0.32052356 1.0732559 0.18128853 0.4291423 -1.5318624 0.40602124 -0.63401943 1.3390739 0.51357555 0.20578462 0.6863858 0.47696167 -2.1672812 1.051072 -1.3341562 0.6889071 1.0211256 0.7739784 0.14180773 0.896139 -0.54408866 0.35180527 0.036027025 -0.71287876 -1.2082134
s -1.3562772 -0.32370588 1.0548322 0.21491443 -0.12633416 0.18791088 -0.39564922 -1.4042076 -0.13367493 0.86013573 0.22374533 -0.56230086 1.8338739 1.2978972 -0.4004215 -0.036822103 -0.7083275 0.80784374 -0.36406967 -2.6992798 -0.99860275 0.34418035 -0.096348226 0.9183306 -1.295977 -2.0886772 1.4362904 -0.8944885 1.2208602 0.2479291 -0.8105043 -0.12476097 2.5343344 0.1596699 0.73760563 -1.5672405 0.52076906 0.06384666 0.2542039 -1.4261522 -0.998713 -1.7400904 0.24064618 -2.4564161 -0.2812336 -0.84198016 0.08252242 -0.65267456 0.32587805 -1.4044611
on -0.30132353 1.6195571 -1.9001263 0.21598217 1.1758602 1.9140773 -0.6401142 -0.02364881 -0.12574877 -1.2258298 -0.6538694 -1.8901664 -0.2171724 -0.6868752 -0.9721718 -0.9960766 2.1636455 -0.582127 0.35772166 1.4143523 1.2838039 0.22604227 -1.4573888 -2.1973772 -0.08389118 -1.5297426 1.2400059 -0.422827 1.0382322 1.1530061 -1.2543564 0.6183728 -0.62453306 -0.265866 2.6734693 -0.45175096 -0.71062976 1.568806 0.23200993 -1.3112578 -0.81078035 -0.20757933 -1.4307972 -0.15994489 -1.7453178 -0.21767662 -2.1330554 -1.0523762 0.72197837 -0.7061516
all 0.33020824 -1.6861639 0.9712856 2.3618925 -1.0846477 -0.63174736 -1.1578001 1.5451704 0.8208174 -1.2338035 -0.26970872 -0.38200712 0.7382346 0.2986045 0.45724502 0.74058896 0.057719253 -0.9962386 0.01697349 0.5734707 0.6153522 -0.41268545 -0.90541303 0.267229 0.3272485 -0.4087575 -1.213131 -1.0786955 0.4313137 0.9773278 -1.3042985 -0.0774916 -1.040366 -0.7477353 1.4659319 -0.38739637 -1.394204 -0.10574133 0.1422888 -0.4457766 1.1539713 0.472325 -0.7595419 0.6866726 0.51301354 0.73408395 0.5026112 0.2860417 -1.279474 0.434661
with 0.914411 1.0178248 -1.3035219 -1.0490144 -0.25374642 0.30931154 -0.49295235 0.0035301617 2.2167504 -0.28941593 -0.31258327 -0.5394474 1.1790372 -0.40814957 -0.37586105 -0.4859909 -1.1097466 0.0018723984 -0.90611374 1.3630576 0.27774656 -0.09149507 1.9644976 -0.95882773 0.16889781 -0.15048116 0.66242784 1.3104815 -0.5127919 0.6542773 -0.7161512 -0.21122694 0.8314005 -1.128232 -1.242412 -1.158901 1.2133484 -1.0535792 -1.110526 -2.8798256 0.8632837 0.23654108 0.40097713 -2.2320518 -1.429324 0.3310343 0.14696091 0.56332743 0.9372665 -2.4418683
had -1.4411044 -0.9069327 1.1410537 1.1339157 0.35908088 0.33993894 0.8312298 -2.102443 0.093889445 -0.45892316 0.9491444 0.23014013 -0.015984228 -1.7745836 0.68630224 -1.1976492 0.3302076 1.60643 -0.0046875086 0.097494334 0.44183472 -0.1476588 -1.7419634 1.1168072 -1.3793148 0.66916 1.9641528 0.94973207 -1.1564037 -0.34548387 1.6807357 -0.65826285 -0.33123228 1.3891163 -0.69156903 0.5255582 -0.72861844 -0.78528774 -0.46990594 1.3797678 -0.45938438 -1.9460042 0.1709585 -2.6846113 0.61479825 0.69814897 0.2206913 0.82044655 -1.9025359 -1.7874632
but -0.69298357 -0.6781283 -0.50920564 0.23517531 1.9764307 0.9812827 -0.08278713 0.20577909 -0.5170976 1.7021102 -0.002098539 0.2677126 0.37812343 -1.3892026 -0.16951545 -0.41009113 -0.031275265 -1.4847908 -1.3373389 -1.2424195 -0.9900805 0.0055168658 -0.54144126 -0.21826601 0.1922861 0.5657586 -0.06712914 0.039592292 0.20400062 0.11606485 0.18577383 0.7165732 -0.31102225 -0.23243678 0.90058637 -0.40021208 0.61053467 0.656408 0.7790086 -0.36408105 0.3302751 -0.8535027 -1.3371941 0.50057304 -0.099846005 -0.32015154 -0.18122837 0.27578714 1.016665 -0.0441604
for 0.89564776 -0.22021298 -1.068604 0.88532245 0.36820447 -1.0343658 0.5577807 0.46779487 -1.3767751 1.046743 -0.047205187 -0.16437362 -0.984529 -0.6154457 2.0210638 0.46838856 -0.57311517 0.38961276 -1.5361778 -0.75933224 0.23098162 -0.9474847 -1.2124457 -0.5644261 -0.69525725 -0.5241051 0.52969027 0.8497938 -1.0431151 -1.2268133 -2.1693158 0.9823423 0.8284518 1.0027558 -1.0008581 0.110802956 -0.552526 -1.0953155 0.73746204 -0.023478454 -0.8110695 0.16312803 -1.6110021 -1.5057545 -0.3256566 1.86207 -0.95739615 -0.8376108 0.23031828 -3.0015943
they 1.4235508 -1.413339 0.023272088 0.26349673 -0.97267616 -1.890658 -1.6279618 0.9825719 -0.4571492 -0.3378786 0.5337281 -1.746709 0.1604053 -2.486133 -0.84671795 1.4135667 1.1082156 -0.012224576 1.4386836 1.324814 -1.1188993 -0.34139425 0.046720054 -2.04568 0.040072434 0.62429583 0.7026848 -1.0180895 -0.3256325 -0.46204793 1.1718644 1.443682 0.049274467 2.2585504 -0.050765604 -1.6429508 1.0073922 -0.11098829 0.2188421 -1.7972205 -1.2381747 1.8968737 0.89453554 0.16519487 1.0441152 -0.36864004 0.95669335 -0.5214701 -0.22038114 0.14845732
so -0.29930878 -1.3642375 1.1104513 -1.3320436 1.1763966 1.0369945 -0.26424724 -0.40468076 0.33524412 -0.52016926 -0.44426027 -0.7177133 -1.1522833 -0.9825039 -0.4562154 -0.12551941 -1.2209895 2.0525682 -1.2380556 -0.006409426 0.07302778 -0.4544597 -2.0811622 -0.95171636 -0.9711412 -0.24990955 0.9608889 0.0378886 1.8220026 -1.6462022 -0.041194845 0.52793133 -2.3931406 0.36969605 0.7843902 -0.023267971 0.21422547 0.3010944 -0.27919963 1.0786804 0.617034 0.877446 -0.33220443 0.33712983 -0.51738816 0.59690076 1.7937354 -0.5369904 0.45852 0.5613926
be -0.22903563 0.064059176 1.4675915 0.07428424 0.4639391 -0.23586513 -1.0087495 -1.9288685 -0.41898987 -0.27837586 0.34950364 -0.24631187 1.7762403 -1.3779914 0.6343966 0.55424714 -1.6409005 0.16486391 -0.8593774 -0.07562054 -1.2486091 1.0880786 -0.18167952 -0.7504514 0.8739213 1.0473579 0.8094007 -2.4162474 0.90229267 1.6228716 -0.47915265 -0.73760945 -0.10877798 0.99923027 -1.4387498 -2.3072999 0.26894778 0.30344766 -2.2788465 -0.15207614 -1.9051821 0.2629882 1.2415715 -0.6131304 1.1018721 -1.1839265 0.05989265 0.41720715 -1.7492863 1.0661435
not 0.72784936 -1.8932884 0.31457248 0.28519997 0.960624 -1.6173948 0.03820257 -0.42176348 -0.9430709 0.14535357 0.13113499 0.88056374 1.0775112 -1.5721849 -0.85776305 0.32159835 -2.253518 1.1501716 0.3329915 0.7493489 -0.44570738 -1.5741097 0.41129556 -1.1504047 0.45629022 0.11657422 0.0283401 -1.0592746 0.8654396 -0.31812274 -0.007153155 1.3322303 -1.4319952 0.13290961 0.31421307 -0.16279657 1.0862007 0.40321285 2.3798575 1.2007439 -0.40533504 1.6174612 -1.3600414 -0.440359 0.19536039 0.8740405 -0.91681236 -0.9780353 -0.43737847 0.7103493
very 0.48694947 0.7879743 1.5994998 -0.80231273 3.0738485 -0.06620567 0.32703 -1.1475098 0.43101498 1.411643 0.74360406 0.43736827 -1.3090045 -0.053234868 0.3758992 0.33417282 -1.430693 1.7815834 0.7713473 -0.75902957 1.4495747 1.2750372 -0.95503193 0.8505401 -0.1517957 -1.1367753 -0.68761176 -1.4177372 0.49371433 -0.75048226 0.6723796 -1.0125995 0.46919918 -0.0077993427 1.027163 0.30019617 0.7776905 0.6276094 -0.48018295 0.6237696 -0.03386364 1.8802814 -0.44790602 1.9920421 -0.6774748 0.6240611 -0.61018556 -0.9304671 -0.80855656 -0.025969187
what 0.1389525 -1.1771835 -0.4654633 0.015290491 1.0536749 0.05712223 -0.52460545 -0.2153703 -0.42048085 1.0538563 -0.44030204 0.7971287 -1.277023 -0.94732195 1.0128379 0.5704871 -1.813568 0.16323322 -0.026606914 -0.20742801 1.7135068 0.122779734 -0.35794705 -1.358808 0.4973545 -1.3015522 -0.8810088 0.3817578 -0.26971295 -0.047336828 1.6668665 -0.16191524 0.24108376 -0.45569915 0.7104556 -0.20754537 1.1597816 1.5737535 -0.28442505 0.59434015 -0.7319544 0.7154204 -1.3468697 0.980625 1.9425311 0.7891227 0.15061581 0.17545177 -0.697778 0.12861809
this 0.8251533 -0.5251988 -0.71742237 -1.2715906 0.41705322 0.09645137 0.9434889 1.4288574 -0.3348204 0.20414998 -1.1764697 0.65806955 1.2612467 -0.7943161 0.70198154 1.6450483 -1.6908582 0.5256705 0.17576104 -0.34285852 0.23046018 0.9242215 0.3070003 0.59844697 0.46804726 0.5344472 0.6173491 -0.65867937 1.5822476 -0.114459 -0.4081189 -1.5155048 -0.38247535 0.4386834 0.31347653 0.45713338 0.32935163 0.09147282 -0.26882622 -0.74770737 -0.9980828 -0.28889683 -0.18244083 -0.3060884 0.6896685 0.8144591 1.0279092 0.8483213 -1.2735902 -1.6539129
little 0.9264611 -1.3048593 -0.33497372 0.5978665 1.2879239 -0.49459714 0.27841213 0.5921422 1.4788694 -0.39602324 1.1516316 0.6072831 -0.21395075 -0.4207855 0.5013946 0.43894106 0.005527445 -0.28535196 -0.9038868 -0.29536837 -0.23124477 1.6173491 0.62686133 0.1268068 0.10527996 0.57911384 1.016404 -0.27078077 -1.0821601 1.0946742 -1.9665023 -1.1381427 1.0986011 -0.8630497 2.105089 0.6887891 0.9287082 0.8511923 1.7957896 1.1153492 -0.49857333 0.48203924 1.186691 -0.31176993 -1.2384853 -2.00663 -1.3852115 -1.2608576 -1.4038163 1.539574
he 0.11344518 -2.1092722 -0.8874716 0.227141 -0.5969686 -1.8314061 -0.33516496 -0.008092202 -0.19372821 -0.40403163 0.043610737 -0.032858934 -1.2789446 1.0888604 -1.7920004 0.77262944 -0.30591756 0.42895886 1.5106798 0.87285197 -0.5721512 -0.72421056 0.8650331 -0.36738268 1.4007214 -0.26693073 0.7228133 -1.0988295 1.3984532 -0.8915068 0.6807376 1.2564237 -0.71244687 1.4159201 -0.9219247 -1.190155 -0.67451566 0.81355643 0.7969132 -1.7775503 -0.5898148 1.7883672 -1.132498 0.6567817 0.3563911 -0.168392 -0.6425122 1.6716756 0.119569376 -0.51900774
out 0.13694008 -0.574437 -0.18919064 -0.52314836 1.178214 0.16147023 -1.2041035 1.0343822 0.862125 -0.33216938 -0.9027044 1.3888227 -0.2725832 0.6742309 0.3554848 0.09735743 2.181851 -0.94591045 0.009544259 0.7256064 -0.06957235 -1.8337101 -1.2017547 0.6660174 0.166271 -0.5999974 -0.8514874 0.6225811 -0.80632913 -1.7303271 0.43726322 -0.7271732 -0.19759247 1.5755228 -0.8673911 -1.1565555 0.4835312 1.3600261 -0.48038068 1.5163895 0.52671784 0.13964371 -0.19491321 -0.82652736 -0.9407154 0.2863579 1.3851652 -0.81271935 -0.73021007 -0.8130322
is 0.3009917 -0.8559426 1.1697592 0.19740857 0.85787636 0.026560696 -2.1540203 -1.2055099 0.5884137 0.34187835 -1.1123675 -0.10136678 1.0464219 -0.5300408 0.3723614 -0.60333294 1.1562934 -0.61443686 -0.49742076 -0.5047111 -0.9002754 -0.6122878 -0.4464143 0.90312076 0.41024333 -1.5735917 -0.8089219 -0.09034297 0.5238357 -1.4512993 0.8288285 -0.1376519 1.880807 0.18268743 0.017721819 0.20790094 0.30063647 0.9391657 -0.0037912857 0.9988654 -1.5396899 -1.0579749 0.5626525 -0.32357228 -0.27900428 -0.31974733 0.44715384 0.30788493 0.15424791 -1.4853534
one -0.23581415 -0.47932398 -1.5626838 -1.4717404 0.6836492 -0.3910779 0.47936302 1.4146472 1.4989492 -2.280619 1.0447286 1.5389534 -0.45481303 -0.37504983 0.5057749 -0.1675047 0.6050534 1.7258368 -0.06513537 0.48505256 0.39177835 0.56600106 -0.99833035 0.79650575 -0.40313455 0.918527 0.7213015 -1.6780125 -0.67142355 0.8666734 0.9116307 -0.60448307 0.8923936 0.8906303 0.31423178 -0.70066166 0.7922967 0.06482757 -0.8373347 0.7208983 -0.5452613 1.7307936 -1.4289165 -0.13044973 0.8413042 -0.4109245 0.57170254 0.2193068 -0.563652 -0.7886095
down 0.48690826 -0.3433249 0.25209364 -0.35195205 0.28529313 0.05643624 -0.34241998 0.7799974 0.28579238 -1.5083592 0.061612483 -0.37801966 -0.5614599 0.29404995 -1.1137979 -0.263404 0.850261 -1.3066856 -1.643571 0.66828585 0.8694776 0.047061317 -0.30214658 0.09615345 0.2596028 0.044258628 1.5416822 0.5796356 0.87029254 -0.20773177 -0.06839258 -0.42783606 -1.6633929 0.58658695 -0.32336196 -1.216059 1.2691259 1.0164915 1.5462028 -0.4611585 -0.38883084 0.8780909 -1.5363524 -1.0912741 -1.3328165 -1.00074 0.30202785 0.95280564 0.07631102 -0.45956448
up 0.3345216 0.015770895 1.0432508 -0.6583038 0.42363518 -0.5747916 0.2801452 -0.121215396 -0.19539323 -0.97654736 -1.9868091 1.0148239 -0.6681889 0.3188684 -0.9923702 0.13267031 0.9484853 -0.4199769 -0.006628976 -0.005920825 0.3769952 -0.91045666 0.26139072 -0.76119196 -0.91902685 0.28009373 1.2292658 1.1190687 -0.16048397 -1.5441083 0.1860132 0.16608104 -0.23119965 0.2928906 0.0846773 -0.6565576 -0.18642482 0.8825789 1.8289293 0.9490098 0.8020855 0.9904304 -0.8459113 -0.088506594 -0.58495504 -1.443715 -0.239018 0.6109501 -0.252317 -0.412847
there 0.68906987 -2.356455 -1.0494043 -0.9912837 -0.3632354 -0.8994207 -1.2130686 0.8107406 -0.6056721 0.9894086 0.40978256 0.875493 -1.3026396 -0.2379929 -0.6130903 0.35787275 -1.0005646 0.7520932 -0.5446928 0.40710568 1.0478235 -0.50985557 -1.1680315 -0.044321816 0.3900052 -1.3402729 0.22331773 0.5380258 1.7532992 1.1041752 1.3496472 -0.24023613 1.3085507 0.058851134 0.5401637 -0.13977572 0.596269 0.57127357 -0.45301935 -1.8119057 0.11185906 1.3903315 0.69248736 -0.90567166 1.8593764 0.3592816 0.12997366 -0.601282 -0.60657203 1.7373596
if -0.35167256 -0.12943034 -0.41260767 0.93643147 -0.3118901 1.8313382 -0.2831558 -0.63961136 -0.07925824 1.2398157 -0.3959648 0.093798295 0.023824356 -2.094772 0.6573506 0.33521858 -0.74857026 0.0097794 -0.19265379 -0.21112528 -0.41589212 -0.72388095 -1.0047809 -1.4003361 1.3081851 -0.4412707 -0.13032405 1.4689233 0.33434087 0.12605739 -0.5339649 0.862939 -0.44191197 0.19536217 1.2408457 -0.05627322 -0.98266375 1.4455552 0.0967364 0.11289995 -1.3696142 -0.24607806 -0.95829487 -1.4899243 0.8128796 -0.38703096 -0.02125221 -0.34471747 0.6429211 0.6842765
his -0.5321795 2.0675063 1.1266813 1.3369282 0.87412643 -0.18382804 0.9214291 1.7113429 2.0254965 0.61891484 -0.63449824 -0.3499433 0.13182509 1.1678768 1.0885845 0.5477383 -0.23643982 -0.34132046 1.3228168 2.6820185 -0.8582286 -0.8283407 0.11785003 1.6048458 1.5660053 1.066932 0.91800886 0.31235418 -1.3241606 -0.29433882 0.73688954 -0.77915907 1.2532699 0.62570345 1.4172442 -0.3201483 -2.0499277 -0.6606246 -0.85287786 -0.51051396 -0.7373576 0.11983351 -0.37890297 -1.1682398 2.711181 -0.24300323 1.0837307 0.63854635 1.4819809 -1.1980672
then -0.49666488 -0.9703715 -0.5203799 1.2365718 0.41367447 0.5703762 -0.20116985 -0.3942217 0.8166647 -0.88837916 -0.3071304 0.25831673 -0.25231528 -0.592017 0.04567408 0.7333468 -0.15293111 0.36528978 0.4929082 0.051092178 0.8455386 -0.008788461 0.12436169 0.7326842 -0.76731306 -1.2564265 1.2486699 0.39126858 0.25062707 -0.2194056 -0.36685866 1.1977731 0.60945565 0.08541946 -0.15138368 0.63722 -0.6597822 1.648642 -0.70157903 0.5325627 0.41782975 0.03573193 -1.0517578 0.25040662 -0.38430887 -0.53289247 -1.013855 1.1643102 0.84861 -0.68466693
about 0.27536118 -0.56700385 -0.9293088 0.93574923 0.25229502 0.35172972 -1.811799 -0.9864291 0.5023935 -1.3024478 -0.90870386 -1.8446112 -0.37777495 0.48910925 -0.17304683 0.11873199 0.8078153 0.11401465 -1.3129492 -0.8262918 0.6351196 -0.47322148 1.2186484 -0.63592666 -1.069052 -0.018641239 0.17225525 -0.44794568 0.06643233 -1.1812729 -1.447413 0.19507302 0.031514615 0.24839911 -0.6780354 0.239634 1.0667195 0.5279958 -0.39592457 -0.7557333 0.58707434 -0.3574519 1.381028 0.1476658 0.8184689 0.72410434 -1.205434 0.038421422 -2.3278544 0.54615384
no -0.9355991 1.0500996 -0.31386214 -0.6487023 -1.0108598 -1.7454032 0.97631955 -0.6989234 0.6672845 0.8155557 -2.1779015 0.16287787 0.16573326 -1.000074 -0.348703 0.83870196 -0.80536175 -0.023790613 -1.6444123 -0.29314467 -0.6158222 1.6248987 -1.0133128 0.66446275 -0.67961615 -1.4743521 -0.156571 0.25192815 -0.026025735 0.06182293 -0.36168683 0.35080528 0.18372971 2.0879364 1.8011541 -0.85213715 -0.43404967 1.1963534 -0.54510444 -1.5627985 0.05903628 0.060402356 -0.55000865 -0.3286633 1.604194 1.2934437 0.9056931 -0.04286917 -0.087594725 0.69274306
them 1.6831397 0.5398912 -0.3771384 -0.33206397 -1.301702 -0.4659531 -0.33971015 0.7737576 0.84560543 -1.542109 -0.3543386 0.6466925 -0.24986066 -0.5434442 -0.55952495 -0.18174529 -0.022132507 0.2247347 -0.22965391 -1.016705 -0.35312173 -0.09398803 0.122889176 0.600854 0.15351567 1.0047026 0.9702328 -0.7873777 0.7742558 -0.09003067 0.7010712 0.24395908 -0.101238966 0.94107527 -0.42727304 0.4218408 -0.41439295 0.4627955 -0.8400421 0.99744797 0.04311261 0.47173086 -0.5118624 0.12362054 0.9788221 -1.2124572 0.7128899 1.2032763 -1.1842743 -0.26669595
like 0.96900135 -1.7118186 0.45230561 0.29312706 -0.1402414 0.21682318 -0.44253966 -2.8336225 -0.37200916 1.0144328 -0.46808437 1.0551612 -0.6508607 -0.32321882 0.435629 -0.9218853 1.1417868 0.12641355 -1.0961165 1.6926401 0.9768646 -0.66026527 -0.0052026673 0.30586177 -0.056592572 0.03744671 -0.2884975 -1.5365412 -0.38006568 0.27414116 -1.4169408 0.63819927 -0.53654706 -0.989368 0.3387524 -0.71767277 -0.67764246 -0.3935789 0.10741809 0.1838121 -1.4287336 0.6037795 0.42528895 0.038965452 -0.088601425 0.21326268 0.8202232 -1.3711851 -0.50217277 -0.36968616
were -0.15526296 -0.8208016 0.86540854 0.3711757 -0.2133141 0.7655369 -0.2969529 -0.45695254 1.1718804 -1.2495924 -1.0276434 -1.0966818 0.7350062 -0.00075047417 -0.87503105 -0.71838826 2.0571356 -0.17135201 -1.124715 -0.07242615 1.781518 0.06362817 -0.11176385 2.356588 0.4312451 -0.49574226 1.4757677 -1.8866179 -2.0921943 0.7614858 -0.8043467 0.6693788 -0.49172118 -0.015031068 0.36994115 0.17065588 -1.3825777 -1.1586944 -0.52421975 -0.56646526 -2.3889544 -0.26217183 0.59002894 -1.0638858 -0.508025 0.25806493 -0.114004314 1.2683042 -1.4858683 -0.18876185
would -1.5149791 -0.59241974 0.09657332 -1.1951641 0.62786996 1.0850992 -1.1231004 0.70041704 -0.44691625 0.3025339 -2.0184216 -0.9096597 0.81608254 -1.3635094 0.06680578 -0.7622144 0.55547184 0.92881435 -0.29277584 0.6436544 1.2704334 0.22495434 1.9376819 0.5785657 -0.6683308 -0.8301641 -1.424027 -1.0763589 -0.21984231 -1.8313639 -0.389249 1.9776281 0.9351117 1.5442045 1.2978761 -0.5070562 -0.8772274 0.01285892 -1.7368059 0.7751111 -0.29716453 -0.7137763 -1.8251954 0.110636756 0.18489647 1.1519635 -0.4201138 -0.6642813 -0.5511923 -1.0144193
herself -0.28067252 1.0542989 0.6900701 1.4935081 0.23691228 -0.81164116 0.8805296 -0.69839287 0.45940444 -1.1650212 0.47332102 1.3285301 0.8756674 -0.23269732 -0.23732208 0.20627469 -0.0357767 0.1309607 -0.12137872 0.3090802 0.12685159 0.18010719 -0.049307644 -0.3505548 0.17785299 0.99955654 0.79182976 -0.8205468 0.7679713 -0.7262315 0.77836835 -0.53340524 0.054720253 0.9117495 -0.08140351 -0.15126887 -1.0095315 0.7854599 -1.42646 0.31057248 -0.86959064 1.3932498 -1.5077144 0.50313073 0.43198252 0.094665125 0.17595464 1.4553118 -0.65035105 -0.51442736
know 0.08204258 -0.6245849 -0.21326852 1.1699144 -1.1550393 0.058562588 0.31168342 -1.7340727 1.1000654 0.58654845 0.13054481 0.7543066 0.07859984 -0.80367553 0.67297536 -0.09527076 0.81595474 0.08805694 -0.59523034 -1.2359768 0.7226787 -0.7140012 -0.023374358 0.0011650808 0.39704633 -0.87218577 -0.4165979 0.29436517 0.17363557 0.7183448 -0.89734006 0.70892644 -0.27723014 -0.67155683 0.32315862 -0.515245 1.1327332 -0.116757356 -1.2816604 0.24300925 -0.9772916 -1.1492969 0.37153608 0.40562227 0.92432773 0.185754 1.9870917 0.90368116 1.1471871 -0.81805855
went 0.7917842 -0.8492102 1.133267 1.2913729 1.1571035 1.3678576 1.0047908 0.21814619 0.3239468 -0.057127327 0.33647373 1.3355894 0.76217806 1.1594528 -0.45239407 -0.01637722 0.996732 0.5446763 1.1932565 -1.770453 -0.13038428 0.74131936 1.6087947 -0.07813433 0.5556413 -0.43773833 2.431892 -0.56328344 0.74351573 -0.64381284 0.33392116 -0.6303539 -1.3306397 2.0663736 0.45883164 -0.46649796 -1.3457069 -0.97664803 -1.9274338 0.66363055 -1.1345826 -0.49815366 -1.0275258 -0.2430894 0.46439502 -0.5275838 1.2673212 0.039983172 0.78773373 -1.7775382
again 0.5323813 -1.1041436 -0.1810242 -0.4246887 0.5003348 0.18070161 0.27680662 -0.18397397 0.3079325 -0.2067202 -0.9212463 0.58656913 -0.7593681 0.6893965 -0.15042534 -1.0888264 1.2327032 1.5493189 0.23258081 -0.20183857 0.58666193 0.14462745 0.28694347 -0.4375602 -1.5066726 0.35961515 0.46655992 -0.30852526 -0.2886798 -1.8350149 -0.2619891 0.07230183 -0.9266192 -1.1238531 0.9392982 -0.6588932 0.5566172 0.37543684 -0.034916848 -0.47724366 0.1766128 0.22394882 -0.47009423 -0.09327198 -0.14134371 -2.0194395 0.48628777 -0.045852613 1.2595152 -0.10067483
do -0.21181576 -0.2579974 -0.28316978 1.1491536 0.47257116 -0.9954753 0.85320497 -1.0629205 0.44492614 0.86247456 -0.60723174 -0.105768315 0.92767906 -0.5095175 0.16509645 -0.6337939 1.2732272 1.2149411 0.7231803 -0.896995 0.513887 -0.13504873 -0.027847448 -0.31297502 0.8573696 -0.37221393 0.25283876 -0.577304 0.47244373 0.2591161 0.15218288 0.4968243 0.5748887 -0.92368615 -0.64228386 -0.90054154 -0.034541 0.4008583 -0.5974595 1.2103165 -1.1117585 -0.41816434 -0.6888963 0.15535808 1.2703526 -0.017297162 0.60138834 1.2164544 -1.0487939 -0.3620346
have -0.39507815 -0.5495755 0.7997201 0.5872167 -0.5023322 -0.9156265 0.04336127 -1.4566343 -0.35610238 -1.204074 -0.88883233 -0.3027186 0.0015086066 -1.3701696 0.6627331 0.5672548 -0.981859 0.8326458 -1.1079164 -0.13126081 -0.8376058 -0.81910056 -1.9034252 -0.6103035 -0.5783432 0.20937642 1.3521622 -0.27797437 2.0485232 1.5051005 1.6118319 0.83578455 0.23479801 0.92693394 -1.7896394 -1.2032478 -0.56367034 1.0889872 -0.45989397 1.1885514 -1.8252304 -1.0109576 0.14756985 -1.6642826 1.6680722 0.5336804 0.5706983 -0.8549332 -2.0643313 -0.078097865
when -0.031852532 -1.7371206 0.08228857 -0.48940572 0.9319687 1.4277822 -0.09652908 -0.034501135 1.0059167 -0.05147033 -0.7964904 0.1994712 -1.1128603 -1.2524351 1.0193146 0.39844462 0.29642382 -1.252604 -1.4081656 0.17103897 0.047041856 -1.8976861 -1.3785889 -1.1981602 -1.3017602 0.41213354 0.49310383 0.4990961 -0.05214588 0.59867936 0.3571778 0.8977468 -0.62667453 0.25995973 0.8437228 0.95534956 -0.76952 -0.6303037 1.0145928 0.44524103 -0.20287503 0.048374627 -2.2021053 -1.4733591 -1.0990028 -0.7833823 -0.277075 0.9053981 0.48945183 0.062375706
or 1.1473418 0.22907448 0.32123318 -1.078187 0.80328876 0.026989935 0.83901 0.4820004 0.364945 2.2496977 -1.1355726 0.032080576 -0.08077671 0.28972617 0.7421369 -0.980434 1.6404285 -0.8010935 -0.93138945 -0.6977792 -1.6475364 -0.19465823 -0.17832431 -0.79556745 -0.6984243 0.6746239 0.5475209 -0.11364259 0.49451372 -0.21514729 -1.7683371 0.08605478 -0.52471054 -0.6320698 -0.6818206 0.72848064 -0.6758966 -0.41957757 0.18766426 0.8775331 -0.7011591 -0.12660654 0.6323217 -0.6845098 0.85732275 0.6650325 -1.8702097 -0.08607653 -1.3855743 -0.27364904
could -0.30032855 -1.2744212 -0.20004645 -0.6862995 -0.53871334 0.58774215 -0.37334314 0.7129107 -0.569976 -0.017254155 -0.066376984 0.25512287 1.0972673 -2.3843937 1.393574 -1.0526608 0.07228307 1.9311739 1.6144142 -0.5898715 2.3650131 -1.1174376 1.4143803 0.79873884 -0.32829905 -1.1529655 0.2850694 0.38482288 0.032835923 -1.2197732 0.42178762 1.4491152 -0.9763974 1.0911839 1.283134 -0.71586055 0.7664277 -0.690161 -2.1816628 1.5374796 -0.17832962 -0.44658527 -0.47598082 -1.8474689 0.96517056 0.42247775 -1.6428903 0.021373056 -0.6584926 -0.5417622
thought 0.46576065 -0.031722512 1.7446802 0.4954181 1.7188404 -0.40401334 -0.8190893 -0.00043790598 0.354141 1.050235 1.1251073 0.6454712 1.2072889 -1.5715426 0.2638807 -0.014170646 0.5206904 -0.6079899 0.46305186 -0.6208855 0.51778597 -0.04120426 0.41446173 0.3383002 -0.19360027 -1.8150573 1.7958802 -0.24585752 1.1018597 1.7578329 0.2659057 -0.14674464 -1.1273901 1.540896 0.41837522 0.3394737 0.23635294 -0.5714595 -0.20542364 1.38752 0.35299087 -1.2530876 -0.7440894 -0.8960776 -0.12292786 -1.0187349 -0.008083108 -0.28189844 -0.3454469 -0.025656683
off -0.6578915 0.123487145 -0.0026635048 -0.41413873 -1.1437687 0.20344083 -0.61740315 0.035347503 0.7899441 -1.4954935 0.54015744 -1.7002985 0.6868813 1.4837714 -0.18781632 0.10412633 -0.5830841 0.82385826 0.70291126 0.93193156 0.78959286 -0.29263753 -1.3184791 0.2549763 -1.039952 0.74229324 -0.6181473 0.67549175 0.39869785 -0.097747564 -1.8310584 -0.34900364 -0.7499366 0.6703213 1.3100393 -0.9105592 -1.4247429 0.8274993 0.37646666 1.0866095 2.2250614 0.571506 -2.0561852 -0.6229227 1.029564 -0.6345962 -1.3312039 0.09634164 0.5955875 -0.4458718
queen 0.22527662 -0.6030576 -1.494052 0.49700984 -0.5077909 -0.40119722 -0.12696473 -0.5115147 -0.2874393 -1.0983496 0.49617544 0.6363243 0.79069453 0.6463787 -1.7066789 0.043708306 -1.8113092 1.2157605 -0.14376383 0.8807965 0.1307575 -0.6904038 0.49551877 -0.37797484 -1.316252 -0.3158537 -0.8378524 0.79311913 -0.254027 0.30915537 0.979281 -1.2910181 0.41228676 0.99532664 0.3316073 -0.72507805 -0.5317518 0.29326117 -0.6220674 0.8368809 0.14091602 1.1693082 -0.01807261 -0.18666728 0.13960664 0.96680385 0.52906597 1.2778819 1.0305889 -0.9136418
time 1.5262549 0.16745807 -1.0003932 0.011564281 0.011962348 -0.7599362 -0.53523785 -0.17142412 -0.0006042704 0.36437976 -0.39880255 -0.41414687 0.09925169 -0.8535401 -1.6576431 -0.9587979 -1.8811272 0.009016306 -1.9392099 0.37561196 0.07043017 -0.8464571 -1.1299176 1.4704765 -0.9776677 -0.080583744 0.85473937 1.2601972 0.29280934 0.3012979 -1.8190771 -0.45043042 0.94311786 0.45665196 1.277295 -0.06776541 0.105704084 -0.2702069 -0.6212084 -0.29919022 -0.34392458 -0.45506403 -1.4961512 -0.36664 1.2734121 -0.17555465 0.48588288 0.7573345 -1.2223243 0.4986158
how 1.1744019 -0.48547503 0.7532158 0.098241605 1.871302 1.37573 -0.29079315 -0.25526986 -0.33582398 1.2749388 -1.427836 -0.4948214 -1.2409947 -0.024353553 0.41469872 1.4649446 -1.1018175 1.2020336 -0.2813042 -0.65918994 2.1257763 -1.4981639 -1.0438439 -1.9349729 0.05063471 -0.48378593 0.70318115 -0.5270507 0.4565226 -0.6039021 1.7302945 0.65914243 0.4557136 -0.77501905 0.93424785 0.71376824 1.616515 0.51014125 -0.35036457 0.27013403 -0.20670505 -0.29383007 -0.63583136 0.5902519 0.44015613 -0.43353033 0.8271447 -0.40880758 0.8382691 0.9408167
me 1.2747723 -0.104595505 -0.9585377 -0.83308315 -1.8446137 -1.3536066 -0.5782175 0.8245719 0.28848022 -0.48116344 -1.4163555 0.71049064 1.4785372 -0.59558356 0.78521925 0.251883 -0.57684314 0.23804362 0.7417391 -0.83151835 0.02068804 0.48173684 0.2568191 -0.24395558 -0.45501462 0.50097567 0.149498 -1.4921128 1.4353034 -0.6331302 1.0590744 -0.09376782 0.35487124 0.26880714 0.7527546 -2.459333 0.4544122 0.91915804 0.22736901 1.2539709 -0.012418176 -0.3033347 -1.6635666 -0.52429426 1.0009179 0.23394066 1.0276543 -0.13361438 0.58657336 0.07340794
into -1.4293913 -1.2251579 -0.7713494 0.5597933 0.107545644 0.1298245 0.24683402 -0.8295639 0.6800999 -0.96733606 -0.7149026 -0.1556864 -0.09544953 -0.48787326 0.46569216 -1.0106498 -0.64523727 0.40502957 -0.45037726 1.738756 0.87468493 -0.076291524 0.9325343 1.6854314 -1.7313573 1.2661017 0.46816403 0.3291929 -0.48236018 -1.2756226 -0.6978444 -2.0270758 0.57296395 -0.3704956 -1.5718604 -0.95390517 0.46269208 0.91396886 0.7936589 -0.46846536 2.2415783 0.4424735 0.22493741 -1.000374 -1.2529353 -2.4504879 0.33428133 -0.74696195 -0.61853284 -1.7923778
see 1.1880411 -0.49952355 -0.08346372 1.4689084 0.04986581 -0.36492333 0.3719678 -1.4262725 0.5120141 0.37897658 -0.071350195 0.5945457 0.39273408 -0.045782726 0.03312496 -0.7861737 -0.25569808 0.469058 -0.6546379 -0.73884296 -0.8115201 -0.5579454 0.08452754 -0.36714834 0.3629231 -0.8858899 -0.78172916 -1.0199047 0.5558993 -0.39108455 -0.16345818 0.3762425 -0.27317762 1.2326624 -0.8435012 -0.81398594 -1.0512807 -0.43344763 -1.3840568 0.026656484 -1.33363 -1.675654 -0.3860369 -0.63516575 -0.29095197 0.090437554 0.18606588 1.2703874 -0.5603171 -0.048480302
did -1.3289806 -1.9149615 0.22164223 0.41886598 0.32823652 0.65394104 -0.8423011 -0.022488622 0.97860897 1.4600368 -0.8165247 0.014456814 1.9774684 -1.628307 -0.8893276 0.2436153 0.7153369 0.6934777 1.6993353 -1.4613667 1.9911368 -0.39289248 1.5452567 -0.28907555 -0.16318038 -0.6577622 -0.5114617 -0.5785082 -0.8632097 -0.657127 -0.31669202 1.1671185 -0.034566365 0.55086213 1.3624185 -0.7555298 0.42013413 -1.442361 -0.9709746 1.535827 -0.74286747 -0.9323373 -0.4138902 -0.10293743 -0.2678734 1.3093824 0.02090023 0.5220073 -0.5653716 -0.5551848
who -0.32454842 -2.016829 -0.2114296 0.14645715 0.016880622 -0.3909284 0.045103412 0.5780761 -0.8000848 -0.06873867 -0.32937494 1.6223123 -0.1051246 -0.10443387 -0.27932727 0.7286795 -0.84891504 0.32687122 0.07065157 0.51836604 -0.3633629 -0.8141757 -0.9539719 -1.2855566 0.05936689 0.1596306 -1.2143207 0.15697852 -0.13769752 0.82000864 0.09485067 -0.34740964 -0.5814238 1.9377002 0.19246069 0.682207 0.06893639 -0.39365238 1.4687704 -0.61386037 0.4980215 0.19589749 0.9992045 0.6886994 1.850759 0.76773673 0.19343042 -0.30784458 0.08790131 0.46976382
can -0.5880488 -1.4896802 -0.332834 -1.4775629 -1.8678691 0.55734825 -0.85071146 -0.26321185 0.17798375 0.68231225 0.9790622 0.016620085 0.70748013 -1.1754806 1.276993 -1.5921495 0.68140167 1.6362267 0.15719587 -0.47763425 3.180474 -1.2112602 0.5813625 -0.5932962 -0.48169246 0.9645361 -0.4079726 0.077646255 1.1753545 0.3982369 0.15924299 0.9462184 -1.8915493 -0.13676202 1.2452816 -1.1145362 0.24998225 -0.38952348 -0.76553404 -0.4970465 -0.32216367 -1.8841461 -0.8726368 0.091358885 0.5983699 0.46145198 -0.7822886 -0.0023515115 0.51345134 0.61148334
well -0.67792153 -0.32949033 -1.2082334 0.2498958 -1.2684097 -0.27813783 -1.2671341 0.46682858 -0.8379341 0.17344603 0.18428726 1.0970572 0.49917403 -0.7649919 -0.04512323 -1.2437919 -1.680057 -0.28978354 1.1459857 0.16393766 0.020637019 -0.8953693 1.13414 -0.20359254 1.1096898 0.2512451 0.9308003 1.814735 1.075855 -0.3047129 -0.25434563 -0.040854163 0.14203663 0.6065753 1.3503578 0.19974619 -0.16514301 1.3399332 -1.187139 0.2019738 -0.5574434 0.5081735 -0.53790426 -0.6345456 0.4631887 -0.6829522 -0.27216962 0.24011466 -1.9234997 1.0524648
m -0.6540035 -1.4415736 2.417259 0.22016644 0.21000408 -0.47718593 1.5067489 -0.6624291 -0.9312184 0.79534596 1.3434842 0.5536938 0.6613666 0.40542385 1.3596883 -0.37269446 0.7128205 -0.5067838 0.6254221 -0.6691715 0.68934 -0.091230005 -1.4533472 0.20651978 -1.4653937 -0.41730052 0.04224204 -0.46438918 1.0475883 1.2198492 -0.17571484 0.45539775 0.0923225 -1.4119717 1.5365493 0.028821817 -1.3292847 -1.3066803 -1.5341009 1.227075 -2.4109647 2.1527164 -0.2206148 -0.7991007 0.12996496 -1.4845483 -2.021482 -0.19887806 -0.6512217 -1.287702
your -0.9463569 0.494209 -0.8776489 -0.07449413 -0.5754336 -0.36612514 1.1708118 0.17236927 -0.9063563 0.16527528 1.3097888 0.4881528 1.7961341 0.41886234 1.9680127 1.8788035 0.073048525 -0.031536777 1.2672731 0.6616983 -2.0812259 -0.84518284 1.1610216 0.9210738 0.5770576 -0.7463938 1.8977634 0.54249084 -0.32060933 -0.80912536 -0.5630517 -1.1791706 -0.40282354 0.25339523 -0.31652647 -1.8016894 -0.20874165 1.2641171 0.40797547 0.20767657 1.2686944 -0.8883165 -1.1276764 0.8623386 1.4556588 1.8305496 3.4922519 1.1934094 0.40571052 -0.33585578
king -0.15350044 -1.1256922 -0.51391876 1.5947119 -0.23453629 -0.9781304 -0.4325822 -1.3534971 -1.0777937 -0.36357093 0.16382705 0.5007365 0.39359358 1.1113244 -1.5709351 -0.0299541 -0.5822958 0.15770206 0.6732306 0.34591562 -0.07525456 -0.8191634 0.68596536 -0.6887277 -1.4260447 0.07271763 -0.601844 0.038299747 0.13388857 0.26346964 -0.4669297 -1.3261577 0.72436404 -0.06601739 0.31676558 -1.7760453 0.25487664 0.77560526 -0.18122306 -0.28495312 -0.43601695 1.9376501 -0.07915688 0.30554065 -0.22131883 -0.61606187 0.28301978 1.5771978 1.3045793 -0.18133053
don 0.031138748 -2.0881076 -1.2654562 -1.5699204 -1.278797 -0.36151505 -0.8758521 -0.71790457 1.3129622 -0.065981045 1.6737685 -0.2795341 0.3285714 0.0055023097 0.1622821 -0.4173657 1.1926335 1.7235105 1.1019397 0.14274706 3.315525 -0.42778307 1.1674674 -1.2044518 0.28173038 -1.7904848 0.13595375 0.4569527 1.8634988 1.8078148 1.6838716 1.2575642 -1.0489167 -0.43389833 0.7780588 -0.39095557 0.7557075 0.067200676 -0.6504774 1.1587509 -0.43884432 -0.32342175 -0.89671504 1.2152362 1.2018273 -0.037626956 -1.3135895 0.5576262 1.3441917 1.5063728
now -0.024109852 0.18129939 -0.74536455 0.2773013 0.030899744 0.09440875 -0.07612981 -0.90117216 -0.19291204 0.84258777 0.62293524 1.0960758 -0.5706179 -0.6931813 -0.377602 0.5558927 1.372072 -0.6249213 0.62088466 -1.1799718 -0.0049810065 0.70910865 -0.080151744 -0.6575091 -0.5201271 -0.03686692 -0.27553552 0.41535047 0.51806414 0.14736366 0.70015824 0.501223 0.44983876 0.3197982 0.6036677 1.1034096 0.24675636 -0.021012632 -0.5732859 0.30667314 -0.09814614 -0.66427726 -1.0747784 -0.37582046 0.28294027 0.44480076 0.70940995 0.46249133 0.026854035 -0.50923055
by 0.30408782 -0.47023454 0.9422319 0.16161995 -0.24968863 1.1572064 -0.19971982 -0.5118571 0.43618834 -0.7746106 -0.9890159 -1.8734576 1.2155372 0.15673818 -0.39125106 -0.17023493 -0.5439464 0.18487749 -0.7704405 0.67367214 1.0965303 -0.40847373 -0.23541158 0.15773633 -0.77733684 -0.60685563 -0.6049729 0.08019486 -0.82273173 0.29966155 -1.6099077 -1.4067245 -1.1249506 0.22708246 -0.27429026 0.8038207 -0.44701475 -1.0524952 -0.09061603 -0.61059815 0.46767807 1.4534867 -0.09154146 -1.4995776 -0.12025342 -1.6344094 -1.4951829 -1.2527959 0.8076061 -0.9931545
began 0.59002453 0.1458289 0.67648214 0.5960805 1.5676533 0.5929253 0.792284 -0.473331 1.478702 0.22337693 -0.48452923 1.2936906 0.625917 1.7139679 -1.405686 -0.80510634 0.28120297 -0.32564697 1.0826002 -1.495409 1.0941612 0.5221005 0.67017955 -0.7794667 -1.1791431 0.5929372 2.2653766 -1.5264177 -0.39974996 -1.0095987 -1.0693498 -0.07722539 -0.5750987 0.77505153 -0.726006 0.12018629 -0.33538836 -1.9974276 1.0302919 1.5096904 -0.0481169 0.10181728 -0.9284065 -0.68082845 -0.087928355 -0.42180657 -1.1606001 -0.21896163 -1.4957358 -0.23157547
its -1.0079018 2.381592 0.79568404 -0.33535126 0.29016435 1.216054 2.1225586 0.53509516 0.64962703 -0.8528746 -0.03417557 -0.39186236 -0.8873988 1.3648353 -0.08548351 0.06873924 0.74000347 0.048146803 1.0402311 0.5366528 -0.7728264 1.4929758 -0.11381269 0.72679603 0.5564428 1.2342018 0.025399849 0.8860492 -0.60858727 -1.6557989 -0.14075707 -0.8996315 -0.014287541 0.087543115 0.018947763 -1.5208604 -1.2247267 1.172455 1.6885803 -1.358471 1.1508906 0.36564118 -0.5695899 -1.7296052 2.21244 -1.0541271 2.300889 0.7749217 -0.8809657 -0.41024292
ll 0.90658617 -1.5118507 0.54949963 -1.6934811 -0.60536474 1.4742912 -0.3181939 -0.5229286 0.35746124 1.8968209 -1.5175697 -0.8914624 -0.52628493 -0.8120968 1.548135 -2.1722505 2.4282403 0.15759803 0.100704975 -0.2395774 2.6845422 -0.82010925 0.63451546 -0.20411703 -0.612447 -0.32745165 0.16254894 0.5008716 0.7615378 0.072255716 0.5937521 1.0586532 -0.13014223 -0.40802172 0.72925115 0.5414278 0.7012657 0.9147096 -1.2665933 -0.24882796 1.1651715 -0.63495004 -0.7890636 -1.694698 0.6866832 -0.66048586 -0.44052964 0.35805726 -0.39863297 0.10341929
an 0.029307153 1.2603748 -0.6727394 -1.5367641 -0.63200855 -1.0809418 1.0801178 -0.15678577 1.6283123 0.7924398 -0.06023958 -1.2706363 0.12486684 1.0460237 -0.06689793 1.4167292 -0.98279804 1.1986247 -1.2535193 -0.71379966 -1.5057747 -0.3875773 2.6513493 1.8662792 2.5701861 -1.1137116 0.16569996 0.34979978 1.4820435 -2.2766607 -0.34621817 0.3912703 0.8486831 0.4655654 1.7368001 0.678622 -0.043285046 -0.8984715 -0.38482 1.0250922 -0.9027995 1.3285518 0.957991 1.772923 -0.23284936 0.040987324 0.43908376 0.5608496 0.50863135 0.21190539
my -1.0362121 1.2227533 -0.83439034 0.83315635 0.50219 -0.39075983 2.175514 0.07012319 0.23472096 -0.2353372 0.80211586 -0.87376684 -0.17120622 1.4141889 0.4417184 1.7205851 1.0734617 1.1588159 -0.5407767 0.28621915 0.9866507 1.7304488 -0.1347511 -0.103891924 -0.32556346 -0.063113175 0.6803674 -0.7520791 -0.09774947 0.41031614 -0.32878718 0.880032 1.3970907 -1.3466213 0.75716114 0.013931295 -0.40328655 -0.47047678 -0.2616528 -1.3192351 -0.4245179 -1.4252713 -1.959974 0.06621732 2.1536036 -1.0640339 2.1557522 -1.0728463 -0.4647621 0.35254672
turtle -0.0062503326 -1.8473487 -0.57823116 -0.7132128 2.2498589 2.0030806 -0.26120484 -1.5121313 -0.92838854 -1.8496226 1.4646313 1.6043646 -0.5014107 1.1742674 0.047446176 0.56968635 1.3064356 -0.63812774 -0.79419714 -0.5341478 0.4490006 -0.007504142 1.5286545 -1.9798347 0.13679658 -0.9868777 -0.83520293 0.46987787 -0.99842 0.9506368 0.75411195 -0.714738 -0.27902597 0.33908302 -1.1806864 -1.1479175 -0.63341707 0.9838352 1.009174 -1.24187 -0.60753417 -1.6662033 1.1323783 1.9925582 1.3763136 -1.4265293 -0.867753 2.140214 0.7352939 -0.22096099
way 1.1539496 0.018175071 -0.6552396 -0.5412327 0.0029819647 -0.09097371 -0.07088362 -0.44210863 -0.38132465 0.26929802 -0.06561194 -0.1426432 -0.08765082 -1.3918055 -0.13944438 -2.1404874 -0.09038615 -0.21505462 -0.7695448 -0.6741991 0.67970777 1.1937 -0.087781586 -0.529223 0.06708285 0.10513755 -1.0948343 0.04552194 -1.2756072 0.45844188 -1.1359168 -0.5668965 -0.62451273 -0.6332706 0.34542793 -0.009759672 -0.11844148 1.2746395 0.42435902 0.53126496 -0.20887205 0.11427982 -0.33919108 -1.3068403 -0.00097510463 -0.07685375 -0.08197017 0.59858036 -0.3468289 -0.40173635
hatter 0.2525372 -1.5940958 -0.9096933 0.8032356 -0.36640927 -0.0048719477 -0.7838429 -1.0126132 -0.93716705 0.37383255 0.4569255 0.4402618 -0.21185526 1.0539083 -1.3730717 0.31547654 -0.8661297 -0.025602268 0.27525795 0.50640774 -0.25230256 -1.1217037 0.2942326 -1.2763758 -0.7916413 -0.15298373 -0.4448903 0.29221472 0.24839036 0.6026486 -0.6940279 0.05391096 -0.25108877 -0.8688095 0.73239475 -1.5558931 -0.60506874 0.9949586 -1.2969499 0.35462075 -0.18801244 1.3013892 -1.6075594 0.44410402 -0.22870904 -0.28273204 0.36659232 2.11172 1.3860929 0.96494466
mock 0.11949847 0.98360944 -1.1392367 1.737728 1.5970559 -0.9136958 -1.9201211 0.13637239 -0.724401 0.12536502 -0.75327355 1.2579015 1.670607 1.029934 -1.1088531 0.6383908 0.2478579 1.0985852 -0.8983208 1.4109514 -1.3455133 -1.5883367 -0.15698938 -1.3318354 -1.9813317 0.1723162 -1.7071296 0.5678808 0.44940957 0.9921974 0.7928703 -0.24218452 2.282976 0.85850006 0.81103975 -1.6394116 -0.94609076 -0.5981229 0.30026233 1.1762683 -1.1232034 1.2390367 0.07700337 1.9665672 0.45751423 0.5710371 -0.046866816 -0.61402905 1.3079029 -0.76462203
quite 0.5979945 -0.30859825 1.0518816 -0.22068739 0.5158971 -0.7317436 1.0044413 0.6940626 -0.13115066 -0.27067706 0.062348362 1.0005848 0.109294094 -1.15721 0.8374053 0.9319465 -0.44573116 1.1384097 -0.2552042 0.62600297 1.2489568 -0.22695866 -0.93570167 -0.69478047 -0.5391279 -0.5422152 0.0031963475 -0.7173693 1.087228 -0.961671 -1.3602035 0.46583852 -0.3436579 -0.0696795 1.2051675 -0.76700765 0.7274405 0.6272422 0.7619824 0.30093235 0.14567116 0.70554197 -0.020386072 -0.67406267 -0.17372839 0.49639007 -0.56900454 -1.301021 -0.7295547 1.1294754
are -0.44825077 0.62529594 1.2160758 1.7400757 -1.5294453 1.0264713 0.783064 -0.89986295 1.647894 0.4508693 -1.2329998 -1.8968577 0.7627466 -0.004934674 -1.2970204 0.24002746 0.22991075 0.095256776 -0.5088099 -0.22476275 1.6072477 -0.2744778 -0.6096874 -0.009391099 -0.03105421 -0.90705097 -0.7001675 -0.5681412 -1.5360048 0.6932521 -0.41418946 1.299221 0.4329037 -0.7101965 0.81290495 -0.72472477 -0.8199435 -1.24268 -1.3297249 0.2569036 -2.3701274 -0.8040759 0.34432742 -0.36277062 -0.08996158 1.8797108 0.9574498 1.8204781 -0.43870375 -0.31507972
gryphon -0.012684925 -1.2379159 -0.68364143 1.1483115 -0.6243588 -0.18397959 -0.65232784 -1.5256201 -0.9294732 -0.20149203 0.67024004 0.3249875 0.19672793 0.2888399 -1.2958634 -0.04223794 0.54857206 0.3639292 0.09180071 0.48577973 0.12919185 -1.1207376 -0.120059356 -0.5903249 -1.4598014 0.2910451 0.65675056 0.7465115 0.08579766 0.907882 0.46497682 -0.23302253 0.07140843 -0.58579636 0.7257383 -1.4028574 0.0098630665 1.2104484 -0.8857798 1.045541 -0.92446023 1.357403 -1.6372331 1.090521 -0.6108692 -0.024682907 -0.03228266 0.90067834 0.017884223 -0.66412216
think 0.31495366 -0.92358816 0.10120675 0.12261681 -0.030313086 -0.43998554 0.302689 -1.1003399 -0.45258823 1.1472435 0.0044385684 1.2825608 1.094327 -1.6009971 0.5163159 -0.27373254 0.24035512 0.53434855 -0.35735708 -1.2056319 0.40031105 -1.092145 -0.56297684 0.6317862 0.63089114 -0.19963166 -1.1878774 -0.74514997 1.7129761 1.3010832 -0.38303873 0.71017283 -1.1532133 -0.6469724 -0.58506763 -0.4632018 -0.40081438 1.177127 -0.25502473 1.3155323 -0.5469571 -0.7639821 -0.78797185 -0.94577956 1.1387715 0.02640506 1.3616365 -0.40028 -0.97925067 1.0425074
just 0.15818287 -0.107628085 -0.33248556 1.5403783 -1.0778755 0.06759745 -0.023616023 0.552377 0.11691493 0.22703522 0.35359403 -0.14694974 0.19791164 -0.3244837 0.22299068 0.5664615 -0.20303588 0.9928261 0.9048777 -0.8075027 0.34072927 -0.82466817 -0.5261343 -0.052235372 1.5409944 -0.19716075 0.32501382 0.5878666 0.27778044 0.35410884 -0.42402416 0.00029504808 0.083072186 1.9422115 0.29706606 1.2865314 -1.1776475 0.15775147 -0.7457982 -0.66869324 -0.5274302 -0.11725394 -1.0517175 -0.014691966 0.51418453 -0.06209322 -0.24945351 1.016258 0.21089742 0.8304137
their 1.459932 0.80438495 1.4344249 -0.20763682 -0.9918066 -0.21390389 1.8109378 2.8227189 -0.743218 -1.1351082 -2.4229705 -1.3082016 -1.4300586 1.4567844 -0.5807295 0.8572514 1.53364 0.082894325 -2.437355 0.6970369 0.8203227 2.6301787 0.11859249 1.0867268 -1.4263483 0.23333748 2.0038717 0.16241534 0.8060619 0.87588817 0.7369015 1.0275279 -2.196129 -0.44475368 -0.76041687 1.071485 -1.6287998 -0.6854527 0.2980649 -0.5212837 -0.46890485 0.7755187 0.040622324 -0.5028379 0.48427537 0.17503175 2.0562787 0.185198 -1.7295532 -1.6967045
rabbit 0.29140475 -1.3514966 -1.081244 1.5859407 -0.2549922 0.58469677 -0.29457054 -0.802513 -0.79713666 0.19005722 1.1467736 2.4382408 0.18947196 1.4664781 -0.8722274 -1.3544676 1.4319243 0.7901657 -0.42372006 1.5780258 -1.0830364 -0.22815108 -0.10117167 0.32349613 -1.5584449 -0.43697545 -0.65666056 -0.07200887 -0.31137267 1.062091 1.8197631 -1.4293171 0.30925584 -0.47934875 1.1363322 0.17198886 0.37741044 1.1685133 0.13863108 -1.3316356 -0.82958126 0.8018352 0.5046015 0.45071146 -0.7918658 -1.2589198 0.73289096 -0.4913306 -0.12636092 0.34382614
much -0.6646625 -0.44186303 0.5611122 -0.65099645 -0.7050115 -1.0052463 -0.5858223 0.10657038 -0.55522734 0.9599452 0.29472634 0.14050204 0.71133226 -1.0978794 -1.0746424 0.04574506 0.0074921385 -0.08333005 0.79652226 -1.5439582 -0.3418201 -0.2840767 1.5300653 -1.6490115 0.7115641 0.860268 -0.48514012 -1.0959756 0.19590601 -0.6610902 -0.55583024 -1.35283 -0.27759746 1.235978 0.2879397 -1.7442225 -0.55597407 0.46879625 0.8261881 0.12544006 -0.40481043 0.91719246 0.38002065 -1.2500796 -0.5818096 1.3412908 0.116806105 -0.7058104 -0.9458368 0.68740326
some 0.36600316 0.8372598 -1.1500397 -0.41844097 -1.4483131 -0.6815521 0.84922534 0.931614 0.28720716 -0.037516825 -0.4498282 -0.69644046 0.9472283 -0.5449506 0.63087356 -0.15054058 -0.5890958 0.80905193 0.42404437 0.6810179 -1.2196131 0.51482576 -0.037766926 1.6068949 -0.26819047 -1.2119035 0.13371903 0.29722348 0.4936381 -0.4674926 -1.2884339 -1.2542696 -0.1485091 0.779952 0.80721116 1.4507678 -0.30674344 -0.18223464 -1.79496 -0.54915726 -0.8241167 0.5986005 -0.07234942 1.1669829 2.2266917 0.14027242 -0.2833928 -0.1279813 -0.23265679 -0.31365645
here -0.47886473 -1.058552 0.19184242 0.05139409 -1.3798127 -0.11561628 -0.07708111 0.05407284 0.5424614 0.6242522 -1.3921778 0.25565708 -0.28707752 -0.44375685 -0.22457528 -0.53574866 1.0929911 -0.14612596 -0.75524706 -0.1575055 0.26955828 0.29203406 1.4516772 -1.0726416 -0.56881416 -0.2961224 0.980564 -0.10974528 0.46621633 1.7473859 -0.09889043 0.18154989 0.7622837 0.19808543 0.41323012 0.17904612 1.0189518 -0.16566911 0.7438731 0.07697648 -0.0709111 0.6979153 0.48391008 -0.22062166 0.35412753 -0.94347423 0.9109182 0.4156322 -0.17619388 -0.50998545
say 0.39299637 -0.6153379 0.3239559 1.1441095 0.40807268 -0.8403165 0.37777847 -1.6744599 0.66811234 0.20629555 -0.950406 -0.30392012 0.6893203 0.003019851 0.01604451 -1.0894135 0.9563507 0.37238476 -0.5494796 0.09381725 0.44768852 -1.7043824 -0.94585496 0.35861164 1.3969873 -0.2880088 -0.39782152 -0.53427875 -0.018410144 -0.057163347 0.030883558 0.24703987 0.21991624 0.39805734 -0.26215672 0.2285016 0.31604946 0.7299962 -0.48897713 0.9785989 -1.4052334 0.15966554 0.56953657 -0.2910092 0.0966396 -0.67609495 0.160221 0.7627238 0.8530511 0.04731264
first 0.13902871 -0.63545734 -0.23254715 1.1165048 0.3303907 1.508312 -0.34048638 0.99797666 -0.41030285 -0.13372403 0.15089232 1.6103072 0.6181525 -0.7434963 -1.0381417 0.86924076 -0.9063932 -0.62691903 -0.45414007 -0.81505114 0.27915698 -0.17040028 -0.008563149 -0.3428844 -0.39553133 1.3283001 -0.9696678 0.24910071 -0.2570074 -0.11960304 -0.32799742 0.053674035 -0.3282449 1.4249619 0.17269522 0.114753276 -0.09186754 0.9586237 -0.14632303 0.3011586 0.8685056 0.84695 -0.35703442 0.7885086 0.23975946 1.3191831 1.1544927 1.4979682 -0.45451918 0.6079883
go 0.16446875 -0.08517071 0.27440128 0.6193151 -0.6216254 -0.8810679 0.97839653 0.084315434 0.38241762 -1.8104922 -0.16952498 0.32649937 0.097476445 0.71470165 0.024036746 0.9400272 -0.68105793 0.019714633 -0.17731318 -0.3179112 0.7656358 1.1307716 0.7897781 0.4037868 0.6891154 -0.5712359 0.9685342 -0.7499897 0.3887903 2.2471957 -0.921476 -0.19581549 -1.0280492 0.18571688 -1.1267426 -1.6382653 -0.7149547 1.1318619 -1.8277808 0.4153316 -0.86910915 0.6430227 -0.50424814 -0.73065597 2.015759 -1.3399596 1.5626433 0.22084881 0.55180466 0.52319115
only 0.12798612 -2.046318 -1.3019896 0.42646953 0.9870279 0.478846 -0.21726531 -0.8428194 -0.41973788 0.5181516 -0.10750129 -0.16833003 -0.8513472 -0.8110182 -0.7299954 0.1461209 -0.7954556 0.0039565945 -0.1197471 0.45699364 0.07255539 -0.45289788 0.25167695 -0.9523777 0.693433 -0.53834873 -0.5869193 0.47298396 -0.6490623 0.64726627 1.2274715 0.39070326 -1.1549524 0.33387142 -0.0031962688 1.624022 0.14249822 0.20796306 0.34880635 -0.39394265 0.21143575 -0.351027 0.5863629 -1.2091614 0.06937848 -0.22373804 -0.7912643 -0.39481932 -0.7202221 0.32199278
which -0.68032336 -0.13843197 -0.09848205 0.072170064 -0.5161075 1.8923407 0.25608093 0.8601557 0.38935462 -0.75551695 -0.16461955 1.5951244 0.12171999 -0.4224906 0.33699676 0.12841693 -1.3168342 1.0855051 -1.5711081 -0.052301425 0.67777246 0.35836464 0.16799286 -0.95334786 1.2462476 -0.054654952 -0.32647046 0.2594161 -0.8420284 -0.35945296 0.0029901697 -1.3125781 -0.84712046 0.960955 -0.22082904 1.1719822 -0.30036616 1.1939665 -0.10249551 -0.20519346 0.7311338 -0.37288225 -0.9994263 0.022841046 -0.21556015 0.62242794 1.4333516 -1.2639827 -0.42384535 0.18666002
head 0.0067224484 -0.20494689 -0.35039294 -0.25585264 1.4128929 0.19200936 -0.08219023 0.5812837 -0.35692546 0.48865822 1.2040856 -0.15478732 -1.1377606 0.032224566 -0.30315807 -0.62196046 0.72705656 0.9152935 -0.10160333 1.2756579 1.3834013 -0.4672939 1.6548877 -0.6005845 -0.8610532 -0.027635455 -1.1518961 0.44234496 1.440855 0.77798796 0.015758421 -0.45886227 -0.62782985 0.08352806 -1.5054855 -1.1065538 -0.8588756 -0.40379298 -0.57987726 0.94706523 1.2162086 0.58184016 -0.6413082 -0.1802132 0.18357944 -0.9544953 -1.026477 0.8113488 0.37200975 0.2568264
thing 0.529333 0.12201703 -0.9525343 -0.31855625 1.7933439 -0.12931249 -1.1902738 -1.3084942 -1.0507656 0.33235505 0.37848374 2.1391659 -0.10510249 -0.3365712 1.1584158 0.113762535 -0.04197332 0.47259063 -0.36359626 -1.3101791 -0.55349517 -0.4857266 -1.5404826 -1.084607 0.019672778 0.6281255 -0.50717205 0.42746478 0.12860914 0.044100095 -0.30548972 -0.66285145 1.130894 -0.7973826 1.886929 -0.048273474 0.6306772 0.4108725 0.81965023 1.458612 -2.0802293 0.035775043 -0.9506902 0.32730427 -0.0032658877 -0.5538412 -0.7327189 0.70540375 0.38968503 -0.30550852
never -0.28641525 -0.12766798 -0.16280353 0.51507586 0.025247982 -0.46137345 0.86306405 -1.0104111 -0.42538518 -0.32152477 -0.89033896 -0.1246985 0.094237 -1.8255383 0.24601798 0.14927183 0.15822805 0.35659567 -0.96793735 -0.6052346 -1.2543343 -0.7682036 -1.8519925 0.29256645 -0.3954256 0.9494723 -0.97737503 -0.40430495 0.69891125 -0.06459012 -0.0064309295 1.0276903 -0.5979087 0.8758571 0.8429324 0.40515098 -0.8265863 1.0832034 -1.0355357 -0.5092357 -0.47143367 0.09431736 -0.41699916 -1.0356146 1.1830306 -0.29872546 0.2286852 0.6131245 0.5181548 -0.67700094
more 0.9696547 0.747057 0.14400776 0.035262004 -0.35873756 0.119874984 -0.5490569 -0.6524254 -0.7512481 0.32253528 1.0030917 0.6842104 -0.83895 -0.11834597 0.6303025 -0.18199307 0.37342605 0.018167844 -0.8737737 -0.5434786 0.63031656 -0.29182705 -0.3809953 -0.2740975 0.2893767 -2.149894 0.018420402 -0.1887692 -0.06885805 -0.14164954 -0.27609754 -0.87785536 1.1638433 -0.47358286 1.2973428 0.6811198 0.38102567 -0.5812707 -0.32001948 -0.6293016 1.9424827 -0.37713888 1.0389413 -0.5219596 2.1390288 0.4440363 0.35085613 0.25936723 -1.074779 0.57856375
voice 0.85368454 0.9077588 -0.5884808 0.4340953 0.6679668 -0.45189282 -1.5529253 -0.72804695 1.49991 -0.5026312 2.2851222 -0.20451374 -0.8095336 0.17207047 0.27822605 1.0878906 -1.1801738 0.9668978 -1.1400747 -0.24041605 -0.67651653 0.054382835 0.5171902 -1.5543723 -0.086233996 -0.70963496 -1.5256426 0.4354551 -0.7183496 0.7931843 0.8402389 -1.3747748 0.31087944 0.77441984 -1.3452467 1.0603443 -0.5829729 -0.68973273 -1.5020001 1.342743 -0.31039274 -0.13988428 -1.3069054 -0.38281536 -1.4088879 -0.6329981 -1.6908042 0.043737687 0.18784952 0.8646043
get 0.55835056 0.4754799 0.6029177 1.0373946 -0.026749028 -0.8361838 0.81286407 0.16010155 -0.56149274 -0.75017756 0.15083018 1.5332972 1.6099494 0.60176873 -0.5218053 0.0052471086 0.082660966 0.705028 0.04707728 -0.013552697 0.64629525 -0.36203024 0.5674068 -0.99444187 0.35040715 1.3944046 -0.78472424 -0.6309542 0.5844673 -0.24096489 0.25532156 0.77774125 -1.4296423 0.60696757 -0.074815966 -0.5949499 -0.46993297 0.9219987 0.007926236 0.5939492 -0.79700696 0.8283374 -0.49578726 -0.47227043 0.75998867 -0.6228922 1.5102195 0.98465025 -1.0426955 1.1807108
come 0.6844153 -0.6294649 0.38619563 0.8530649 -0.6291959 -0.9277046 0.6773581 -0.20148642 0.472715 0.07592997 0.12772012 0.033664957 -0.55644107 0.021520277 -1.3877205 0.050018735 0.47655737 0.7092942 0.4025509 0.49993896 0.20327714 0.6392236 1.9980193 -0.31149253 -0.4594724 -0.2975149 0.28019565 -0.38020986 0.48430166 1.1069573 0.84786 -0.19827227 -0.16065335 0.069113545 -0.448507 -1.9494462 -0.6477353 1.1512513 -1.1014128 -0.13250375 -0.23393768 -0.4028222 -1.4755012 -0.8713006 1.26976 -0.690593 1.8051593 0.10610195 1.2033647 0.6006189
oh 0.8319238 0.04524711 -0.29220572 0.9636179 0.16953738 0.17997494 0.08007591 -0.41300616 0.3449997 0.88127035 0.812075 -0.25309917 -0.15784259 0.0426048 0.9473181 0.3538575 1.409357 -0.34494027 -0.06922963 -1.0042185 -0.037528727 0.6230432 0.8715608 -0.5382641 -0.22045676 -1.3292999 0.19803032 -0.009307136 0.50909626 0.061464693 1.4266266 0.8495277 1.0449592 -1.5441211 0.7713106 -0.4284661 -0.8299801 0.42101234 -0.8194508 1.6153046 -0.30623385 -0.5632391 -1.4522145 -0.039413728 0.6869441 0.006433581 0.33437625 -0.33403203 -0.08935198 0.8741231
looked 0.7153121 0.16364789 1.2065513 0.78049487 0.882728 0.50574946 -0.7595015 0.6774306 1.4702234 0.42323273 0.17459403 0.81401557 1.7484834 0.22411975 -0.7957619 -0.2351998 1.5525934 -0.40609905 1.2307348 -1.7675697 1.2003347 0.73567647 0.8081454 0.29806298 -1.0359569 0.32449004 0.7506559 -0.3371794 -0.1421389 0.88402486 -1.8887358 0.15999556 -0.55030847 -0.009939143 0.9547019 0.33348447 -0.051785145 -0.23241079 1.9008495 -0.4336703 1.5634687 -1.1785516 -0.8239901 -1.8860096 -0.80377525 -0.29287153 1.6144663 0.7501531 -0.8256342 -0.7111746
got 0.46694252 0.060667988 0.5864695 0.29168874 0.4389132 -0.19494165 0.64604306 -1.0873711 0.5975585 -0.09548788 -0.06634187 0.9231441 0.87408525 -0.5715437 -1.3725195 -2.2886014 0.90105045 0.2826943 -0.80477756 0.007436977 0.6333123 0.65562457 0.51021 -0.37666413 -2.0296412 0.48749337 0.53279424 0.32303146 0.1567122 0.6755961 0.96677405 0.41745487 -0.55540437 0.66139954 0.44908002 -0.06975786 -0.7924631 0.24589883 0.109575324 0.3542971 0.14027722 -0.178447 -0.7435358 -2.0214732 0.69648236 -1.1035726 1.3010048 0.24223058 0.22139384 1.3565441
ve 0.024066202 -1.2339133 0.9722378 -0.012060026 -0.54571325 -1.0704706 1.5612761 -2.17293 -0.33061457 -1.1920847 -0.74557865 -0.10763624 -0.7355619 -1.3689563 1.3854433 0.3059917 1.6073078 1.288597 -0.7058267 -0.5998264 -0.36971503 -0.9007024 -2.962097 1.669389 -0.31711635 0.59185314 0.5253871 -0.14058639 0.9077779 0.89663345 0.07611434 0.062104043 -1.0256243 -0.9590419 0.55672145 0.31894153 -0.7171819 0.35348204 -0.61926293 0.7349308 -0.47561693 -1.0427232 0.2998196 -2.0850458 1.3675671 -1.3208568 -0.27995777 1.3521713 -0.72159386 -0.39780068
must -0.003765524 -1.1222498 0.36849272 -1.5381554 -0.5279074 0.60201263 -1.8949419 -0.9528676 -1.2855786 1.8843933 -1.5592093 -0.45868164 -0.12591833 -0.94286287 1.1325183 -0.9694153 0.4243777 -1.5532342 -0.4052001 0.005526437 1.2260237 -0.10623553 0.12958387 -0.18583392 -2.1431625 -1.6005125 0.50831825 0.8210758 0.85552657 0.44743165 -0.65402395 1.8507817 -0.6368889 -0.7804433 1.2949852 0.40513238 -1.1665219 0.37112793 -1.5483375 0.059735693 -0.09599493 -0.10029045 -0.7921346 -0.68943214 1.1236665 1.274607 -0.4027196 0.4038648 0.31640726 -1.8610352
mouse 0.28050476 -1.7825983 -0.5046433 0.5317023 0.73791033 -0.64486814 -0.23242773 -1.421641 -0.121796355 0.6218316 0.94321203 1.0047852 0.028144194 -0.4796197 -1.8168048 -0.07563974 -0.2646338 -0.9016271 -0.25301307 1.2247773 0.24573454 -1.0853918 0.072135195 -0.93815875 -1.2766467 -0.14905691 -0.94622445 -0.31577256 -0.51526284 0.5491225 -0.24654889 -0.71218586 1.0380402 -0.31474152 -0.37415776 -0.3278015 0.29466078 -0.36662337 -0.614162 0.7766345 -0.8235827 0.992634 -1.1627527 -0.076851696 0.20395476 0.22342032 -0.16007182 -0.2120918 0.3383785 -0.26783288
after 1.2216282 -2.3556883 0.61775887 0.29924774 0.8152144 -0.3811073 -1.644635 -0.48494038 -0.35376656 0.40990114 0.5315414 -1.1754754 -0.15518138 -0.0517728 1.0005695 0.9303161 -0.5738721 0.64010674 0.23635519 0.10533864 1.8087256 -0.9210851 0.08213676 0.6454669 -0.7034572 -0.49517396 0.3639024 -0.1022436 -0.17162088 0.3476009 -0.9320254 0.5332931 -0.045790665 -0.98235416 -0.5353838 0.04653952 -0.6635403 -0.7353129 1.2622463 -0.12235888 -0.041259583 0.43381009 1.2573318 -0.074995585 -0.30775708 -0.5731473 -1.4195254 -0.4232262 -0.47389898 -1.6072078
him 1.1286038 -0.009093441 -0.1186297 0.5799224 -0.68310344 -1.1538577 0.058121953 0.086162604 0.9062073 -1.6806811 -0.83557975 0.5994651 0.41377395 0.05806652 -0.12232274 0.21247236 -0.18271336 -0.63752383 0.77981615 0.53402555 -0.32970744 -0.33710298 0.5156539 -0.09115346 -0.06891156 0.6484329 0.2673135 0.049016725 0.7038305 0.5435933 -0.08092367 0.26058614 0.09003204 0.19863355 -0.051592074 0.28085536 -1.3142653 0.47724485 0.5167107 1.4313316 0.3767546 0.26274478 -1.9933491 0.033691823 1.1611565 0.09488681 0.26539811 1.1714355 0.46186376 1.0130712
duchess -0.09882584 -1.4348304 -0.87486637 1.0264086 0.5257015 -0.5789234 -0.19939737 -0.8345361 -0.7823591 0.2615595 0.75855285 0.11880792 0.08019636 0.9538467 -1.0584565 -0.19147113 -0.7685964 0.20301959 -1.1632138 -0.0021155102 -0.38986588 -1.0653427 0.5825551 -0.6315062 -1.7761878 -0.28983378 -1.1640528 1.1107513 0.58261836 0.34775797 -0.770105 -1.130787 1.1246754 -0.3443457 0.4630598 -0.65146285 -0.002283858 0.40192732 -1.0416539 0.120351106 -0.418015 1.0367885 -0.21668252 0.017813642 0.015449539 -0.1663686 0.009260766 0.61570257 1.2830279 -0.79956114
such 0.0980052 0.42064977 -0.8054686 -0.44232497 0.47695825 -1.9004556 -0.97128296 0.53141296 0.59026784 1.5012963 0.9274309 0.36042544 -0.07581009 -0.0025776315 0.36770722 -0.34327438 -1.0155771 0.5251812 -0.66296536 1.619641 0.1745303 2.7614334 -0.008743142 0.33885288 -0.31016585 -0.33992776 -0.51877266 1.5086402 2.039179 -0.68523943 0.9339224 -0.8673548 1.2697722 -0.29099214 0.8723469 0.3079166 0.3517572 -0.866876 -2.1818914 0.46786723 -0.74369067 -0.26715493 -0.15623233 -0.21632895 -0.10882947 0.47363767 0.07529253 -0.014771359 -0.6518357 0.5747175
round 1.6933874 0.47102934 -0.39753318 0.21891554 -0.3192884 1.1803914 -0.9993505 0.5729834 -0.24430075 -1.5790074 0.288363 -1.0658551 -1.1998811 0.7571692 0.19440177 0.6128954 -0.30729562 0.08021441 -0.72416055 0.49928114 2.6204429 -1.7639925 0.6084662 0.8456609 -0.13746625 -0.7546966 1.3558011 -0.28816208 0.4967768 -0.7813955 -0.5004457 -0.74650025 0.48791042 -0.20011148 0.09167526 -0.91538864 0.6395019 -0.31448 0.37357202 -0.45994875 0.746653 -0.28323132 0.06763705 -1.8430284 -0.13276719 -1.5138266 -0.15185581 0.64398754 -0.47126418 -1.3924177
why -0.2592241 -1.003869 0.6581372 0.772067 1.111201 -0.8707224 -0.8697414 -0.13285121 -0.21236011 1.592214 -0.14853527 0.038731027 -0.3999086 -0.6027554 0.3292412 -0.11322984 0.10764358 -0.18052015 -0.24149093 -0.25355652 -0.29139525 -0.59124935 0.6103142 -0.16568288 0.023312716 -0.7266491 -0.7871915 0.18233529 0.5772033 1.2396104 0.20157924 0.12762392 -0.24162029 -0.70399684 0.32909974 0.49472016 -0.5220839 -0.25174093 -1.128888 0.049498163 -0.20353384 0.7785369 -0.3701841 0.7855334 -0.07863342 0.6695666 0.34904116 0.26642123 -0.45411652 0.12448962
came 0.6962796 0.23371118 -0.086877234 1.3613968 0.73103446 1.0966058 -0.22305539 -0.11182108 0.84919506 -0.18793885 0.1967927 0.89002913 0.77495974 0.663423 -0.34703946 -0.98463494 0.9595771 -0.942209 -1.2250803 -0.37891456 1.2352676 0.105519906 -0.07831011 0.34576532 0.28979537 0.41048795 1.5329881 1.1204523 0.3225872 -0.023110207 0.21292846 -0.9954319 0.25816283 1.1238655 -0.44502142 -0.9367468 -0.8961621 -1.182956 1.1593482 0.14149655 -1.1885824 -0.65831965 -0.31204265 -0.45811123 -0.9839812 -1.4056854 0.27532896 0.13249518 -0.95426977 -0.32114434
other 1.4873203 0.6993187 -0.7191741 0.08808779 -0.031981956 0.68955797 -0.73622686 -0.07336189 -0.46996176 -1.9253159 0.5335248 -0.2764488 0.63031226 0.12869143 -0.43406403 -0.49463245 1.065015 0.020327678 -0.8594886 0.7036071 -0.25038737 -0.9685903 -0.37856343 -0.21524367 -0.42611024 -0.37787226 -0.16010253 -0.13400207 -1.0191302 0.7600454 0.06435044 -0.57358336 0.3948487 0.20559427 0.7692436 0.6576049 -0.28275132 -0.41287762 -0.43708092 0.10229414 0.39696136 0.45867226 -0.10237786 -0.37541044 0.74365604 -0.5556532 0.8888033 1.5952528 -0.88170207 0.43788487
tone 1.3964229 0.7177888 0.49125957 -1.2975976 -0.11840537 -0.76736575 -1.7484258 -0.21033365 0.19625354 0.82166207 0.55394596 0.45318127 0.48806673 0.19673228 -0.072111525 0.032815434 -1.2389053 -0.8341813 -0.21423584 -1.929449 -0.3640149 -0.9758465 0.086344026 -1.2322696 0.76295793 -0.73906475 0.43464014 -0.32353693 0.8013055 -0.71547556 -0.23953511 -0.5369665 -0.058390293 -1.4714992 -0.4447785 0.009952058 -1.1474164 0.0083044125 -1.8187555 0.62870973 -0.028376183 0.6618721 0.31830323 -0.41124272 -0.9049431 -0.7348942 -0.74041224 -1.4470019 -1.0908022 -0.037228413
dormouse -0.15590242 -0.7256837 -0.33289832 0.8105054 -0.0028707767 -1.0709435 -0.5370677 -0.9978943 -1.195803 -0.9013491 -0.014832676 0.40070152 0.6668544 0.61844593 -1.590249 -0.80016863 -0.02845725 0.59182274 0.3841531 0.64411676 -0.37996173 -0.32497063 0.48177928 -0.34133667 -1.2256587 0.15644751 -0.82264453 -0.781333 -0.51331145 -0.64299184 -0.41592124 0.009171469 0.2466839 0.7814847 -0.057717726 -0.5069661 -0.09313372 1.2898747 -1.0132216 0.4987336 0.3032704 1.4944731 -1.2171398 -0.30170095 -0.36265483 -0.21675377 0.3617526 0.81380665 0.68179494 -0.056330327
over -0.083553344 0.08454912 0.27742404 0.49632183 1.1163707 0.7440822 -1.2870845 0.21067813 0.18189362 -0.8643831 -1.0609384 -0.9187736 -1.4983027 1.1060559 -0.6515851 0.67232454 -0.20392893 -1.1367002 -1.6251737 -0.7197699 0.5570495 -1.0088457 0.12030766 -0.48495114 -0.88644093 -0.16154446 0.35161436 0.8545126 1.0714829 0.7707856 -0.63109666 -0.07685339 1.280682 1.2752105 -0.03151878 -0.40367246 1.6018323 0.35560176 0.3771675 -0.68253773 0.1512767 -0.14883405 -0.81031907 -0.79690456 -0.028981678 0.35233536 0.32566866 1.008462 -0.027326351 -0.9112609
any -1.2482086 1.0838678 -0.5009384 -1.4464234 -1.4138734 -1.1619878 -0.29230824 0.59286016 0.1752109 0.9924524 -0.72419506 0.062409453 0.07003095 -1.2758766 -1.2154692 -0.24643001 1.1084408 0.8873343 0.05241719 -0.19256137 -0.62199587 -0.28566498 0.61753243 0.8850395 0.20004258 0.74660504 0.36693054 0.17985873 1.2923156 -0.60103047 -0.40492246 0.18839024 0.55871665 1.9386448 0.37611666 -0.36855507 -0.8584377 0.7852406 0.5999486 -0.620245 0.8257594 0.0076303845 0.71230173 -0.54429054 1.6639899 0.35988387 -0.7079438 -0.60915846 -1.093047 0.2775682
back 1.2524648 0.6420137 -1.4329699 0.020862972 0.34410682 -0.6643904 0.30714014 -0.53054583 -0.6819693 -1.5246621 -0.761469 -1.1674905 -0.60284156 0.3227535 -0.91230327 -0.9948152 -0.32123375 -0.23944682 -0.03605431 0.69438744 0.7001916 -0.8578681 0.2923715 -1.0900967 -0.8326456 -0.27008182 1.5448352 0.5418028 0.29188946 -0.19410674 0.2969602 -0.033731718 0.018247733 0.5694499 -0.016173417 -1.1894586 -0.52356225 2.818395 0.17691356 0.33167052 0.5711785 0.041139767 -1.4187466 0.11473977 0.14758042 -0.4505671 -0.5737487 0.5585886 -0.084875934 -1.0765444
two 1.6404889 -1.5852513 0.23623522 0.030958632 -0.14127216 0.117323555 -0.28066558 0.088748485 1.2488544 1.0580555 -0.2777091 -0.42984992 0.26215887 0.794208 -1.1460556 0.017036755 2.1278749 -0.24854447 -0.85790426 -0.6443815 -1.2185433 -0.66296285 -1.3559856 -1.3122736 -0.8903379 1.1365869 1.3194193 0.2522843 -0.56869316 -0.63435227 -0.5001171 -0.9228762 0.32217407 0.029578805 0.2884703 1.1499761 -0.09547695 0.9015076 -0.07800906 0.6819516 0.6272187 1.084883 0.09293325 1.337604 2.015384 -0.21542987 -0.28377652 0.14572068 -0.19816045 0.32676494
before -0.24107784 -0.52348346 -1.0562253 0.456118 -0.039069816 -0.2104134 -0.59547466 0.089753896 -0.19059195 -0.05677782 0.0761335 0.77119327 -0.19151348 -1.3339009 0.33090624 0.1829688 -0.14891815 0.84347385 0.08637522 0.8621249 1.2690296 0.24354906 -0.28407806 0.45553592 -0.5309776 0.2423369 0.54175824 0.65740377 0.47636297 -0.65456456 0.33331168 0.20183408 -0.4236133 1.4122636 1.2619059 1.257611 -0.21432348 0.6713108 0.3931771 0.027272385 0.15107575 0.33237708 -1.0196354 0.17522308 -0.9046862 -0.61883444 -0.3512572 0.4862823 -0.39953068 0.41613674
great 0.7533757 1.3656657 0.4840799 -0.43096486 -0.45954868 -0.5897612 -0.17691725 -0.12240549 0.17909957 -1.2966257 1.4187753 -0.48204654 -0.42516288 0.19419143 0.55913943 0.37576318 -0.42237306 -0.34184647 -0.54163146 1.197076 0.9091351 0.33795872 1.5546473 -1.0683279 0.053816427 -1.2329366 0.119211644 0.16555737 0.7463152 0.3595864 -0.8190594 -1.4128755 -0.07352713 -1.2382976 0.18321127 1.0961146 -0.30707708 -0.05912446 -0.9540764 0.13355498 0.07723827 2.321848 0.88902533 -0.6527601 -0.25346056 -1.390656 -0.35223 -0.2239262 -1.548803 1.2025447
been 0.41805318 -0.47460788 -1.256864 0.18026549 -0.23245116 -0.75954586 0.73267883 -0.80984735 -0.4822807 0.48475978 0.9248631 -0.35300308 0.8739702 -1.941998 -1.0348773 -0.5358708 -1.1734984 0.81943214 0.2688862 0.6038982 -0.5809955 0.72291356 0.454255 -0.43150476 -1.579576 0.5174091 -0.05022418 -0.6543238 -0.3639405 1.0180277 -1.0625166 0.25345144 -0.77273965 0.6245453 -0.122391425 1.0917886 -0.9740621 0.5470397 0.35809904 0.24666442 -0.94557387 -0.72136956 -0.63689196 -2.0577884 1.4596756 0.18692577 -0.8764163 1.3174192 -0.44554758 1.0416349
re 0.09949678 -0.64422065 1.9020302 1.3236798 0.53767747 -0.15274473 -0.010713818 -0.7218939 1.5850105 -0.10645547 -1.489217 0.07200948 -0.24513923 -1.0105436 0.21793109 -0.62855047 1.1581123 1.0666986 -0.1498828 -1.1252042 1.2333645 -0.15292138 -1.6013645 -0.86411923 -0.19607799 -0.59591585 0.30138943 -1.4114692 0.07077173 1.5139755 -0.9473741 0.9508093 0.6585493 -1.3906332 -0.5208475 -0.21509928 -1.5489624 -1.3041123 -1.6752281 0.7128559 -1.6687312 -1.2301247 -0.33925566 -0.57171553 0.15763533 1.2064711 0.11296777 0.8103446 -2.043746 0.12215287
cat -0.16909812 -1.797491 -0.44817904 0.91054344 -0.19832169 -0.36374664 -0.6396535 -1.1981647 -1.3527316 0.7002367 0.49993554 0.429296 -0.004654434 0.36563757 -0.5598984 -0.0035791718 -0.30840442 0.50258446 -0.8874104 0.77063864 -0.41993713 -1.0949731 0.7155865 -1.6832192 -1.7572731 -0.50646526 -0.397615 0.21316193 0.055267412 1.1574315 -1.2484776 -0.46413594 0.4005786 -0.9977836 0.8132997 -0.030893093 -1.3391826 0.49354908 -1.1544963 0.5249953 -0.41117314 1.1098711 -1.048047 0.45103234 -0.38538814 0.8167663 -0.854818 0.9905252 0.016658716 0.80203056
from 0.6442267 0.1624643 0.45249715 1.0534792 -0.6063995 0.26429343 0.1858977 -0.3198186 0.3611523 1.0025303 -0.71954733 -0.9350469 0.15347335 -1.2730484 0.104169585 -0.44203168 -0.87025595 -1.1834741 -0.8378543 0.60547537 1.3528957 -0.14400734 -1.3261588 -0.08042561 0.24645534 0.9735302 -0.6698216 0.990687 -0.48758826 0.7885018 -0.14457726 -1.4422568 -0.3289481 1.2471704 -0.17152338 -0.77213633 0.01842486 -0.23961087 1.0057966 0.6095296 0.38189602 -0.3079275 0.32844442 0.40243644 -0.11287272 -0.790265 -0.0013561128 -0.33827415 0.9602173 -1.1280769
once 1.3496757 1.1254157 0.18011434 0.5716115 -1.3375916 0.26059237 0.20837061 0.38131264 1.2227632 1.0243956 0.341885 0.40428728 1.2447753 0.16388403 -1.808316 -0.06397785 0.6330103 -0.8462075 0.3260093 0.07658754 1.6259445 -0.5391663 -0.253414 -0.5049652 -0.66203487 1.5019342 0.99125224 -0.31840125 0.853997 0.107049726 -0.46100712 -0.35030943 0.8468722 0.48727122 1.2716415 -0.81081337 -1.6786605 1.0810316 -0.09953114 -0.39162922 0.374527 0.047585398 -0.46149197 -0.093321644 0.92825896 0.21708387 -0.6613522 0.2829771 -1.1040848 0.3026849
we 0.29519293 -0.27795988 -1.4532882 0.20717011 0.49115106 -1.2821201 -0.9865894 -0.3822181 -0.54921854 1.103401 -1.0317693 -1.9805143 -0.043034483 -0.96343064 -1.2849333 0.39027664 0.9775276 1.1288438 1.5534341 0.83601713 -1.1800647 -0.16003053 0.6477352 -1.6669008 -0.036068305 -0.11952005 1.1899121 0.06780464 0.64929855 -0.07866621 1.6959182 0.018254746 1.0042189 0.77383417 -0.5974535 -1.3216357 0.25571167 1.8837321 0.09478981 -0.15747444 0.5473009 -0.07471932 -0.8516567 0.4771132 0.3338799 -0.51185876 -0.24397148 -0.27553084 0.090865746 0.22860897
nothing -0.082392 -0.4314537 -0.24454576 -0.4905685 -0.13627076 -2.21064 0.040197268 -0.5002333 -1.0946494 1.1647747 0.28883395 0.91450876 -0.08782296 -1.2074485 -0.7876932 0.46162677 0.29659438 0.75599277 -0.6628795 0.5497006 -0.8611158 0.72765577 1.6698966 -0.7239669 0.039127592 -0.5064979 -0.3660073 -1.2550772 0.28888017 -0.6047575 0.58541083 -0.10208588 0.86088717 1.5600235 0.6540625 -1.374149 -0.8776196 1.6096916 -0.041257165 0.0046676584 -0.54628384 0.7118311 -0.8807533 -0.15050952 1.0075433 1.5674222 1.10915 0.5076704 -0.22162633 0.00018184434
large 0.8263788 0.27621898 -0.47085914 -0.20665583 -1.2177067 -0.47515363 0.21933685 0.3120681 0.8302316 0.20819679 0.7235216 0.76716524 -0.794502 -0.19723755 -0.3822962 -0.024442878 0.07035611 0.32450894 0.26276183 0.8851801 0.20598292 1.446001 0.9387759 0.016019007 0.5386708 0.46148837 -0.45446792 0.86260605 0.36004272 0.03951322 -0.7200869 -1.4055424 0.57725346 0.027550196 -0.11595272 -0.0952648 -1.4085412 0.98743683 0.75225735 -0.37030792 -0.4085602 0.5384375 0.7263071 -1.0564119 -0.618065 -1.3555619 -0.3400883 -0.8188315 -1.1070613 0.61556405
will -0.13427582 0.5564795 -0.9601871 -0.27099755 -0.9352951 1.9782319 -1.2580721 -0.45392466 0.8011897 1.0300486 -1.5072091 0.41010958 0.16749705 -0.5730106 1.4168785 -2.014695 0.023127096 -0.08842566 -0.8136905 0.13061611 2.297546 -1.1058081 -0.7981841 0.30625242 -1.1623486 -2.0181994 -1.5221814 0.85946673 -1.3450141 -0.71612585 -0.7417409 1.0173178 -0.20127206 -0.78675437 0.68865925 -0.3588088 0.014745048 0.061123073 -0.7308373 0.73084587 0.4140674 -1.162795 0.7494678 0.9449189 1.0055299 1.82228 0.7855651 -0.7863848 1.831182 -1.2297839
last 0.40264097 0.52754056 0.5882545 1.285785 -0.4145587 -0.36903575 -0.4767217 0.7330229 0.79934436 0.21499412 -0.04756992 1.5263227 1.5693799 0.123140864 -0.63852483 0.71717155 -1.0147727 -0.2561583 0.121898256 -1.2146858 0.53690946 -0.49440235 -0.5236785 0.50908166 -0.66405433 0.7542564 0.45160776 -0.4203252 0.39541912 1.0163167 -1.3290056 -1.220219 -0.05723942 0.36265418 0.6784593 -0.02452907 -1.4841789 0.2440507 -0.059904642 -0.36318812 0.28359333 0.1608233 -0.3922873 0.7206155 0.124332726 0.19283879 0.5190711 0.69460136 -0.31618622 -0.01513959
march 0.29732722 -1.237251 -1.6793886 -0.15533288 0.7775791 -0.34409028 -0.17492662 -0.017993117 0.80525255 -0.13470797 0.03955792 1.1076245 -0.4361918 -2.6199772 -1.5896578 0.5621309 0.6495213 -0.8156765 0.35033286 -0.08824828 0.6883526 -2.334167 -0.39851737 1.1660981 -0.9942468 -0.8886153 -0.31834754 -0.33368197 0.70611835 0.63372225 -0.2733561 -1.3830312 -1.1274606 0.888732 0.095004156 0.86301565 0.24048124 1.5954756 -2.1605167 -0.46070066 -1.5002587 0.5427283 0.96642816 1.8075553 -0.7699916 1.6941901 -0.7918713 1.8243939 0.88557667 -0.5165087
found 0.6340351 -0.30219337 0.06895925 0.38529515 0.6281631 0.037237246 -0.70043737 -0.031654265 0.6031737 1.4693803 -0.34904435 -0.10058718 0.46203429 -1.3369838 -0.37557247 -0.2739996 -0.5057063 1.1753573 -0.23023632 -0.04686188 1.3138536 -0.1431103 0.23079123 -0.029676842 -1.2965226 0.297687 0.6406166 0.7433791 0.6803526 -0.91915965 -0.34359384 -0.03796196 -0.6853987 1.4858668 1.0788299 -0.40307376 -0.6287044 0.39318693 0.30532676 -0.80463445 0.00025775348 -0.55860454 -0.30899677 -0.8010309 -1.1829789 -0.0075417357 -0.95701665 0.7987479 -1.2807403 -1.4790493
right -1.2347938 -0.22557501 -0.7902341 0.32995287 0.02638755 -0.9238246 -0.20983262 -0.6630281 -0.213592 -0.99213797 0.7344169 0.08096212 -0.09526679 -0.89756256 -0.3528168 -0.31636027 -0.19829583 1.6725075 -0.63551676 0.4221811 0.37889034 -0.06356133 1.3306781 0.610459 -0.5008377 0.7012498 -0.7962544 -0.82784945 0.56858814 -1.0435137 -0.3651458 -0.25879404 1.8825955 0.86512357 -0.14082879 -0.5721637 -0.19102435 0.16695333 -0.8848149 0.6747333 0.00517025 0.6499432 -0.8631493 -0.08385928 0.53181416 -0.60353214 1.3706342 -0.60805815 -0.47159228 -0.19364125
tell -0.048850056 -0.429288 0.54990053 1.7482275 -0.28783706 0.12880445 0.21579626 -2.14078 0.10794805 0.5088247 -0.25704116 -0.33672157 -0.5929343 -0.961069 1.1882148 -0.12470924 1.3320129 -0.579201 -1.216874 0.15088366 0.39280552 -2.3547034 0.44960216 -1.0441389 0.30848467 0.75564486 -2.134473 0.13021721 0.675101 1.238436 -0.48554203 0.9100826 -0.27181795 -0.18625587 -2.0220091 -0.90677977 -1.7808617 -0.23587632 -1.0949646 0.23284993 -0.9103448 -0.65415937 -0.22225629 -0.75773084 0.5553821 -0.1741219 -0.4838964 1.455894 -1.4297218 0.11478251
long 0.6957443 0.010119122 0.44997612 0.55169404 -1.1103332 -0.29597473 -0.08366796 -0.72237724 1.1861684 0.22258662 0.4051659 0.01877588 0.3273062 -0.30707458 0.17628731 1.5478249 -0.77023304 0.7054867 -0.19445798 -0.5271005 0.38751382 0.7382603 -0.42864504 -0.20152086 -0.06486266 0.12464573 -1.1024305 0.49375436 -0.054586124 -0.90009475 -0.6845928 -1.2335696 -0.03016499 -1.0061529 0.38940215 0.3723177 -1.4838257 0.228409 -1.5227976 -0.5887002 -2.502402 -0.116836324 0.71328366 -1.7156849 -0.3978871 -0.7255382 -0.14290234 -0.059862033 -0.46989426 0.46748456
looking 0.78684896 -0.8591275 -0.40445447 0.21091568 -0.37067536 -0.570061 -0.6857083 1.1510103 0.69295776 -0.35671544 0.44049668 0.92825794 0.71580833 0.28136414 -0.8968709 0.2533201 -0.046760246 -0.5118015 0.40069142 -0.7703074 -0.83767766 0.028373413 -0.25133136 0.23364154 -0.79551154 0.6907871 0.54363334 0.21785656 1.5250708 0.5757913 -1.3959858 -0.6628268 -0.8625294 1.0457612 1.9040928 -0.032138042 -0.1564477 0.45621097 0.17057835 -0.4345672 1.3925295 0.033614818 -0.589344 -0.93486935 0.041359715 0.22514601 0.6909073 -0.72995305 -0.73379 0.4533923
moment 0.8189153 -0.67911536 -0.4678964 0.2670519 0.28532535 -0.6082557 -1.1311278 -0.2918025 -0.033973932 0.50980127 0.43852308 1.2665548 1.1274586 -1.1548523 -1.1649657 -0.9023154 -0.47568363 -0.8749035 -0.67624325 0.3521013 2.2798362 -0.81377816 -0.37731847 -0.88997394 -1.6432623 -1.2428681 -0.91124094 -0.31294972 -0.06472512 0.32379422 -0.83176076 -0.67732215 0.2855659 0.37815413 0.82970864 0.18064384 -0.39686188 -0.67813003 -0.6787413 0.26261824 0.01990703 0.18261303 -1.7108897 -0.481681 -0.49117824 -0.39758405 -0.01995488 -1.0151877 -1.4022216 0.61092114
put 0.23075671 0.029433664 0.7259298 0.723767 0.83383334 0.6036852 0.60068434 -0.6029015 1.126107 0.9027358 -0.102076076 -0.045311823 1.0053364 0.89175653 -0.6815424 -1.2165227 0.39116225 -0.8093225 -1.435902 -0.2942828 0.721086 -0.05103364 1.7043642 -0.02268625 -0.87291265 -1.1687591 0.70658547 0.8554891 0.1029292 0.656759 1.2832901 -0.013516542 -1.2078317 0.93199956 -0.9510334 -1.6153529 -0.9631248 0.46848127 0.80313504 0.2471732 0.47987297 -0.5210423 0.17976265 -1.4693168 -0.069546625 -0.83143884 0.23943587 -0.23734744 -0.0689936 -0.3178341
white -1.041454 -0.59749585 -1.4802314 0.3446941 -0.5242747 -1.6254468 -0.6790381 0.9391781 1.2775259 1.4557624 -0.20503552 1.0816046 1.3537773 0.96084076 -1.2181078 0.74340916 0.81219435 -0.89994407 -1.3979733 0.75881195 -1.0561002 -0.45476884 -2.088548 0.113644406 -0.6461908 -0.68429106 -0.021261126 1.5117027 -0.53436244 -0.9145006 0.10124787 -1.5218275 1.5166558 1.442791 0.6973591 1.2237083 -1.5472287 2.4068735 0.4883381 -0.6673996 -0.7568834 1.0686971 -0.44167203 -0.58940625 -0.5175029 -0.5046056 0.4867754 0.39067596 -0.15904771 -0.62549293
next 0.97841877 -1.0184393 -0.31746498 0.609636 0.6258601 1.27481 -0.16268604 0.48853073 -0.2621715 -0.4005195 -0.27684918 0.1958851 -0.14489076 -0.14210354 -0.5766484 -0.42345285 -0.36618927 0.77364737 0.13835788 1.0031316 0.26951092 0.11892034 1.3212945 -0.041131575 -0.35984784 0.016714811 -0.64146435 -0.21262386 0.57038367 -0.637993 0.052438255 -0.35690352 -0.1118195 0.9870239 0.124712415 -0.71610135 0.20573911 -0.4108077 -1.1586485 0.6883752 -1.3682393 0.497398 -0.042886406 0.43862158 0.116335094 0.01033578 0.1675736 1.0648568 -0.6580845 -0.14701292
things 1.351327 -0.07042584 0.549241 -0.13498779 -0.40653738 -0.6556673 -1.304104 0.48942944 -0.42717946 -1.0658406 1.2778499 -0.37208652 0.49762926 -0.44112965 -0.22202809 0.043436583 -0.112509996 0.58157456 0.32562518 -0.0106094 -0.46773124 0.07525233 0.13870585 0.087884724 -0.11392366 0.12215686 0.2531726 0.19269036 0.023113823 0.52384436 0.7521733 0.738874 -0.9432601 0.6792532 1.0088716 0.28289837 0.48413968 -0.14069106 -0.42571893 0.2878961 -0.3171434 1.1593711 -0.04484186 0.23468278 0.6779413 -0.65539336 1.1296252 -0.7365103 -0.41863745 -0.4306983
door 1.0875227 0.7191351 -0.89874643 1.2683432 0.93633115 0.46112603 -0.7288333 -0.65907717 -0.4330639 -0.4510093 1.4454583 0.95092577 0.07694641 0.3763342 -1.2272167 -1.0646728 0.54765797 -0.31442934 0.058643296 -0.67138934 -0.6174589 -0.8146547 -1.1694608 -0.45460713 -0.6325258 0.47150385 -0.08465253 0.34543428 -0.8879125 -0.8754055 -1.3789438 -1.0857457 -1.3437518 -0.23713496 0.509894 -0.13309567 -1.3447671 0.75347126 0.30109963 0.682712 0.25172076 0.696707 -1.3790183 -1.0627425 -0.35324594 -0.27085847 -0.120037965 1.1040868 0.71026903 -0.2306104
heard -0.3789953 -0.57582414 -0.5274895 -0.037825376 0.76997304 -0.47608322 -0.3846757 -0.12663609 0.16740839 1.0352292 0.79647225 0.34067932 1.2956223 -1.2485579 0.6903005 -1.4641385 0.5854329 -0.5212023 -1.0164065 -0.84385526 -0.15948322 -0.16526867 -0.31813404 0.39181408 -0.77943677 0.2978206 -0.12123713 2.1601515 -0.58524936 0.14324655 1.1751328 0.09173429 -0.08029799 1.114285 0.905949 1.0801634 -0.6412966 -0.57061297 -0.8787169 0.50976783 0.77086 -0.65174675 -0.41242138 -0.96295553 -0.71244025 -0.40489253 0.062238198 0.51151174 -0.44106475 -1.0379584
hare -0.58386683 -0.8307756 -1.4348303 -0.37128893 -1.1716449 1.3446107 -0.36193818 -0.71525365 -1.1279652 -0.6768827 1.73266 0.86791015 0.48804408 1.6558841 -1.5840716 -0.15060152 -0.0791103 0.689739 0.8329736 -1.055764 0.54801846 -1.4198234 -0.8650376 0.72344667 -0.22227454 -1.2811774 -0.22727056 0.3480495 -0.09338024 0.24349795 -0.4762143 -0.9204969 0.26786172 1.0518869 -0.324602 1.8017095 -2.2648945 1.5302402 1.0672288 0.14879437 -1.09629 0.975047 -2.042212 0.8982295 -0.011723573 0.23353173 1.6688794 0.99495184 1.9291166 -1.6085205
made 0.47761127 -0.3591013 0.6550773 -0.4874383 0.97919446 0.26480547 -0.3822729 0.33950728 1.1574752 1.0247743 0.30316004 -0.49238712 0.21739146 -1.2624602 0.57794315 -0.83579797 -0.55603045 1.3113788 -0.27838778 0.41985855 1.461864 -0.4167924 -0.317925 -0.14560336 -1.2539525 0.4993088 -0.55776954 -0.28102013 -1.1525153 -0.13385999 0.7383618 -0.14471443 -1.1190789 0.55297 -0.0103215305 -0.8719517 -1.1356407 -0.412011 1.0589075 0.026020546 -1.0366944 -1.2105154 1.1148623 -0.23290406 -0.6972646 0.2498688 0.35545748 0.5039616 -1.3222231 -1.4851403
eyes 0.98531526 0.5678245 -0.23885502 -1.4447083 0.45455787 0.4614407 -1.3542556 0.49779803 1.1439725 -0.46851447 0.3822329 -0.6681241 -1.9077885 0.8427212 0.5600414 -0.8825205 0.96813565 -0.28699106 -0.13369147 -0.13585863 -0.93243444 -0.067902476 -0.7942214 -0.2603772 -0.20728895 -0.57149225 0.009676975 0.7593591 -0.18010333 -0.13821708 -0.5715866 -0.9373471 -2.4228973 1.0385001 -0.5722393 -1.1672789 -1.00765 0.045075133 0.14995062 0.67051893 1.3384788 1.3121704 -0.14063042 -2.0712986 -0.11487023 -1.8359102 -1.1078886 0.40524238 -0.12727979 0.019219805
dear -0.33695188 -1.254908 0.91196936 0.68724316 0.29853117 -1.5157421 0.21489738 -0.7842324 -0.26563826 1.8338832 1.1063161 -1.5626985 0.5044861 0.0196315 1.1896647 0.39546776 2.299322 -0.69903594 0.6266488 -1.4786824 0.6852411 0.09276515 0.8537047 0.005015761 -0.8451611 -0.84026635 -1.0209383 0.34982046 2.0160067 0.69194704 0.9887613 1.0314358 1.0418471 -1.4372085 -0.5540044 0.32920754 0.1426679 0.37217906 -1.0238183 0.15889734 -0.32282692 -1.667127 -1.5520324 0.2913326 0.023595804 -0.9471189 0.42489028 -0.08278919 -0.95591384 -0.557363
look 0.744497 -0.6524793 -0.114039175 0.54716855 -0.63117856 -0.5655441 -0.48096442 0.72757816 1.2066877 -0.2964376 0.564215 0.43453935 1.3926135 -0.9577059 -0.4570306 -0.37197262 0.08830059 -0.47209415 0.52060956 -1.0592816 0.9381741 -0.063423134 1.1455238 -0.27947217 0.6592671 0.91488796 -0.59797025 -0.9855438 0.16495822 0.5350556 -0.23124093 -0.393819 -0.4110015 0.5484833 -0.2716232 -0.72565824 -0.63374865 0.61828417 -0.29104564 0.6000963 0.67907465 1.1590621 -0.34932467 -0.08765814 0.33037567 -1.0299876 0.9925031 0.34793758 -1.1250467 0.30830556
d -1.1921281 -1.5956403 0.14643238 -0.1815584 -1.5669851 1.2953547 0.26633307 -1.459454 -0.39251626 0.5011866 -0.69529444 -0.16803455 0.2435244 -0.916376 0.3764004 -0.6648995 0.74445903 1.2846198 0.71213984 0.08217952 1.6702274 -1.5377557 0.20091023 1.4291313 -0.6875877 0.6400227 0.72944796 0.4054858 -0.710082 -0.40983087 0.9835787 0.7887528 -0.2140455 -1.0056143 2.1240942 0.7417692 -0.25921786 -0.5009952 -1.402811 1.4842541 -1.4425257 -0.40847418 -2.38635 -1.3331716 0.49117446 1.0826511 -0.26798686 1.4906869 -0.21736658 -1.6550472
replied -1.3354771 -0.21280389 0.7877044 0.01843314 1.1309958 0.57244223 0.369774 -0.8967453 -0.6620798 1.4316926 1.3447865 1.9976878 1.9224199 1.7949891 -0.20390016 -0.036841284 0.4252648 -0.77454543 1.7250739 -1.8122873 0.7009115 0.25580993 1.1838285 -1.5793297 -0.3226369 -0.89967227 0.30865347 0.5630897 0.22721542 0.6565051 0.19969845 -0.22197166 -1.0712591 0.69945806 0.5127462 -0.41336134 0.75548416 -2.7948523 -0.21665001 0.29233545 0.62839997 -0.5130152 -0.62655306 0.601906 -0.52052397 -0.42162752 0.12755263 0.27402598 0.5852509 -0.12804678
day 0.6009725 0.098498814 0.24785171 -0.85334784 -0.22662507 -0.36479446 -0.32811168 -0.7072027 0.01693315 0.58960813 0.3283392 -0.19180796 0.6016715 0.47027048 0.55606586 0.4703327 0.46696278 0.120338365 0.09127994 0.56548643 -0.19329478 -0.7324339 0.14037378 -0.6934459 0.14878723 -0.391173 -0.4499629 -0.29789734 -0.044662815 1.0692807 -1.4574462 -1.6234306 0.47988907 -0.48547524 -0.939921 -0.3908437 0.61947834 0.7147143 -0.3273201 1.3254056 -1.0237831 0.27580023 0.74131 0.6437186 0.7857173 0.03916989 0.5232459 0.10265052 -0.40694553 -0.84255755
might -0.99757266 -0.017404698 -0.20441434 -0.24319272 -0.7632639 0.77591294 -1.216265 -1.2406422 0.9737337 1.6038531 -0.39374298 -0.59562224 -0.16662084 -1.4843252 0.3515008 -0.6114149 0.08852844 1.1217332 -0.07794122 0.19542241 0.53961414 -1.9817936 -0.26240113 0.7882756 0.4636561 -0.9097664 -0.07414156 0.3325087 0.80034536 -1.2343388 -1.0904773 0.9248112 -0.19504933 0.879269 0.47270927 0.0316443 0.91091394 -0.40069726 -1.2765604 0.39378598 -0.2511503 -1.6892661 -0.3731121 -1.0275954 0.0194368 0.93927276 -0.025241882 0.80678004 -0.4812033 -0.6068356
three 1.2735304 -0.6025173 0.31424877 -0.34217104 -0.5457165 -0.45395988 -0.19806325 0.4708363 0.803862 -0.55920464 0.72784746 -1.1740708 0.5373008 0.042180054 -1.6365138 0.85040426 2.2903514 -1.0641314 -1.2452426 -0.4481566 -1.930648 -0.15747832 0.593696 0.13260812 -0.097772755 -1.0088748 0.7111786 -0.92087525 -0.83045006 0.08126965 -0.92370546 -0.25101116 0.613399 0.44475445 0.19977683 -0.42697123 -1.6987885 0.9658346 0.97482944 0.2294259 -1.0920194 1.5309632 0.89851755 0.33075762 0.3978379 -0.24786745 -0.84792775 1.003449 -0.39999026 0.8321422
caterpillar -0.19533709 -1.6017278 -0.5974818 1.1877304 0.05953945 -1.1125692 -1.3321385 -1.2050478 -0.31453434 -0.5938135 -0.10218898 1.2562318 0.09447644 0.9802564 -1.9082518 0.44251516 -0.41856837 0.7693916 0.22701167 -0.041378476 -0.5220819 -1.8205937 0.87215227 -0.88868964 -1.3599594 0.26038057 -0.44965708 0.5394039 0.5374473 0.28842333 -1.1955699 -2.0083978 1.0529026 0.69539136 0.22660354 -0.71754575 0.06294582 0.52164346 -0.38659182 -0.073076114 0.14637828 1.1489401 -0.116530284 0.39634892 -0.35122862 0.21011028 0.73223835 1.5258733 0.7501103 -0.51705897
seemed 0.26137406 0.3009785 0.8250205 -0.57304466 0.20353478 0.34565684 0.13113298 -2.4971845 -0.04356868 1.0201302 -1.4430593 -0.16975325 1.0924085 -0.83197224 -0.18826617 -1.4912491 0.58800524 0.72022074 -0.8588045 -0.5632833 0.84580004 -0.20416589 0.6047016 -0.1053298 -0.7571312 -1.9895966 0.27185082 -1.735274 -0.1718638 -1.8752989 -1.0724072 -0.06183111 0.108278 1.4066486 -0.26991442 0.33895722 0.2155037 -0.9403027 0.87056285 1.1165051 -0.030812297 0.29683053 -0.17860413 -1.3129789 1.1321169 0.622275 0.63983434 0.0023102679 0.97961736 -1.074814
going 2.0347373 0.76561284 -0.23573905 -1.3475218 0.5609825 0.067391045 2.1031525 0.39343765 -0.03302003 0.69811946 0.23244727 0.8947882 -1.0175016 0.27328134 -0.53218764 0.17105687 -0.39300436 0.8116283 -0.7889409 -0.22785138 -0.2195221 0.90473306 1.3637955 -0.83826506 0.55846184 -0.9069636 -0.5272037 0.3275568 1.6064048 -0.23991293 -0.14069486 -0.3096445 -0.4696824 0.3623065 0.3091023 -0.02902935 0.2755231 0.12551442 -0.3388932 0.5040801 -0.238959 0.4073978 -0.7710763 -0.7163403 0.7582328 0.32440174 0.9636137 -0.71412706 0.5912223 1.0684055
make 0.017550569 0.57082915 0.035213463 1.2657293 -0.47194272 0.75911105 0.28855792 -1.4615643 0.9202752 -0.24060199 -1.5727888 0.37799937 0.79322135 -0.78269506 -0.13241948 -1.0496727 0.63680786 0.17279252 -0.040611275 0.18680985 1.8294665 -0.09418659 -1.020306 -0.41330478 -0.40207875 0.30642086 -1.0934098 -0.5953175 -1.2067289 -0.6157993 0.15855588 0.76232696 -0.6829753 0.25076082 -0.83223426 -2.3524444 -0.43129554 0.7086155 0.40538704 -0.49795303 -1.3524659 -0.014204872 0.56651676 -1.6652153 0.87951744 0.23098214 0.4541421 0.4606237 0.31784046 0.0995287
good 1.1660544 -0.18326098 0.8984295 -0.89168996 0.6823753 0.21054086 0.218733 -0.80623156 0.3298824 1.0217434 0.87028015 0.022962619 -0.227507 -0.6209665 0.7327492 1.4030974 -0.75699264 0.121148914 -1.1556242 -0.9092594 0.18172698 1.3165947 0.26794067 -1.1568093 -0.88552576 0.25865448 -0.1061231 0.6529855 0.8585413 -1.3046764 -1.444948 -1.811409 0.6920812 -0.019934515 -0.40343308 -0.9827811 1.3563604 -0.9284108 -0.6297339 0.20588069 0.4305889 1.5803261 0.6234296 -1.3829287 -0.6155739 -0.2009391 -0.42451945 -1.1869186 -0.5233948 0.57530195
should -0.46265298 -0.74206716 1.2836425 -0.97604793 -1.228361 0.2648139 -0.050700396 -0.68339014 0.094982915 0.951905 -0.37172028 -0.4566315 1.5256344 -0.5203329 0.9748994 -2.4760723 0.8107484 0.028406627 -0.08582217 -0.39618164 1.7137315 -0.42566898 0.88863367 0.3086437 0.6768743 -0.43856654 -0.6387883 -0.54492384 0.7769696 -0.89604944 0.29794052 0.8424832 -1.6119189 0.88669384 0.16916329 -0.114144616 0.24466376 -0.77113116 -0.59371334 0.46660334 0.2273929 0.43432605 -0.8167991 0.08675484 0.31620514 -0.094896145 0.32359064 1.3867924 -0.45646578 -0.9217769
poor -0.8838302 -0.012582776 -1.1768922 0.9705078 1.4745895 -1.6043861 -1.0860078 -1.6710361 -0.2745547 0.06925104 1.8773541 -1.2144028 1.098613 -0.1939533 -0.23058812 0.15726064 1.6612898 -0.5691871 0.2962258 -1.8623809 -0.30750537 1.3558507 1.2850606 -0.07262444 -1.369485 -0.70367587 -0.6847822 0.10024029 -0.08781483 -0.70240057 -0.61195344 -0.42219517 0.26823017 -0.6442224 0.44832882 0.48483074 1.8800821 -0.32877472 0.22147644 0.20655327 1.5015181 0.12250272 -0.12264362 0.7551844 -0.4098964 -1.7487608 0.5626879 0.6522253 0.22696476 -0.5930114
without -0.55479985 1.0537955 -0.5830866 -0.4677036 -0.30044848 -0.42798 1.7554697 -0.5304802 -0.19513388 0.7181016 -1.4507278 -0.7365948 -0.77482104 -1.1629307 -0.076143846 0.8080215 0.23975587 0.6798403 0.68753684 0.7529327 0.8435755 0.24885704 -1.0196562 0.4372899 -0.34809333 0.5161993 0.8572691 -0.054722633 0.9884926 -0.41324967 -2.2085528 0.4816819 0.2331661 0.14809497 -0.4247799 -1.3197109 -1.442076 0.26576483 0.05196191 -0.4606649 -0.24465105 -0.93964314 -0.6868955 0.43185982 -0.0560572 -0.3514198 -1.196187 -0.7026368 -0.51905155 -1.4355228
upon -0.0525633 0.016458962 0.16020203 0.7460989 1.3263856 0.38144583 -0.33615667 0.8007894 1.5510817 -1.0397805 -0.05244764 -0.46503872 -1.2200453 -0.96579444 0.88970697 -1.57383 0.21406564 -0.08741493 -1.1260501 0.36881608 0.24462995 -0.45588073 -0.035850093 0.88401806 -0.44587797 0.14934468 1.4294903 0.7781776 0.31199822 0.020767402 0.043818492 -0.53305614 0.39952007 -0.049439296 -0.14405927 -0.6185897 0.3340604 -0.46082333 0.66034204 -0.84848994 0.558486 -0.5525835 -0.56659573 -0.13964061 -2.4250476 -1.4381386 -1.3837248 0.18500327 -1.2236081 -0.3305951
won 1.1074601 -0.16517852 -0.6763096 -1.0321356 -0.015132238 0.21008484 -1.1304609 -0.8596046 2.2408733 -0.062208075 1.5028741 0.6418347 0.551334 -0.3848802 -0.9816972 -0.3019231 0.6830706 1.6745207 0.1310442 -0.092885636 0.34415814 -1.2439572 1.5528879 -0.15472677 -0.21985681 -0.84188515 0.209371 0.15172929 0.8024751 2.1023846 0.250186 0.84273964 -1.7830697 -0.70707935 -0.8507978 -0.4107516 -0.6994451 -0.023034759 -0.7410744 0.4564389 -2.1018693 -1.5678428 -0.28548238 1.2412657 0.8365205 0.98073024 0.9153204 -0.46238294 1.2471735 0.6670724
shall -0.5935734 -1.4333591 0.73246217 -1.8003738 1.0929896 0.72010624 0.3748756 -0.45963463 -1.2913078 1.1733636 -1.13273 0.44605672 -0.7250644 -1.3628407 0.7017427 -1.5990157 1.6702974 -0.7017374 0.48225856 0.2544605 2.639837 -0.14035745 0.3597547 -0.76752746 -0.3031814 -0.720629 0.1894026 1.0539048 0.17147554 0.6825381 0.68678385 1.323763 -0.4838337 -0.66108394 1.1864223 0.18468533 -0.32489663 -0.06935497 -0.08621606 -0.06926789 0.7088633 -0.797578 -1.3135369 -1.205559 1.9543097 -0.48759058 -0.079181984 -0.013964851 0.8830036 -1.1557456
too 0.004080167 0.95614284 2.1837997 -0.49349323 2.047566 0.75662166 -0.33510292 -0.77286375 0.5575863 1.5976273 0.08784679 -0.2653988 -0.51556766 -0.46648106 -0.09678785 1.6360108 -1.0489677 -0.13988481 -0.41813177 0.4768507 -0.5201931 -0.8401032 0.19229697 -1.2547112 -0.36752674 -0.5802699 0.56552756 -0.9564135 1.2286177 -0.2514709 -0.75397825 -0.022492947 -0.303215 0.4830987 0.30596593 0.239946 0.14099908 -0.41748837 1.0754318 0.38131616 0.66499084 1.9223374 -0.05755168 -1.1913258 -0.0785162 0.29835466 0.30866107 -1.5051628 1.0164083 0.87729627
rather -0.1925368 0.30781978 0.8868832 -0.1908733 -0.19689164 -0.9015936 0.5203342 0.07997724 -0.4597167 1.381696 0.77572316 0.74557817 -0.3419733 -0.106261164 0.39853576 1.183609 -0.22883889 0.5201853 0.34824857 -0.36606568 0.564719 -0.71938705 1.0152345 -0.69766045 -0.1883791 0.80439574 -0.014498481 0.39912447 1.1752163 0.15310189 0.39679334 -0.2541568 -0.49872106 -0.556441 0.29977703 0.123653695 -0.0477843 0.066844314 -0.37397975 0.7708928 0.053092163 0.6677677 -0.686533 0.41729832 -1.2175264 0.21885258 -1.0916183 -0.03744485 -0.14504766 0.92547506
soon 0.09209398 -1.2081363 0.94147265 0.91758376 -0.52753186 0.28120312 -0.10675551 0.29668397 -0.48752993 -0.6930579 -0.06404789 0.7767811 0.7795924 -0.22774446 -0.0064386996 0.7757773 -0.53243965 1.3291417 0.3064851 -0.324759 -0.42393222 -0.15299559 0.5160637 -1.0341582 0.78244364 0.5384117 0.57923174 0.50047576 0.90717864 -1.478285 -0.20053715 -0.6169568 -1.510533 0.85525215 0.4373123 0.33686033 0.36293215 0.15792385 -0.6142479 -0.40037295 -0.08822611 0.786371 -1.4100847 -2.7656884 -1.1529353 -1.4628175 0.49297786 1.6798846 -0.2476409 1.0198697
away -0.54322445 0.19038188 0.20456356 0.68461406 -0.14482535 0.0756192 -0.5183168 -0.658091 -0.7037639 -0.55126065 -0.575905 -0.6847876 -0.40561876 0.5335603 1.0098215 -0.4730304 -1.1302544 0.7156011 -0.38549763 0.31121436 0.6256424 -0.61546504 1.5202392 0.20518914 -0.63872313 -0.037392914 0.09238561 -0.904874 -0.7105318 -1.3742427 -1.055376 0.52826005 -0.951709 1.0490143 0.79958963 -0.5896239 0.17182635 0.05734989 1.556234 -0.22776058 1.0999242 -0.73974866 -1.563778 -0.47683892 0.40685245 -1.0661044 -1.383526 -0.04405648 -0.86401415 -0.26129544
while 0.56014055 -0.21093047 -1.345595 0.38695896 -0.03717803 0.4653855 -1.2961984 -0.038876444 0.2353303 0.26335987 0.9659291 0.25077888 0.68573815 0.031466965 -0.11741431 0.26021054 -0.48864043 -0.32343277 -1.1486802 -0.7766312 -0.02060994 -0.110163085 0.2877977 0.13017713 -0.8100812 -0.6439902 0.65366566 -0.312651 -0.5068749 -0.34505507 -0.47258443 -0.7464392 0.04325823 0.30705264 1.1107929 1.1033937 -0.25137776 -0.39020804 0.48258466 -0.050525136 0.2362246 -0.6201544 0.44688892 -0.8322026 0.24008329 0.6198725 -0.4892191 -0.8188752 -1.0290021 -1.1876101
course -0.33521408 0.34526783 -0.8435905 -0.09442121 0.7699687 -1.5808457 0.18852562 0.32283628 0.8866053 0.4695014 -0.42843986 1.8400917 1.0769467 -1.0323455 0.38344052 0.44411537 0.85098284 0.10114222 -0.12226139 -0.72142696 -0.55953264 -1.4769017 0.7001629 0.49207622 1.3561379 -0.23043515 -1.0465616 0.22096452 -0.09189402 0.7773813 0.38236406 -0.44788316 -0.34075844 -0.67847437 0.9867964 1.2518305 -0.91733307 1.1633153 -0.51343143 1.5899583 -0.30022678 -0.07330702 -0.45571232 0.5346923 0.60532075 0.8866239 1.3288254 0.05600416 -0.90640676 -0.39357668
